0.04120956361293793
-0.18898096680641174
-0.14496871829032898
-0.5695260763168335
-0.616334855556488
-0.6087644100189209
-0.016775934025645256
0.17667119204998016
0.5044207572937012
0.09924038499593735
-0.059781383723020554
-0.46840980648994446
-0.46185293793678284
-0.26813170313835144
-2.1541852951049805
0.5542987585067749
0.15548940002918243
0.23090775310993195
0.33117011189460754
0.25126194953918457
0.22366173565387726
-0.8859564065933228
1.1276251077651978
-0.06834251433610916
-0.28915438055992126
-1.559859275817871
-0.0467740073800087
-0.08181377500295639
-0.5992859601974487
1.3660635948181152
-0.3946264982223511
-2.529719829559326
-0.04668314754962921
0.07649163156747818
-0.6271922588348389
-0.612146258354187
-0.8208929300308228
-1.0255298614501953
0.05635160952806473
0.0015939462464302778
-0.07750081270933151
-1.083122730255127
0.6342867612838745
-0.09929431229829788
0.2387515753507614
0.1554647833108902
0.06118088215589523
0.019889092072844505
-0.060138847678899765
0.08078601211309433
-0.11323478817939758
-0.09563343971967697
-0.16404497623443604
-0.6874656677246094
-2.6522979736328125
-2.590663194656372
-1.512022614479065
-0.3937700092792511
-0.39496302604675293
-1.5419162511825562
-1.2199373245239258
0.08891502767801285
0.1016850546002388
0.04540545120835304
0.0559367835521698
-0.8869643211364746
-1.7614909410476685
0.34991320967674255
-0.07078950852155685
-0.04474373534321785
0.19477909803390503
0.18579861521720886
-0.8230825662612915
-0.3930514454841614
-0.14650312066078186
0.19679592549800873
0.09528635442256927
-0.08582104742527008
-0.060459572821855545
-1.1193588972091675
-0.49520960450172424
0.08548671752214432
0.0785495862364769
-0.2752154767513275
-2.9668922424316406
-0.05527181178331375
-1.4262384176254272
-0.07939574867486954
-0.05460274592041969
0.01263583917170763
-0.04631882160902023
-2.6019718647003174
-0.5645254850387573
0.6121745109558105
-0.7753599882125854
0.19850651919841766
0.3445321023464203
0.9993946552276611
1.01567804813385
-0.20945680141448975
0.03454321622848511
0.1854122132062912
0.798337459564209
-0.45759934186935425
-0.04778020828962326
0.148485466837883
-0.9073382616043091
0.09708057343959808
-0.00545522989705205
0.1816912442445755
0.05376286059617996
-0.10597611218690872
-0.05277707055211067
-0.042996056377887726
-1.8002359867095947
0.17040051519870758
0.22859147191047668
-0.005977040622383356
-0.25518888235092163
0.2384924441576004
0.022066932171583176
-1.5833920240402222
0.961320161819458
-3.8568153381347656
-2.9887192249298096
-0.5004019737243652
-0.12921081483364105
-0.3046146631240845
0.22564229369163513
-0.3903809189796448
0.031087201088666916
0.26188772916793823
0.18235166370868683
-0.018960589542984962
0.0003908630460500717
1.312699556350708
0.1806420087814331
0.15478917956352234
0.1891317069530487
-0.017737682908773422
0.06201600655913353
0.33027535676956177
2.5643386840820312
-1.0576595067977905
0.48639822006225586
0.23693548142910004
0.40917712450027466
-1.086759090423584
-0.9608835577964783
0.5322410464286804
-0.0006454621907323599
0.4260924160480499
1.053183913230896
0.15766766667366028
0.21802006661891937
0.9300881028175354
1.839053988456726
-0.12275245785713196
0.2825072407722473
-0.1068292185664177
-0.07133595645427704
0.009072650223970413
0.220249742269516
0.5455519556999207
2.250947952270508
-1.2519829273223877
-0.11119545251131058
-0.03751882165670395
-0.18032419681549072
-2.753484010696411
-6.09365177154541
-1.4973951578140259
-0.5803863406181335
-0.02133628912270069
0.0278900396078825
-0.027368541806936264
0.09169723838567734
-0.021081190556287766
0.07668536901473999
-0.8189409375190735
0.07425208389759064
0.10710461437702179
-0.011690842919051647
0.08298470079898834
0.08149786293506622
0.1150287538766861
0.08120828866958618
-0.047966595739126205
-0.013436933048069477
0.11355887353420258
0.0224281195551157
0.007742272689938545
0.23099388182163239
0.11782024055719376
-0.0038111486937850714
0.0978570431470871
0.1861654669046402
0.11510420590639114
0.33690282702445984
-0.21724817156791687
0.0029554576613008976
-0.23164184391498566
-0.1846899688243866
-0.1887706071138382
-0.6315453052520752
-0.5283255577087402
-0.8557567000389099
-0.05685602128505707
-0.5322796106338501
-0.08549699187278748
-0.6090646982192993
-0.47274941205978394
-0.6698789596557617
-0.10243136435747147
0.2318243384361267
-0.683451771736145
-0.4359782338142395
0.02383105829358101
0.21914204955101013
0.10216859728097916
0.02644791081547737
0.8017221689224243
-1.1094118356704712
0.048973605036735535
0.14453844726085663
0.006263460032641888
-0.4671017527580261
-4.116471290588379
-0.14519356191158295
-0.8866789937019348
0.606075644493103
-0.18688084185123444
-0.07493715733289719
0.2859669327735901
-2.3466053009033203
-0.9733000993728638
-0.6082841157913208
0.06847604364156723
0.09029459953308105
-0.010893021710216999
-0.18753880262374878
-0.6137599349021912
-0.5024253129959106
0.04760463535785675
-0.17797011137008667
-0.1044197678565979
-0.6292119026184082
-0.8623634576797485
-0.9424247145652771
-0.01659211330115795
-0.08999816328287125
0.1243068054318428
1.6586246490478516
1.2405271530151367
1.174332857131958
1.7558759450912476
0.2136932760477066
0.024272724986076355
0.039067499339580536
-0.20890161395072937
0.06436973065137863
-0.025067690759897232
-2.2738194465637207
0.5163788795471191
0.20222988724708557
-1.3914520740509033
-0.50212162733078
-0.12419804185628891
-0.39559122920036316
-0.2662656009197235
0.1525260955095291
-1.0959917306900024
-1.3968857526779175
0.18106581270694733
0.25218069553375244
0.048961348831653595
0.2309202253818512
0.29371339082717896
-0.22036151587963104
-0.8556784391403198
-0.1468028426170349
0.09945593029260635
0.12149801105260849
0.04424275830388069
0.17375269532203674
-0.044624969363212585
-0.3822975158691406
-2.6210720539093018
-0.05801305174827576
0.020724210888147354
-0.11061757057905197
-0.6267539262771606
-0.5542041659355164
-0.3257344365119934
-0.7004867196083069
-0.2569003105163574
-0.28613123297691345
-0.6101062893867493
-1.836788535118103
0.12246184051036835
0.03123609721660614
-0.24146774411201477
-0.13819772005081177
-0.8329598903656006
-2.125674247741699
-1.3853875398635864
-0.6741507649421692
0.17317689955234528
1.1014161109924316
0.11015003174543381
0.08017180114984512
-0.03404230624437332
-0.10460088402032852
-0.09042596071958542
0.06347163766622543
1.1094540357589722
0.025150064378976822
-0.04609249532222748
0.02272363379597664
0.09705350548028946
-0.03539159521460533
0.18907710909843445
0.28725630044937134
0.3114359378814697
0.24885761737823486
0.21497848629951477
0.220371812582016
-0.02994338609278202
-0.6088153123855591
0.3360235393047333
-1.6311131715774536
-1.071470022201538
-0.5042041540145874
-0.06102556362748146
0.07834319025278091
-0.5125687718391418
0.12042829394340515
0.507953405380249
0.09196475148200989
-0.023938000202178955
-0.17534548044204712
-0.4312698245048523
-0.6057930588722229
0.7017925977706909
1.581316351890564
0.8383985757827759
0.3285945951938629
0.270621120929718
1.1770275831222534
0.7479125261306763
-0.017304033041000366
-0.0017131119966506958
-0.43809351325035095
-0.380729615688324
-0.1754172146320343
-0.433881938457489
-0.1046396940946579
0.267448753118515
0.5881466269493103
0.4026378393173218
0.18124957382678986
-0.028049185872077942
-0.03394762799143791
-0.06799614429473877
0.09732294827699661
1.6835063695907593
0.5415343046188354
0.030267303809523582
0.024316659197211266
0.10819403827190399
-0.10803983360528946
-0.6870243549346924
1.218585729598999
-3.554365873336792
-0.7630967497825623
-0.28116193413734436
0.06787840276956558
-0.1669420301914215
0.5074005722999573
2.3908448219299316
0.4699733257293701
-0.0510534904897213
0.04652959108352661
0.16650056838989258
0.3293290436267853
1.4304540157318115
2.184321641921997
0.20223942399024963
0.13893839716911316
0.003047992940992117
-0.08570896089076996
-0.16191282868385315
1.085327386856079
0.06644395738840103
0.6753700375556946
0.3291206359863281
0.37719354033470154
0.2893175482749939
-0.09463874995708466
-0.7262937426567078
-0.08121082931756973
0.09539593756198883
0.12144136428833008
-1.1719844341278076
-0.8116559982299805
-1.5960586071014404
-0.6844221949577332
-0.23711411654949188
0.11165040731430054
-0.41256090998649597
0.003986279014497995
0.034408047795295715
0.06465587764978409
-0.06139069050550461
-1.5943487882614136
1.233567476272583
0.03774571791291237
0.15257400274276733
0.15870808064937592
0.24482372403144836
0.24577578902244568
-0.4031373858451843
1.2496055364608765
0.15133610367774963
0.18771272897720337
-4.097382068634033
-0.15595707297325134
-0.058957912027835846
0.5277824401855469
-0.2254388928413391
0.04528500512242317
-0.03571784868836403
-0.6367658376693726
-0.08166883885860443
0.10511460900306702
-0.9279518723487854
-0.6543640494346619
-0.04319886490702629
0.20348186790943146
0.1061549186706543
-0.1109306663274765
-0.19545842707157135
-0.037835828959941864
-0.07977750897407532
0.1306079626083374
0.7343167066574097
0.11587067693471909
0.2117118537425995
-0.14408664405345917
0.3140135407447815
0.12358896434307098
0.11618758738040924
-0.034793153405189514
-1.7685267925262451
-2.175981044769287
-1.5347776412963867
-0.5468955039978027
-0.20432110130786896
-0.5537188053131104
0.47746744751930237
0.1543264389038086
-0.1030116081237793
-0.15560951828956604
-0.9966251254081726
-1.3391966819763184
1.9214414358139038
0.1259537935256958
0.11155557632446289
-0.019739216193556786
0.13070565462112427
-0.10187310725450516
-2.210979461669922
0.37048906087875366
0.23303647339344025
0.07797915488481522
-0.05087437853217125
0.3205713629722595
0.002948170527815819
0.019696198403835297
0.22764985263347626
-1.290108323097229
-0.3951420485973358
0.007366846315562725
-0.1757439374923706
-0.9910210371017456
-0.4694336950778961
-1.4942420721054077
-0.09907997399568558
-0.19597260653972626
-0.1302192211151123
-2.1641008853912354
-0.8577184081077576
-1.0320910215377808
-0.18686024844646454
0.896031379699707
0.2571703791618347
0.4397701919078827
-0.8286625146865845
0.45413464307785034
0.5031489729881287
0.22838272154331207
-0.19479025900363922
-0.9517748951911926
-3.0109949111938477
-4.8267741203308105
-3.9870591163635254
-1.1261440515518188
-0.14071352779865265
0.07589788734912872
-0.06377346813678741
-0.1994919776916504
-0.2093353271484375
-0.03176967427134514
0.03734876960515976
-1.6500587463378906
0.5601969957351685
-0.060241591185331345
0.07827867567539215
0.013365383259952068
0.03013070672750473
-0.1071830689907074
-1.1449121236801147
-0.03248279541730881
0.20984861254692078
0.14615954458713531
-0.1928023397922516
0.2289799600839615
0.11628157645463943
-1.1867917776107788
-0.14759781956672668
0.002210682025179267
-0.01399111095815897
0.016191557049751282
0.08159152418375015
-0.22068563103675842
-0.9245846271514893
-0.4941199719905853
-3.3453328609466553
-2.8490524291992188
-0.12476090341806412
-0.21149589121341705
-0.06299588829278946
0.34296971559524536
0.5884938836097717
-1.4748872518539429
-0.024749314412474632
0.24066051840782166
0.25720739364624023
0.6510078310966492
0.34797167778015137
-0.09694395959377289
-0.08503620326519012
0.04641241207718849
0.15303923189640045
-0.9189451932907104
0.19352316856384277
0.04608726128935814
0.031780604273080826
0.3442012667655945
0.07833363115787506
0.09851329028606415
0.10897473245859146
0.05793093517422676
0.19723638892173767
1.1279658079147339
-0.20122794806957245
-0.0002233961713500321
-0.013494538143277168
0.07651814073324203
0.005196759011596441
-0.137203186750412
0.7983166575431824
-0.12386798113584518
-0.06654810905456543
0.11778569966554642
0.14462997019290924
-0.07727865129709244
-0.3183606266975403
-1.0366631746292114
0.1218077763915062
-1.4303882122039795
-2.692790985107422
-0.3899698257446289
0.01423565298318863
0.2646324634552002
-1.3041549921035767
0.6208505630493164
0.664460301399231
0.2028454840183258
0.11388330161571503
-0.05545010417699814
-0.16245630383491516
-1.0824092626571655
0.19417595863342285
0.6303641200065613
0.5684397220611572
0.2092091143131256
0.1873752623796463
0.15379448235034943
0.18947552144527435
-0.017454784363508224
0.6498528122901917
1.4241915941238403
-0.2492891401052475
0.3789648711681366
0.8501325249671936
2.037738800048828
0.4341003894805908
0.6166800856590271
-0.3152778446674347
-0.4970206320285797
-0.19961382448673248
-0.04704014211893082
-0.12093070894479752
-1.1949573755264282
0.30187857151031494
-1.6908599138259888
-0.2338084727525711
0.06581221520900726
-2.0568430423736572
-2.6460814476013184
-1.6616222858428955
-0.21128086745738983
-0.16691088676452637
0.06327305734157562
-0.0879247859120369
0.0999804139137268
0.3602009117603302
-1.4431935548782349
-0.27274376153945923
-0.3050805628299713
0.28057342767715454
0.0637064129114151
0.1530822366476059
0.3288075029850006
-1.7155776023864746
0.4894872307777405
-0.8756444454193115
-0.2042652666568756
0.1964121013879776
0.0263906791806221
-0.21924132108688354
-0.6214019656181335
-0.057396531105041504
-0.4045019745826721
-2.2502686977386475
-3.1421425342559814
-1.9057016372680664
-0.8031957149505615
0.1637934446334839
-0.1889335960149765
0.020563244819641113
-1.4927747249603271
-3.269606351852417
-1.9485394954681396
-0.40461647510528564
-0.12076791375875473
0.03645111247897148
0.03025824762880802
0.4497089087963104
0.09578888863325119
-2.4093377590179443
0.22664788365364075
0.44307026267051697
0.7263186573982239
-0.7726269364356995
-0.05891556665301323
-0.007906767539680004
-0.8148457407951355
0.12890075147151947
-0.20627954602241516
-1.0513243675231934
-0.3877139091491699
0.20606732368469238
0.4216395914554596
-0.13241255283355713
0.2923443615436554
0.05538910627365112
0.16725490987300873
0.23748664557933807
0.23589706420898438
-0.07735457271337509
0.11989749222993851
0.005693014711141586
-0.3351591229438782
-0.06400316953659058
0.49743378162384033
-0.6913405060768127
-0.4516964256763458
-0.09812704473733902
0.02546057663857937
0.29442039132118225
-0.17730556428432465
0.0499679371714592
-1.0665940046310425
-2.5492312908172607
-0.4148885905742645
-0.5514653921127319
-1.1283625364303589
-0.1318693906068802
-0.3769678473472595
0.09739215672016144
0.6510206460952759
-0.37848562002182007
-0.07639025151729584
-1.3822206258773804
-0.8100457787513733
0.016070788726210594
-0.2344738245010376
-0.13262827694416046
-0.08223079890012741
0.032447442412376404
0.19025301933288574
0.02805216982960701
-1.8552703857421875
0.3724067807197571
-0.3780049979686737
-0.06209062039852142
0.035549551248550415
0.40470579266548157
0.38591358065605164
-1.744621992111206
0.26227325201034546
0.44261792302131653
0.1921728551387787
-0.8717961311340332
-0.3055399954319
0.241166353225708
0.44535109400749207
-0.8582632541656494
0.13701827824115753
0.33429571986198425
-0.5254797339439392
0.051079828292131424
0.07341498136520386
0.5524120926856995
0.5406390428543091
-0.012837119400501251
0.33514827489852905
0.05419187992811203
-0.25296738743782043
-0.34433528780937195
-0.3016507923603058
0.3740781545639038
-0.672331690788269
-1.0912398099899292
-2.1040055751800537
-1.964682936668396
-1.549838900566101
-0.28631117939949036
0.018834443762898445
0.07015466690063477
0.9753608107566833
2.258800745010376
0.8087641596794128
0.6227399706840515
1.411742091178894
0.8184565901756287
0.20482954382896423
0.07982999831438065
-0.039099935442209244
-0.096887968480587
-0.08982613682746887
-0.0694330483675003
-0.7862966656684875
-0.6595379710197449
-0.2480279952287674
-0.2374964952468872
-0.15147078037261963
-0.08832623064517975
-0.0991315245628357
-1.1057251691818237
-0.5828737616539001
-0.048368170857429504
0.1747104823589325
-0.1932806372642517
0.008514580316841602
-0.04760567098855972
0.8628333806991577
-0.8444282412528992
0.19336150586605072
0.2009391039609909
0.258484810590744
0.3806131184101105
0.4773175120353699
1.8352822065353394
-0.2612529397010803
-0.016215583309531212
-0.036162760108709335
-0.08519832044839859
-0.19604718685150146
-0.2205362170934677
0.6560662984848022
-0.6475454568862915
-2.0504651069641113
-2.8135225772857666
-3.7994472980499268
-5.588778495788574
-3.000783681869507
-0.45639216899871826
0.10631122440099716
0.03521452844142914
-0.2196989357471466
-0.133090540766716
-0.5832686424255371
-0.7537519931793213
-0.24077357351779938
-0.05250886082649231
0.13138873875141144
-0.9697085618972778
-0.20458558201789856
-0.08646942675113678
-0.15348674356937408
0.1358812302350998
0.30377107858657837
-0.7792364954948425
-0.2659454345703125
0.07196839898824692
0.09490824490785599
-0.024525120854377747
0.3265257477760315
1.1536208391189575
0.1423644721508026
-0.0031104625668376684
0.12750031054019928
-0.2519044578075409
-3.2225193977355957
-4.0101752281188965
-0.4571308195590973
-0.2566564083099365
0.3962743282318115
-0.17061856389045715
0.02270563505589962
0.07461618632078171
-1.6394057273864746
-0.4033516049385071
-0.04849787428975105
0.13977696001529694
0.054101407527923584
-0.048699311912059784
0.026990745216608047
-0.2330455482006073
-0.1450190544128418
-0.2138788402080536
-0.03278137370944023
0.28904837369918823
0.01800393871963024
0.13850043714046478
0.11633307486772537
-0.16581527888774872
-0.0888567864894867
-0.07403859496116638
0.06844362616539001
-0.1223888248205185
-0.3640047013759613
0.628226637840271
0.8414095640182495
0.13771328330039978
-0.30812332034111023
-0.15048514306545258
0.047266460955142975
0.0522950254380703
0.34314513206481934
0.7187811136245728
1.4593706130981445
-1.0456472635269165
0.08378715068101883
0.07890304923057556
-0.44090017676353455
-1.7232041358947754
-2.8885748386383057
-0.844750165939331
-0.39067259430885315
0.10952670127153397
0.03530674800276756
-0.010488860309123993
-0.041848763823509216
-0.16866537928581238
-1.608680009841919
-0.8550105094909668
-0.11858784407377243
-0.8259187936782837
-0.8351668119430542
0.09757082164287567
0.04507821425795555
0.33829250931739807
-0.3550187647342682
0.07162116467952728
0.05398920923471451
0.12094490230083466
0.14016906917095184
0.17538222670555115
-0.13055314123630524
-0.2312597632408142
0.28502073884010315
0.6396113038063049
0.3138093948364258
-0.04844437539577484
0.6676240563392639
-0.16570356488227844
-0.37472403049468994
-0.24356940388679504
0.2032047063112259
-1.1417782306671143
-0.33934760093688965
-2.124208927154541
-1.2275032997131348
0.028943119570612907
-0.042350783944129944
-0.07596734166145325
-0.16438905894756317
0.07631649821996689
0.10096128284931183
-0.08659970015287399
-2.345590114593506
1.6686837673187256
0.24002297222614288
0.17857560515403748
0.29401057958602905
0.4817487597465515
0.31705206632614136
-1.7628262042999268
0.35497352480888367
0.16142956912517548
0.2054286003112793
-0.9483743906021118
-0.2634066939353943
0.04652117192745209
0.17279362678527832
-0.40498942136764526
0.15467588603496552
0.07906921952962875
-0.5903444886207581
0.018387287855148315
-0.004717228468507528
-0.9611331224441528
-0.056510407477617264
0.1260170191526413
0.3077254891395569
0.05292222648859024
-0.19781364500522614
-0.29150986671447754
-0.306094229221344
-0.08193657547235489
0.7368277311325073
0.4173712134361267
0.03596942871809006
0.054187532514333725
-1.2626770734786987
0.2641676068305969
-0.47054171562194824
0.16135217249393463
-0.17446202039718628
-0.503251850605011
-0.7082371115684509
-0.9193326830863953
-0.16479939222335815
0.08321963995695114
-0.5141346454620361
-0.01843557134270668
0.14705225825309753
0.24542054533958435
0.18006131052970886
0.0426182895898819
0.49828365445137024
-0.1357172727584839
0.11640673130750656
0.03752109408378601
-0.09374882280826569
0.24680715799331665
0.42492765188217163
0.7133357524871826
0.366176575422287
-1.1971731185913086
-0.18261249363422394
0.34579330682754517
-0.18016216158866882
-2.1316497325897217
-0.5963171720504761
1.9271011352539062
0.2006554752588272
-0.13589191436767578
-0.16854976117610931
0.2595352232456207
-0.7825362682342529
-1.8901876211166382
1.025468349456787
-0.014394308440387249
-0.04875757917761803
0.028043655678629875
-0.025871282443404198
-2.914480209350586
-0.5058730840682983
0.3537817895412445
0.2627478241920471
0.4179512858390808
0.2512284219264984
0.15391679108142853
-0.33956313133239746
-0.21163006126880646
-0.008769306354224682
0.17288421094417572
-0.22278356552124023
0.18787480890750885
-0.9685137867927551
-0.6405609250068665
-0.1349395513534546
0.22852234542369843
0.3214665651321411
0.03669138252735138
-1.9783637523651123
-0.17199507355690002
-0.2116152048110962
-0.056340817362070084
-1.6700748205184937
0.14263679087162018
-0.6661825776100159
-2.665351390838623
-0.03639461472630501
-0.05021403357386589
-2.2958407402038574
0.2500216066837311
0.5010552406311035
0.39384546875953674
-1.1518430709838867
0.3756973445415497
-0.6354823112487793
-0.3318001329898834
0.12825575470924377
0.24087022244930267
-0.9562596678733826
-0.06968173384666443
0.3674466907978058
-1.582971215248108
-0.14768792688846588
0.5346360802650452
0.4605347514152527
-0.24191723763942719
-0.04042132571339607
-0.2615528106689453
-0.20850445330142975
-0.9615626931190491
0.12225545942783356
-0.19590482115745544
-0.9989405274391174
-2.013579845428467
-0.5687350034713745
-0.7568786144256592
0.008167432621121407
0.1536327749490738
-0.0864965170621872
0.040013089776039124
-0.12540769577026367
0.29731979966163635
-0.6915649175643921
-0.41982489824295044
-0.16783256828784943
-0.12404951453208923
0.5599675178527832
0.18496263027191162
-0.5030959248542786
-2.955939769744873
0.10318218916654587
0.06978630274534225
-0.4244006872177124
0.3227585256099701
-0.7846396565437317
-1.792507290840149
-0.6248977780342102
0.13821789622306824
-0.04881063476204872
0.018651334568858147
0.5372987389564514
-0.7331936955451965
-0.8009700179100037
0.37398356199264526
-0.2680684030056
-0.15253913402557373
-0.019295455887913704
0.13794386386871338
-1.085764765739441
-0.05246874690055847
0.15995410084724426
-2.0723631381988525
-0.08656826615333557
-0.20837652683258057
-0.10862267762422562
-0.12361888587474823
0.02878623455762863
-0.24915452301502228
-0.7545385360717773
0.2268461436033249
0.26194867491722107
-0.012107014656066895
-0.327090859413147
-0.5721728205680847
-0.8468078374862671
-0.3677947223186493
-0.22241857647895813
-0.034644052386283875
-0.14928847551345825
-0.1668250411748886
1.0440363883972168
0.3935210406780243
0.37485045194625854
0.6927832961082458
-0.831167995929718
0.2364371418952942
0.3903367817401886
0.10916069895029068
0.31710416078567505
0.054035063832998276
0.13171696662902832
-0.008899059146642685
-1.1967532634735107
0.22723542153835297
-2.791386604309082
-1.6854839324951172
-0.8367571234703064
0.055561475455760956
-0.09439016878604889
-0.19006185233592987
-0.1847977489233017
0.014708694070577621
0.015366899780929089
0.13997912406921387
0.021696973592042923
-0.1199018582701683
0.40692704916000366
0.5684773921966553
0.36954715847969055
0.010884281247854233
0.1310209035873413
0.21316641569137573
0.16476069390773773
1.0306943655014038
0.733448326587677
0.2151704728603363
0.09608074277639389
-0.08904439210891724
-0.11001047492027283
0.3189905285835266
1.6066193580627441
0.20047497749328613
-1.1944950819015503
-1.9169172048568726
0.31888139247894287
-0.1425226479768753
0.5555133819580078
-0.7447919845581055
-0.17002667486667633
-0.11158901453018188
-0.048750944435596466
0.45765697956085205
-0.41556692123413086
0.3667810261249542
0.0016105000395327806
0.2192920595407486
0.8656617403030396
0.2742273807525635
0.1481522023677826
0.1173248142004013
0.16221128404140472
0.3762689232826233
1.061678171157837
0.22930559515953064
-0.017394570633769035
-0.11188530921936035
0.15656578540802002
-0.1053326427936554
-0.4730365574359894
-0.033241093158721924
-0.001554582267999649
-0.12443695962429047
-0.15106922388076782
0.20175476372241974
0.09310433268547058
-0.28575700521469116
-1.0348331928253174
1.3973278999328613
-0.861296534538269
-1.2372479438781738
-2.3161885738372803
0.023987162858247757
0.35600271821022034
-1.352576494216919
0.36609262228012085
0.4616275727748871
0.21834014356136322
0.05794057622551918
0.09073393791913986
0.005449517630040646
-1.0311230421066284
0.7246667146682739
1.5035401582717896
0.7766305804252625
0.20050296187400818
-0.2611027956008911
-0.8710550665855408
-0.26270997524261475
-0.061007265001535416
-0.23910172283649445
-0.06330056488513947
-0.6570875644683838
-1.042626976966858
-1.6331579685211182
-1.1364222764968872
-0.03552836552262306
-0.19376064836978912
0.6338179111480713
0.14457584917545319
0.08693790435791016
0.10769098997116089
-0.008336632512509823
-0.4939264953136444
0.02451356314122677
-0.14738944172859192
-0.1565031111240387
0.29482153058052063
0.23148654401302338
0.15617996454238892
0.47177088260650635
-0.3023674786090851
-0.35393357276916504
0.0511726513504982
-0.29537656903266907
0.051344458013772964
0.047674670815467834
-0.8369699716567993
1.470559000968933
0.16656209528446198
-0.5186381936073303
-0.7813583016395569
0.11884951591491699
0.19327086210250854
-2.090578556060791
1.1897283792495728
0.21758070588111877
0.07875321805477142
0.2246139794588089
0.02410266175866127
-0.30504316091537476
-1.2689309120178223
0.6419944167137146
0.2367745190858841
-0.55730140209198
-1.5885707139968872
-2.3324406147003174
-1.447462558746338
-0.17505931854248047
-0.09827782213687897
-0.02318280190229416
1.0419141054153442
0.8708281517028809
0.7142487168312073
0.5562645196914673
-0.14154964685440063
0.06986414641141891
0.6725319623947144
0.3620374798774719
0.423651784658432
0.0686812624335289
0.006236386951059103
-0.04218460991978645
-1.6664553880691528
0.46008700132369995
-3.115177869796753
-3.2021255493164062
-0.34263181686401367
-0.009349479340016842
-0.014194280840456486
-1.373968482017517
0.20148682594299316
0.376701682806015
0.12175988405942917
0.05852203443646431
-0.0209796205163002
-0.21072956919670105
-0.11665970832109451
0.4538745582103729
0.12690852582454681
-0.050471436232328415
0.02253948710858822
0.09232219308614731
0.1764957308769226
1.1203300952911377
1.6076699495315552
0.10929340869188309
0.0372561514377594
0.06503882259130478
0.073615662753582
0.17982599139213562
1.0239218473434448
0.10916371643543243
-0.44628962874412537
-1.9700926542282104
-0.1349075883626938
0.4264354705810547
0.2946311831474304
-0.41957083344459534
-0.05782175064086914
0.12094612419605255
-1.7284818887710571
-3.0770084857940674
-3.182713031768799
-2.1441256999969482
-0.6862833499908447
0.0763549953699112
0.08593505620956421
-0.011449889279901981
-0.2194918692111969
-0.08854137361049652
0.05667862668633461
0.03761078789830208
-1.2718015909194946
1.148986577987671
-0.0013189194723963737
0.15690577030181885
-0.07608740031719208
0.2290496528148651
0.167207732796669
-1.9840810298919678
1.6147524118423462
0.32432499527931213
0.11769948154687881
-1.1890136003494263
-0.05156867951154709
0.17281469702720642
-0.1712169349193573
-0.02643481455743313
0.15053842961788177
0.18370309472084045
-0.4848879277706146
0.27813291549682617
0.15948304533958435
-0.6337441802024841
-0.8484713435173035
-0.1479232907295227
-0.255141943693161
0.057544585317373276
-0.047185804694890976
-0.09898731857538223
0.13099271059036255
-0.3356204032897949
-0.5250904560089111
-0.14635241031646729
0.22780343890190125
0.24874337017536163
0.38592883944511414
0.1452653557062149
0.27330300211906433
-0.17483040690422058
-1.024095892906189
-2.898601531982422
-4.933139801025391
-4.33347225189209
-2.306547164916992
-0.7464907765388489
-0.3888855278491974
-0.12514179944992065
-0.1950853168964386
-0.2537526786327362
-0.2007690966129303
0.10549261420965195
0.20632235705852509
0.15566056966781616
-0.4254680275917053
0.01411424484103918
0.04784126579761505
0.09419991075992584
-0.008460607379674911
-0.08329339325428009
0.1214452013373375
0.2400818020105362
0.20344676077365875
-0.06928885728120804
0.09879357367753983
-0.17662997543811798
-0.48029518127441406
-0.4896341860294342
0.06929367035627365
-0.044586095958948135
0.08543049544095993
0.01778210885822773
-0.08428356796503067
-0.5798574090003967
-1.110034704208374
-1.4500092267990112
-0.46570178866386414
-0.282732218503952
-0.11034507304430008
0.15443404018878937
0.40299323201179504
0.19084545969963074
1.7266476154327393
0.5486211180686951
0.34945183992385864
1.011488437652588
2.181252956390381
0.05803676322102547
0.10297971218824387
0.4016808569431305
0.5520939826965332
1.0164625644683838
0.29110369086265564
0.9031574130058289
2.5947725772857666
-0.025455525144934654
0.05792323127388954
-1.1788625717163086
-0.06588655710220337
-0.22363872826099396
-0.1542121320962906
-0.004267436917871237
0.2869274616241455
-0.45171913504600525
-0.49704018235206604
-0.04530572146177292
0.0015644283266738057
-0.0385444201529026
-0.07584449648857117
-0.07460378855466843
-0.7305862307548523
0.1594391167163849
0.21818386018276215
-0.09879074990749359
-0.03215827792882919
0.18451258540153503
-0.4593820571899414
-1.2959071397781372
-0.025952229276299477
0.0950080007314682
-0.026252413168549538
0.13641604781150818
0.11550130695104599
-1.0749181509017944
-0.7196320295333862
-0.15967002511024475
-0.0580906867980957
0.06703595817089081
-0.07027069479227066
-0.6338651180267334
-0.5689278841018677
-0.029944323003292084
-2.2671895027160645
-3.9784746170043945
-4.883267402648926
-3.720461368560791
-2.3205878734588623
-0.27153539657592773
0.011967182159423828
-0.24287298321723938
0.03094581514596939
-0.2385844588279724
0.741335928440094
0.267539918422699
-0.08370158076286316
-0.1207096129655838
0.2223132997751236
-0.5549281239509583
-0.35377025604248047
-0.10341133922338486
-0.11058568209409714
-2.432154893875122
-1.2790635824203491
0.20980232954025269
-0.7113205194473267
-0.3086547255516052
0.13877013325691223
-0.4079144299030304
-0.6275004148483276
-0.6503149271011353
-0.35285839438438416
0.5225861072540283
-0.19819413125514984
0.1685871183872223
-1.33980393409729
0.04117153212428093
0.00548573350533843
0.3676571846008301
-1.0288944244384766
-1.5961147546768188
0.32054537534713745
-0.6093845367431641
0.1429181694984436
-0.17683230340480804
0.7958803176879883
-1.1405524015426636
0.2730025053024292
-0.0831589475274086
0.17850862443447113
-0.3937995433807373
0.6566611528396606
-0.02506926655769348
-0.7261143922805786
-1.6587669849395752
-0.5524428486824036
-1.5116745233535767
0.1069556251168251
-0.23108689486980438
-0.14667437970638275
-0.1449047178030014
0.8118003606796265
0.19067199528217316
0.08878779411315918
-0.40368688106536865
-1.1297670602798462
0.583730161190033
0.29393425583839417
-0.1036214679479599
0.08726561814546585
0.10670734941959381
0.007128171157091856
-0.19437150657176971
0.12594687938690186
0.19325344264507294
0.039298150688409805
-0.048374298959970474
-0.09042861312627792
0.009361331351101398
-0.16574983298778534
-0.2731441557407379
-0.17174404859542847
-3.5245869159698486
-0.47016826272010803
-0.26859286427497864
-0.25437361001968384
-0.1770285964012146
1.021999716758728
-0.5946121215820312
0.46314331889152527
0.2570318579673767
0.2817208468914032
0.08885632455348969
0.1192152127623558
1.8345884084701538
0.14183536171913147
0.23727361857891083
0.13398800790309906
-0.08995242416858673
0.08344725519418716
0.4225311279296875
1.1108506917953491
-0.07876095920801163
-1.9378039836883545
-2.651207447052002
-1.958203911781311
-2.670275926589966
-0.008832985535264015
0.11085734516382217
0.15838830173015594
-0.08859207481145859
-1.0445612668991089
-2.9575445652008057
-4.060649871826172
-2.3747448921203613
-1.623986005783081
0.11895985901355743
-0.009946886450052261
-0.2914411723613739
-0.35337239503860474
-0.41891351342201233
-0.209637850522995
0.11592087149620056
-0.13662466406822205
0.4164472222328186
-0.23919282853603363
0.08968248963356018
-0.13350754976272583
0.20192652940750122
-0.04271980747580528
-1.1420776844024658
0.48899781703948975
0.441335529088974
0.16766324639320374
-0.16271570324897766
0.526825487613678
0.010403664782643318
-0.42843613028526306
-0.5169404149055481
-0.2690623104572296
-0.23578794300556183
0.04151894897222519
0.009960913099348545
-0.3948109447956085
-0.033102381974458694
-1.1904287338256836
-2.146698474884033
-0.38266438245773315
-0.19268585741519928
-0.26939159631729126
-0.18819645047187805
0.015054328367114067
0.26022735238075256
0.5577778220176697
0.2398185133934021
0.010795778594911098
0.3493554890155792
0.6566230058670044
0.23741690814495087
-0.026175392791628838
-0.22061675786972046
-0.16112181544303894
-1.931000828742981
-2.2031006813049316
-1.2435307502746582
-1.058498740196228
-0.11661528795957565
0.18062391877174377
-0.043098993599414825
0.14355772733688354
0.05310211330652237
0.13679666817188263
0.17117302119731903
0.3749849796295166
0.3110849857330322
0.10458450764417648
0.3088224530220032
0.06867152452468872
0.049006275832653046
0.1413297951221466
0.622546374797821
0.49110639095306396
-0.0029303922783583403
-0.14730605483055115
0.035110194236040115
0.12902112305164337
-0.16393959522247314
-0.7429247498512268
-0.1490398645401001
-0.08960109949111938
-0.09551890939474106
-0.008312161080539227
-0.007436934392899275
-0.37901541590690613
-1.6696559190750122
-0.12418165057897568
-0.16388748586177826
-0.1205659955739975
-0.11683148145675659
-0.0496482253074646
-0.644049346446991
-1.221863031387329
0.39870700240135193
1.5914381742477417
1.282487392425537
1.1118032932281494
1.4753320217132568
1.9180766344070435
0.480167031288147
0.08766184002161026
0.35159599781036377
1.4213801622390747
0.2745908200740814
0.23650354146957397
1.0098142623901367
1.9433280229568481
0.3200826346874237
0.14529114961624146
0.12690801918506622
-0.3008798360824585
-0.039449747651815414
-0.13622380793094635
-1.5456078052520752
-1.1320011615753174
0.08996177464723587
-0.14524610340595245
0.13075631856918335
-0.11651557683944702
-0.18825580179691315
-0.2306538075208664
-2.413275718688965
-0.3447195887565613
0.2595355808734894
0.053706876933574677
-0.10858894884586334
0.1867036372423172
0.26061683893203735
-1.7470388412475586
-0.3145073652267456
-0.3442327678203583
0.35998213291168213
-0.048803310841321945
0.13662102818489075
-0.13622483611106873
-1.449967622756958
-0.13967372477054596
-2.7080953121185303
-0.7968565821647644
0.13040383160114288
-0.19894473254680634
-0.2800593078136444
-0.2850014269351959
0.4025396406650543
-1.316673755645752
-0.02065746858716011
0.2574140429496765
0.5257420539855957
0.7799555063247681
-0.5573182702064514
0.1843336671590805
-0.05332651734352112
-0.5375453233718872
-1.2215709686279297
-0.3074491322040558
-0.8535699248313904
-0.4559454619884491
0.11236938834190369
0.5880165100097656
0.01509004458785057
-0.00736353499814868
-0.23639747500419617
-0.29545673727989197
-1.054513692855835
-2.0038511753082275
0.7461037635803223
0.6190876960754395
0.06927412748336792
0.1508467048406601
-0.011484217830002308
-0.49192196130752563
-1.0316107273101807
0.9830932021141052
-0.7928754687309265
-2.1280481815338135
-0.0810314416885376
-0.18337763845920563
0.2355058491230011
0.0648571029305458
0.8257330656051636
-0.6846040487289429
-0.14018037915229797
0.34310096502304077
-0.062218256294727325
-0.029671816155314445
0.11050616949796677
-0.5911688804626465
-1.1559791564941406
0.0626869946718216
-0.1392030566930771
-0.10444117337465286
-0.8603048324584961
0.9926376342773438
-0.11840952932834625
-0.36903277039527893
0.05874259024858475
0.1805351823568344
0.2556704878807068
-0.35073837637901306
0.4229229986667633
0.0171540305018425
0.08329825103282928
-0.050720468163490295
-0.6204449534416199
-0.13781163096427917
-0.7599742412567139
-0.30190619826316833
0.1666330099105835
0.6032789945602417
-0.3793413043022156
-0.9214068651199341
-0.20699569582939148
-0.2335835099220276
-0.03235180303454399
-1.560372233390808
0.5713452696800232
-0.8214673399925232
-3.051025867462158
-0.038829874247312546
0.05034477263689041
-0.9771132469177246
-0.4932416081428528
0.5058664679527283
0.17821665108203888
-2.2324039936065674
0.38206946849823
-0.2484675794839859
-0.6714290976524353
-0.1266629695892334
-0.2677139341831207
-1.68080735206604
-0.10409413278102875
0.30274727940559387
-0.30248233675956726
-0.30518239736557007
0.30807608366012573
-0.14038175344467163
-0.04962851479649544
-0.11012721061706543
-0.1954825520515442
0.015118925832211971
-1.57521653175354
-0.33314189314842224
0.05816038325428963
-0.7906177639961243
-2.7814416885375977
-1.17546808719635
-0.863956868648529
-0.27398279309272766
-0.18998757004737854
-0.4026091396808624
-0.2076280266046524
0.3309841752052307
0.3779979944229126
0.12061389535665512
0.25310254096984863
-0.8015622496604919
-0.11657794564962387
-0.26372039318084717
0.2887585759162903
0.2929701507091522
0.3928857147693634
0.279903769493103
0.08003507554531097
0.34575188159942627
0.06680484861135483
0.42303577065467834
-0.023915965110063553
-0.14622868597507477
-0.02336900308728218
0.2707520127296448
0.6097745299339294
0.33510372042655945
-2.5498294830322266
-0.44073840975761414
0.21050125360488892
0.03172926977276802
-0.37903904914855957
-0.4172966182231903
1.4606926441192627
0.4192498028278351
0.13214200735092163
-0.026086362078785896
-0.012567074969410896
-0.0005673553678207099
0.9024745225906372
1.7971361875534058
0.10856615006923676
-0.015297019854187965
-0.03038191609084606
0.007079371251165867
0.16857120394706726
0.04532935842871666
0.30787360668182373
-0.7954017519950867
0.2544515132904053
0.6234103441238403
0.60370272397995
-0.20780135691165924
-0.7790768146514893
-0.18296192586421967
0.24120767414569855
0.03387238085269928
0.3024769723415375
-0.5696255564689636
-0.6352188587188721
-0.32808876037597656
0.04380129277706146
0.9440658688545227
0.24861738085746765
0.2778540849685669
0.15790559351444244
0.033220283687114716
-0.4466858208179474
-1.4292289018630981
0.5971298813819885
-0.2550482749938965
-1.0168147087097168
0.09454062581062317
0.1335262656211853
-0.7293984293937683
-0.08120272308588028
0.2755238711833954
-0.7300623655319214
-0.03634123131632805
0.09919924288988113
0.017917072400450706
-0.16616319119930267
-1.2522183656692505
2.4039080142974854
-0.006953129544854164
-0.7701285481452942
-1.6430039405822754
-0.046346668154001236
0.4004656970500946
-1.5935877561569214
1.2609189748764038
0.2762884497642517
0.081623874604702
0.1076330915093422
0.11872757971286774
-0.5285940766334534
-1.1660234928131104
0.709134578704834
1.4977293014526367
0.692200243473053
0.2809205949306488
-0.24524657428264618
-0.9782898426055908
-0.05312376096844673
0.011429807171225548
0.08505170047283173
0.18818971514701843
-0.35280561447143555
-1.4108673334121704
-1.2165414094924927
-0.6405038237571716
0.011666635982692242
-0.08309806138277054
-0.45912203192710876
0.06107870861887932
-0.08804556727409363
0.0847420021891594
0.22031889855861664
0.3333966135978699
-0.46610522270202637
-0.3987202048301697
0.1284346729516983
0.2540365159511566
-0.13932251930236816
0.26451408863067627
1.2557129859924316
0.004096883814781904
0.2690393626689911
0.1474492847919464
-0.2499622404575348
-2.6393632888793945
0.055759042501449585
0.1764870136976242
-0.33237355947494507
0.3046903610229492
-0.2587713897228241
-0.062861368060112
-0.29260820150375366
0.17077426612377167
-0.8972049355506897
-0.23836150765419006
-0.02121829055249691
0.17276938259601593
-0.03210948780179024
0.047416675835847855
-0.44701993465423584
-0.2610292434692383
0.17622552812099457
-0.2776583135128021
0.1757885068655014
0.013720857910811901
-0.867917001247406
-1.0301204919815063
-0.10019760578870773
-0.21828463673591614
0.12295041978359222
0.7622320652008057
0.3438192307949066
0.6043003797531128
0.366388738155365
0.1448327749967575
0.17049142718315125
0.49201324582099915
-0.09848480671644211
-0.025716159492731094
0.2724589705467224
0.10378539562225342
-0.10235539078712463
-1.1669977903366089
0.34802713990211487
-0.1365467756986618
-0.05627274140715599
-0.816466212272644
0.2185654193162918
0.16820694506168365
-1.8427033424377441
0.4154966175556183
-0.5624120831489563
-0.5996092557907104
-0.7574411630630493
-0.39401867985725403
-0.16879376769065857
-0.39733755588531494
-1.327390193939209
0.18158434331417084
0.38610711693763733
0.11904404312372208
-0.1064225509762764
-0.09960334002971649
0.579475998878479
0.24801670014858246
0.24733197689056396
0.298768013715744
0.1625070720911026
0.2263280600309372
0.6847097277641296
1.5650389194488525
0.005476586986333132
-0.6521641612052917
-1.3195973634719849
-1.098845362663269
-1.6377685070037842
-1.0198713541030884
0.6526473164558411
-0.31787192821502686
-0.030913952738046646
-0.48433759808540344
-1.9076330661773682
-1.1676149368286133
-0.9016931653022766
-0.6225993633270264
-0.09520970284938812
-0.279920369386673
-0.2216033935546875
0.16226688027381897
0.07693776488304138
0.1435309201478958
0.470907598733902
1.6367195844650269
-1.272226095199585
0.12105794250965118
0.2891060709953308
-0.24380451440811157
-0.11651284992694855
0.38827475905418396
0.6514434814453125
-0.10905290395021439
0.03640514612197876
0.23019693791866302
0.15625470876693726
-0.046783726662397385
-0.6985610723495483
-0.5295465588569641
-0.16645732522010803
-1.4059395790100098
0.04084942862391472
0.17329120635986328
-0.11571641266345978
-0.015403987839818
-0.669418454170227
-0.6948865652084351
-1.287603497505188
-0.01332216989248991
0.0008592864032834768
0.033045846968889236
0.10623465478420258
-1.6754035949707031
0.6242218017578125
-3.0035037994384766
-0.6047689318656921
-0.02090994454920292
-0.04633795842528343
-0.564575731754303
-0.26732686161994934
0.005552236922085285
0.22364696860313416
1.206947922706604
3.6222658157348633
1.6295942068099976
1.264530897140503
1.0437997579574585
1.1647305488586426
1.0593006610870361
-0.25273409485816956
-0.09169582277536392
-0.15471242368221283
-0.28320208191871643
-0.7491350769996643
-2.0293705463409424
0.19450120627880096
-0.3828192949295044
-0.2430231124162674
0.07982043921947479
-0.6291276812553406
-0.9086206555366516
-1.6819857358932495
-0.13826139271259308
0.0389241948723793
0.06233249977231026
0.16263893246650696
-0.05717107653617859
0.3041418790817261
-0.16174398362636566
-0.4519581198692322
0.048121239989995956
0.24929308891296387
0.20243076980113983
0.14738154411315918
0.3622555434703827
1.4778224229812622
0.35118213295936584
-0.5725771188735962
-0.15565524995326996
0.12975819408893585
-0.05759284645318985
-0.857080340385437
-0.7116057872772217
-0.042949266731739044
-0.554387092590332
-2.308274030685425
-3.311237096786499
-3.13230299949646
-1.1285958290100098
0.131310373544693
-0.1303427666425705
0.04523409157991409
0.8275572657585144
1.487544298171997
0.3890743851661682
-0.6912166476249695
0.5867795348167419
-0.04490242898464203
-0.19218593835830688
0.36985471844673157
0.4553620517253876
-2.064988851547241
0.048896674066782
0.1718759685754776
0.17095251381397247
-0.6138840317726135
0.02134530246257782
0.1394311785697937
-3.3824074268341064
0.12704165279865265
-0.004019143991172314
-0.2750718593597412
0.11896535009145737
0.15617522597312927
0.22149430215358734
-0.06152725592255592
0.12900206446647644
0.148453027009964
0.48988744616508484
-0.7248532176017761
-0.13791827857494354
0.0035545018035918474
0.12371965497732162
-0.027076497673988342
0.0859953984618187
0.5342344641685486
-0.16294248402118683
-2.3773276805877686
-0.25618594884872437
0.007241925224661827
-0.018648263067007065
-0.04634373262524605
-0.22118216753005981
-0.21864071488380432
-1.3379656076431274
-0.4296514391899109
-0.3695700168609619
-0.3171743154525757
-0.5183607935905457
-0.062062669545412064
-0.054412953555583954
0.24104443192481995
1.3227115869522095
-0.1750849038362503
0.3903990387916565
1.0998567342758179
2.1871156692504883
0.2617662847042084
-0.11835385113954544
-0.7941958904266357
-0.13647674024105072
-0.1181645318865776
0.09710554778575897
0.5336095094680786
1.9105136394500732
-0.40971359610557556
-0.7253262996673584
-0.024951627478003502
-0.10054657608270645
-0.8883034586906433
-4.6027140617370605
-0.6718689203262329
-0.07992880791425705
-0.2959948480129242
0.06737946718931198
-0.023123372346162796
0.06988905370235443
0.08915434032678604
-0.6786331534385681
-0.7617453336715698
-0.02016798034310341
0.08681584149599075
-0.02683662809431553
0.11130957305431366
0.1595325917005539
-1.3283568620681763
-0.3337278366088867
0.03986143320798874
0.006684985011816025
0.19797804951667786
0.07933437824249268
-0.08729753643274307
0.154722660779953
0.19010256230831146
-0.34320497512817383
0.00037137020262889564
-1.0060919523239136
-2.129005193710327
-0.7862939834594727
0.0012002736330032349
-0.1289985179901123
0.06765063107013702
-0.20065757632255554
-0.48899513483047485
-0.6584192514419556
-1.0231225490570068
-1.0580661296844482
-0.3771871328353882
-0.1128682941198349
-0.45470184087753296
-0.25720182061195374
-0.08062504231929779
-0.12387426197528839
0.003583176527172327
-0.27480003237724304
-0.04100332409143448
-0.6070001125335693
0.1386220008134842
0.1706935316324234
0.1421635001897812
0.45773062109947205
1.23948335647583
0.2223261594772339
-0.27907922863960266
-0.12060218304395676
0.23577533662319183
-0.46730828285217285
-2.372154712677002
-0.6453641057014465
-0.4525452256202698
0.09607970714569092
-0.017917176708579063
0.1519784778356552
-0.046383462846279144
-3.483206033706665
0.05986017733812332
-1.0072765350341797
-0.10408534109592438
0.10672959685325623
-0.028808463364839554
0.03028707019984722
-2.4167962074279785
-0.34371039271354675
0.12918032705783844
-1.8872960805892944
-0.8594089150428772
-0.4069277048110962
-0.8223305940628052
-0.3729090988636017
-0.06542131304740906
0.17978577315807343
-0.1359458863735199
-0.6474080085754395
-2.4906275272369385
-4.3713765144348145
-3.2598471641540527
-1.8762489557266235
0.06761636584997177
-0.575799286365509
-0.07227431982755661
-0.2145892232656479
-0.37520432472229004
-0.27145159244537354
0.1159815713763237
-0.026195527985692024
-1.1284475326538086
-0.30525636672973633
-0.051205676048994064
-0.044640444219112396
0.08978071063756943
-0.11356323212385178
-1.0206120014190674
-1.0797821283340454
0.40271735191345215
0.34538519382476807
0.014714560471475124
0.4663959741592407
0.12860365211963654
-0.33668968081474304
-1.2665667533874512
-0.5110498070716858
-0.2192988097667694
-0.023258795961737633
-0.04475616291165352
-0.8899925351142883
-0.7254778742790222
-1.0967479944229126
-2.695415496826172
-0.37952810525894165
-0.3490811586380005
-0.12516123056411743
-0.19149427115917206
0.14404608309268951
-0.0851316899061203
0.31349584460258484
0.05820261687040329
-0.6233983039855957
-0.08329260349273682
-0.07496891170740128
0.35183215141296387
-0.07900823652744293
0.19342173635959625
-0.2543581426143646
-0.8880411982536316
-0.2671191096305847
-0.38370418548583984
0.11558700352907181
-0.13588197529315948
0.6369994282722473
0.4073961079120636
0.19621306657791138
-0.2635936737060547
-0.2881145179271698
-0.10033910721540451
-1.9406630992889404
1.3431625366210938
0.35182636976242065
0.190815731883049
0.2712804079055786
0.3441268801689148
0.24362334609031677
-1.7907644510269165
0.951184093952179
-0.07814914733171463
-0.35044965147972107
-1.2137322425842285
0.05292334407567978
-0.24765799939632416
-0.3987751603126526
0.9034163951873779
-0.432016521692276
-2.37271785736084
0.09431862831115723
0.05234289914369583
-0.1390220820903778
-0.13044868409633636
-0.560187578201294
-0.2121787667274475
0.11682421714067459
-0.01722552627325058
-0.2485935240983963
-0.8433547616004944
0.5362647175788879
0.08500859141349792
0.11180824786424637
0.16784660518169403
0.007351399399340153
0.16311556100845337
-0.399898886680603
0.5122451186180115
-0.017282959073781967
-0.08703476190567017
-0.9283338785171509
-1.3805367946624756
-1.8998603820800781
-1.8982576131820679
-0.2314722090959549
-0.22455273568630219
1.1286612749099731
0.6624946594238281
0.2684900164604187
-0.14241966605186462
-0.2721455991268158
-0.5424171686172485
-1.751027226448059
1.167257308959961
0.5902012586593628
0.14532797038555145
0.21593926846981049
0.13164052367210388
-0.03849088400602341
-1.664107084274292
1.3253796100616455
-0.6919043064117432
-0.9071471095085144
-0.2695721983909607
0.002930084941908717
0.17190521955490112
0.34348419308662415
1.3150023221969604
-0.4919266700744629
-0.22831867635250092
0.4155198037624359
-0.0782373920083046
-0.3511236011981964
-0.4490465223789215
-0.6778029799461365
-0.3903452157974243
-0.23446473479270935
0.09138499200344086
-0.676480233669281
-2.232691526412964
0.28957587480545044
-0.7071775197982788
-0.07866619527339935
0.07948377728462219
0.13487029075622559
0.4206876754760742
-0.28606733679771423
0.2557612955570221
-0.09122921526432037
-0.1882585883140564
0.08144120872020721
-0.4549410343170166
-0.9425442218780518
-0.883175253868103
-0.9171867370605469
-0.22399573028087616
-0.1355685293674469
-0.20261920988559723
0.18980278074741364
0.016430459916591644
0.24510526657104492
0.46702080965042114
1.3172285556793213
-0.7941246032714844
0.08346834033727646
0.4712470769882202
-0.2016436904668808
-0.5629340410232544
-0.4584408402442932
0.9020459055900574
-0.5225183963775635
0.27999845147132874
0.22979962825775146
-0.36469438672065735
-0.40758994221687317
-0.13906671106815338
0.15877974033355713
-0.22343429923057556
-0.05295801907777786
-0.2777363359928131
-1.0402976274490356
-0.12227299809455872
0.02841326594352722
0.006409602239727974
-0.6063771843910217
-0.014508116990327835
0.17601364850997925
0.13655324280261993
0.07228099554777145
0.28003430366516113
-1.0539122819900513
-0.21829888224601746
0.005247521214187145
0.7340070009231567
0.45822033286094666
0.15506471693515778
0.27508506178855896
-0.20079305768013
-0.00023980496916919947
0.4386519491672516
-0.6174266934394836
0.7520574927330017
-0.09406668692827225
-0.8812420964241028
0.12148395925760269
0.08418703824281693
0.3430047333240509
0.547589123249054
0.019937237724661827
-0.002678073476999998
-0.04654765874147415
0.7093068361282349
-0.17673417925834656
0.28276264667510986
0.3006678819656372
-1.1289094686508179
-1.349724531173706
0.2343711256980896
-0.02258843369781971
-2.415207862854004
-1.2750468254089355
0.8275434374809265
0.09531919658184052
0.09386754035949707
1.0790010690689087
0.022361066192388535
-0.008307780139148235
0.3306313157081604
-0.9473161697387695
0.357773095369339
-0.006626321468502283
-0.05101671814918518
0.06572689116001129
0.5057057738304138
-2.2258377075195312
0.018449008464813232
0.5627015829086304
0.2727494537830353
0.5218433737754822
-0.8532432317733765
0.5560183525085449
-0.011920253746211529
0.05929479002952576
-1.5833501815795898
-0.023296330124139786
0.6373445391654968
0.34894317388534546
-0.2689898908138275
0.14842021465301514
0.6772631406784058
0.05418817698955536
0.14553898572921753
0.44643884897232056
0.5553697943687439
-0.9441302418708801
-0.11934026330709457
-0.09504349529743195
0.932594358921051
0.03480667620897293
-0.10478881001472473
-0.06886300444602966
-0.5666372179985046
-0.6444947719573975
0.1343795359134674
-0.5504823923110962
0.639141857624054
0.7808018326759338
0.4503140449523926
-0.07782422751188278
1.537412405014038
1.235770583152771
-0.12858130037784576
-0.049438830465078354
-0.0959516167640686
-0.7166094779968262
0.044443994760513306
-0.07241572439670563
-0.11306672543287277
0.7232272624969482
-1.0039433240890503
-0.07793567329645157
0.04776066169142723
-0.16102223098278046
0.23150253295898438
1.1260993480682373
-0.035062484443187714
-0.527341365814209
0.58265221118927
-0.3065781593322754
0.1507338285446167
-0.17307938635349274
-1.3047429323196411
0.2589072585105896
0.7499852180480957
-0.16189444065093994
0.5172708630561829
0.3919754922389984
0.7317520380020142
0.08512148261070251
-0.22421282529830933
-0.8370559811592102
0.13320337235927582
0.6315070986747742
0.9467051029205322
0.6798054575920105
-0.06266835331916809
0.06440680474042892
-0.800202488899231
-0.22908174991607666
-0.019622452557086945
-0.027834070846438408
0.5071914792060852
0.8956611156463623
-0.6627699136734009
0.5647823810577393
1.600761890411377
0.8408982753753662
-0.6483789682388306
-0.3791850209236145
-1.2614936828613281
-0.6376286745071411
0.09697031229734421
0.06340866535902023
-0.11606089025735855
-0.009649684652686119
-0.17511504888534546
0.020246367901563644
0.5785638093948364
-0.8645326495170593
0.5872180461883545
-0.02221710793673992
-0.188832089304924
-0.11816810071468353
-0.299523264169693
-1.370954990386963
0.029598351567983627
-0.23927995562553406
-0.1019933670759201
0.33044812083244324
0.009788893163204193
0.21651798486709595
1.1592016220092773
0.5720230937004089
-0.25043368339538574
0.07684651017189026
0.15570519864559174
-0.3115328550338745
0.32772403955459595
0.17936761677265167
-1.4231605529785156
-0.7233266830444336
-1.9592441320419312
0.20597238838672638
-0.5885524749755859
0.21519096195697784
-1.9262454509735107
-1.3153367042541504
0.29156652092933655
-1.1671475172042847
-0.7194873690605164
-2.463353157043457
0.4719722867012024
-0.7234758734703064
0.17766237258911133
0.06551498174667358
-0.5627589821815491
-0.34251368045806885
0.14868034422397614
-1.6652086973190308
-1.2151811122894287
-1.0003679990768433
-1.2499860525131226
-1.5561916828155518
0.048009224236011505
-0.7272969484329224
0.17834271490573883
-1.1359097957611084
0.15789730846881866
-0.8396065831184387
-1.6976375579833984
-0.8421007990837097
-1.3137096166610718
0.39184799790382385
-0.6294030547142029
-1.474874496459961
-1.714178204536438
-1.8998570442199707
0.15595856308937073
0.12091760337352753
-0.3617591857910156
0.07493839412927628
0.2250642031431198
0.12493784725666046
-0.7136653661727905
-0.7835313081741333
-1.4672508239746094
-0.5851691961288452
0.04256448522210121
0.21508315205574036
-0.1937253773212433
0.0448489710688591
-0.1338406503200531
-0.11737210303544998
0.26562321186065674
-0.7822549343109131
-0.08395560085773468
0.5161593556404114
0.12048815935850143
-0.9926385879516602
-0.40797439217567444
0.2611033022403717
-0.9523342251777649
0.0028064167127013206
0.136606365442276
-0.14292460680007935
0.5613046884536743
0.4224434494972229
0.18194739520549774
1.1877409219741821
-1.009359359741211
-0.9171940088272095
0.39493992924690247
0.28213202953338623
0.3447776734828949
0.8164893984794617
-0.2808701992034912
-0.07669679075479507
-0.2047845721244812
-0.4266439378261566
0.4550938904285431
-0.5552827715873718
0.10788711905479431
-1.8339544534683228
-0.5979339480400085
-0.9120438098907471
1.211799144744873
1.3038939237594604
0.22619964182376862
0.3003694713115692
0.1747533082962036
-0.5111928582191467
-0.500383198261261
-0.12405714392662048
0.26237595081329346
-0.581601619720459
-0.2530195713043213
-0.8541346788406372
0.2552744746208191
0.33067718148231506
-0.505459725856781
0.28937435150146484
0.30089735984802246
0.03143670782446861
-1.0303531885147095
0.1789838820695877
-2.04038667678833
-0.09824905544519424
-2.1877200603485107
-1.4276485443115234
-1.9932811260223389
-2.141390323638916
0.6888539791107178
-0.7393275499343872
-0.6279314756393433
0.1006864383816719
-1.3617041110992432
-1.4010651111602783
-2.038712739944458
0.017679279670119286
0.7852173447608948
0.8400561213493347
0.017224393784999847
-2.613003969192505
-0.9049813151359558
-0.10965130478143692
-1.506628155708313
-1.6591131687164307
-0.03173331916332245
0.44050782918930054
0.161726713180542
-1.4562206268310547
-0.2334006279706955
0.05193072184920311
0.1907561868429184
0.7583745121955872
0.13523542881011963
-1.681723952293396
-0.6981808543205261
0.3232736587524414
0.09691047668457031
0.4871821999549866
0.08964018523693085
0.08161307126283646
0.0760403424501419
-1.708459496498108
0.09918127208948135
-0.05298282951116562
-0.6949731707572937
0.32098710536956787
-1.1914725303649902
0.19909708201885223
-0.040354274213314056
-2.589970588684082
-1.3641945123672485
-1.468380093574524
-0.1551579087972641
-0.0828176960349083
0.17360760271549225
-1.125939965248108
-1.4570574760437012
-0.12081723660230637
-2.4023516178131104
-0.637037456035614
0.31184813380241394
-0.002526869997382164
-1.0662435293197632
-2.1335630416870117
0.1280360370874405
0.4452516436576843
-1.1465327739715576
-1.610298752784729
0.22994683682918549
-0.1457754224538803
0.04828942194581032
0.5556947588920593
0.12568257749080658
-0.6217471957206726
-0.2063886672258377
-0.5245085954666138
0.21233117580413818
-1.1062510013580322
-0.012950845994055271
-1.048081874847412
-0.5681769251823425
-1.2665550708770752
0.47657814621925354
0.6269711256027222
-0.008343678899109364
0.3815033733844757
0.060702718794345856
-0.9043195247650146
-1.167934536933899
-1.7489032745361328
-0.24946506321430206
-2.1857426166534424
-0.6300528645515442
-1.0773022174835205
-0.24102725088596344
0.006248746067285538
0.5152682065963745
-0.13462920486927032
0.1014065369963646
0.8118821382522583
0.5661145448684692
0.24380245804786682
0.12376691401004791
-0.07949580997228622
0.6876820921897888
0.46244561672210693
0.35328927636146545
0.17665491998195648
0.39865851402282715
-0.5081533193588257
0.23136109113693237
0.042320143431425095
0.606261134147644
1.3333858251571655
0.2293655276298523
-0.13296908140182495
-0.9059264063835144
-0.890873372554779
-1.0993549823760986
-0.03348758816719055
0.015939807519316673
-0.8587441444396973
1.040190577507019
0.10858462750911713
0.2598571479320526
-0.789291501045227
-0.845471203327179
0.30239033699035645
-0.0025657613296061754
1.0967539548873901
-0.0826609656214714
-0.895487904548645
-0.7661506533622742
-0.6327458620071411
0.6175968050956726
0.007524634711444378
-0.2581261396408081
-0.058268770575523376
0.5576595664024353
0.3669458031654358
-0.008494354784488678
0.49782153964042664
0.29417359828948975
0.017574410885572433
0.7472736835479736
0.022935165092349052
0.5351567268371582
-0.20632950961589813
0.8234893083572388
-0.3914807438850403
-0.7712690234184265
0.863383948802948
0.006543448194861412
0.24041098356246948
-0.1954742968082428
-0.039458077400922775
-0.014875439926981926
0.10839387029409409
0.9022820591926575
0.8159011602401733
-0.6558792591094971
0.37456002831459045
-0.9904274940490723
-1.4780449867248535
-0.2047363668680191
-1.0745562314987183
0.5809073448181152
1.1290512084960938
0.7868214249610901
0.10069878399372101
-0.043387461453676224
0.6385282278060913
-0.06959639489650726
-0.052948299795389175
-0.173125222325325
0.6933748722076416
0.4490513801574707
-0.03067542240023613
-0.08002550899982452
-0.01344356220215559
0.499817818403244
0.5030533671379089
0.007550104986876249
0.31748777627944946
-0.7658407092094421
0.2224521040916443
-0.298164963722229
1.1893560886383057
1.128426194190979
-0.12449964880943298
-0.09169042855501175
-0.02490442991256714
0.5796975493431091
0.3140956461429596
-1.0272427797317505
0.1108345165848732
0.6370478868484497
-0.020785873755812645
0.48363175988197327
-0.22064946591854095
0.2246004343032837
-0.7283731698989868
-0.07432575523853302
0.9350572824478149
0.5789720416069031
-0.05693401023745537
-0.112094946205616
-0.13404323160648346
-1.3703789710998535
-1.2635173797607422
0.09387602657079697
-0.19731684029102325
0.27547013759613037
0.2630240321159363
0.32880938053131104
1.157480239868164
-2.2481138706207275
-1.7468750476837158
0.377403199672699
0.22558949887752533
0.24230408668518066
1.3198697566986084
-0.04935881495475769
-0.05504477024078369
-0.21465544402599335
-0.5746690630912781
0.23635774850845337
-0.07333876192569733
0.16172100603580475
-0.02656792663037777
0.242257758975029
-2.4916911125183105
1.4701489210128784
1.0408145189285278
0.24822703003883362
0.23371590673923492
0.0480690561234951
-0.3636004328727722
-1.5055768489837646
-0.3460346758365631
-0.21230310201644897
-0.16321749985218048
0.7654575109481812
0.23784010112285614
0.2825089991092682
0.04241751506924629
0.07472195476293564
-0.16234847903251648
0.3355548679828644
-2.0235965251922607
-1.0337597131729126
-0.10287084430456161
0.1272854208946228
-0.006388830952346325
0.4051865339279175
0.40589189529418945
0.3836451768875122
-0.3159407675266266
-1.1679195165634155
0.5634658336639404
0.2202451229095459
0.2214019000530243
-1.5557198524475098
-0.5059011578559875
0.19802400469779968
-0.9863695502281189
-0.8524050116539001
-0.8663844466209412
-1.356748342514038
-1.4644081592559814
0.054017435759305954
-0.20349059998989105
0.7401938438415527
0.09739842265844345
0.15695250034332275
-0.4381750822067261
-0.4364020526409149
0.29631778597831726
-0.05779029801487923
0.30330315232276917
0.06811024248600006
-0.735895574092865
-0.5588947534561157
-0.9225068092346191
0.1987295001745224
0.4097711443901062
-0.3996182382106781
-0.7146249413490295
0.12635143101215363
-1.1096360683441162
-1.7144334316253662
0.5614768266677856
0.09990134835243225
0.17353150248527527
0.11177044361829758
0.22908952832221985
-0.5294839143753052
-1.1396275758743286
-1.2088526487350464
1.0224320888519287
0.6125726103782654
0.09723348915576935
0.18352346122264862
-0.03698792681097984
0.21904759109020233
-1.5880906581878662
-1.0220927000045776
0.35323309898376465
0.3075708746910095
-1.0222340822219849
0.333863228559494
-0.07907040417194366
1.0528564453125
0.9503253102302551
0.17659839987754822
0.17449651658535004
-0.6631604433059692
-0.6484816670417786
-0.09480823576450348
0.563223659992218
0.39003047347068787
-0.015450021252036095
-0.09743751585483551
-0.7134078741073608
0.13876919448375702
-1.1263210773468018
-0.506851851940155
-1.1499570608139038
-0.4351116418838501
0.24162507057189941
-0.551869809627533
-0.6378076076507568
-0.22676359117031097
0.4857708513736725
0.19276446104049683
-0.25277987122535706
-0.1167682632803917
0.017044613137841225
0.09042053669691086
0.7212931513786316
-0.028170743957161903
-1.1473000049591064
-0.6905961036682129
-0.8329541683197021
0.5139197111129761
0.18661750853061676
0.5109648108482361
0.5009766221046448
0.05034347251057625
0.13047802448272705
-0.48421937227249146
-1.8669183254241943
-0.03988830745220184
-0.14493896067142487
0.13283732533454895
0.23044954240322113
0.03948257863521576
-0.4229785203933716
-0.4970126748085022
-2.3412656784057617
-1.537224292755127
-2.616981267929077
-1.0744178295135498
0.08930908143520355
-0.04260442778468132
0.07154253125190735
1.300732970237732
0.705018937587738
-0.129658505320549
-1.060387372970581
-0.8543088436126709
-1.4199609756469727
0.051676709204912186
0.010683947242796421
-1.7733856439590454
0.31921178102493286
-1.376583456993103
0.07936425507068634
0.1767507791519165
0.19706560671329498
0.14079545438289642
0.8362477421760559
-0.021684441715478897
-1.1055915355682373
-0.8965612649917603
-1.1515392065048218
0.052342865616083145
-0.13832420110702515
-2.665786027908325
-0.25939610600471497
0.42369362711906433
-0.05919931083917618
0.26583197712898254
0.21831275522708893
-0.2813979983329773
0.25083792209625244
-0.03622833266854286
0.0900866910815239
-0.4459156095981598
0.568285346031189
0.38649213314056396
-0.33159661293029785
0.14205996692180634
-0.040552813559770584
-0.386555016040802
-1.3770111799240112
-0.9888977408409119
0.38429534435272217
0.30159372091293335
-0.12330582737922668
-0.4053785502910614
-1.1015557050704956
0.9879775643348694
0.17108455300331116
-0.2995861768722534
0.7254814505577087
1.4463247060775757
1.417014718055725
0.02722102962434292
0.6232685446739197
0.023898093029856682
-0.05777489021420479
-1.281978726387024
-0.30764585733413696
-0.3393433094024658
0.4720824956893921
-0.5788026452064514
-1.003172516822815
0.011206332594156265
-1.0154708623886108
0.04402399808168411
1.2903521060943604
0.1299247443675995
0.7993437647819519
-0.12400583922863007
-0.770146906375885
0.2651040852069855
-0.023356160148978233
-0.08916397392749786
0.5528327226638794
0.8774294257164001
-1.2259130477905273
-0.46754252910614014
-0.33850497007369995
-0.02548631839454174
0.13014854490756989
-0.612575888633728
0.009061737917363644
-0.5670609474182129
0.8900612592697144
0.5914220213890076
0.9168946146965027
-0.13679713010787964
-0.2400171160697937
0.13949477672576904
-0.19770768284797668
-0.1553003489971161
-0.07173926383256912
0.3334726393222809
0.9176613688468933
0.1873929649591446
0.09179014712572098
0.9527959823608398
0.5193261504173279
0.04268459975719452
0.029055139049887657
-0.7814716100692749
-0.7308764457702637
-1.4574259519577026
-0.10569100081920624
0.01400925125926733
-1.7620898485183716
-0.07310651987791061
-0.030640607699751854
1.3415707349777222
-1.6829826831817627
-0.1795644760131836
-0.053005605936050415
-0.0049444688484072685
-0.4247678220272064
-1.1337429285049438
-0.7313066124916077
0.08386731147766113
-1.2680414915084839
0.44230014085769653
0.15741126239299774
0.5956992506980896
-0.4767884314060211
1.3258146047592163
0.5669559836387634
0.28363412618637085
-0.05266482010483742
-0.4324536621570587
-0.7193202376365662
0.6642063856124878
0.013380520977079868
1.3210220336914062
-0.14174386858940125
0.027151014655828476
0.03564126417040825
0.6820390820503235
0.038497600704431534
1.2654768228530884
0.18025313317775726
-0.030170872807502747
0.6390346884727478
0.47280699014663696
1.2460808753967285
-1.4589730501174927
0.1494339406490326
-0.373615562915802
-0.34711405634880066
0.6766854524612427
0.333202987909317
-0.14390963315963745
-0.014394613914191723
-0.4214474856853485
-0.4965522587299347
-0.0877939984202385
0.9415022730827332
0.33204564452171326
0.043600909411907196
0.0823487713932991
0.5791550874710083
-0.03459212929010391
-0.7825230360031128
-0.23282445967197418
0.4751494526863098
0.1362079679965973
-0.09405315667390823
0.03162890672683716
-0.3657654821872711
-0.07537724822759628
0.6901838183403015
-0.0680525153875351
-0.8193140029907227
-0.14509806036949158
-1.301104187965393
-0.004999675787985325
-0.08102048188447952
0.09478479623794556
0.5293396711349487
-0.05966012552380562
0.15084458887577057
0.2132122963666916
0.23162424564361572
0.30534297227859497
0.42372286319732666
0.012488728389143944
-1.7827991247177124
-0.7135445475578308
0.09442630410194397
-0.04025588929653168
0.08984611928462982
-0.07532022148370743
0.6414775848388672
0.26512742042541504
-0.45292654633522034
-2.232813596725464
0.38297292590141296
-0.3929533362388611
-0.2901516854763031
-1.3301151990890503
-1.363109827041626
-0.15373949706554413
0.18906733393669128
-1.1878005266189575
-1.732781171798706
-1.7962626218795776
-1.1276170015335083
-0.45314860343933105
-1.0557669401168823
0.09557294845581055
-0.10755125433206558
-0.1853228062391281
-1.108824372291565
-0.5824203491210938
0.381897896528244
0.23635070025920868
-0.08640861511230469
-0.18712204694747925
-0.9631748795509338
0.09049800783395767
-0.5008051991462708
-1.4424819946289062
-0.4327313303947449
0.3730407655239105
-1.7995105981826782
-0.002183423610404134
-1.1260604858398438
0.0017710658721625805
0.41881415247917175
0.27180296182632446
0.03661514073610306
-0.8125232458114624
0.18057796359062195
-1.7687915563583374
0.3279934823513031
-1.9934918880462646
-0.06260314583778381
-0.8010189533233643
0.28633618354797363
0.09171994030475616
-0.43284091353416443
-2.0441291332244873
-0.043232325464487076
0.08030954748392105
0.1278058886528015
0.6879415512084961
0.0017419836949557066
-0.4680395722389221
-0.08630631119012833
-1.1388212442398071
-1.559348702430725
-1.5352083444595337
0.7722342610359192
-1.5334779024124146
-1.8631010055541992
-0.235000878572464
0.09343680739402771
-0.08793080598115921
0.0036750102881342173
-0.17760539054870605
-0.03597945719957352
0.0037980517372488976
-1.3756797313690186
-1.0046429634094238
0.06348667293787003
0.07587642967700958
0.3351934850215912
-1.2582182884216309
-1.2165628671646118
0.09811151772737503
0.721323549747467
-1.8749996423721313
-0.9211253523826599
0.3025956451892853
-0.014069629833102226
0.5326786637306213
0.08534247428178787
-0.25321638584136963
0.08161742985248566
-2.1953539848327637
-1.3012731075286865
-1.5158787965774536
0.10927016288042068
-1.5856261253356934
0.15220962464809418
-0.4012387990951538
1.4148133993148804
0.6249911785125732
0.4208032786846161
-0.06067216023802757
-0.5101072788238525
-1.8945422172546387
-0.03591394051909447
0.11891184002161026
-0.04766349121928215
0.6122208833694458
0.9814053177833557
-1.1023805141448975
0.2370712012052536
1.1997092962265015
0.6486700177192688
-0.9138951897621155
-0.06369148194789886
-1.445730447769165
-0.8203415274620056
-0.446974515914917
-0.056229665875434875
-0.3425346314907074
-0.21828101575374603
-0.21863946318626404
0.07450731843709946
0.23594290018081665
-1.3301186561584473
1.0099108219146729
0.06752637773752213
0.03927917405962944
0.016977353021502495
-1.0729756355285645
-1.0234345197677612
0.12430328130722046
-0.27104678750038147
-0.06252487003803253
0.14024171233177185
0.8692275881767273
-0.10072538256645203
0.9507299661636353
0.7279825210571289
0.12745143473148346
0.17131869494915009
-1.7026922702789307
-0.86649489402771
-0.030723247677087784
0.1312280297279358
-1.4662590026855469
0.26467955112457275
-0.5675933957099915
0.9827510714530945
0.5481498837471008
-0.6059147715568542
0.12488721311092377
-0.37440842390060425
-1.1869523525238037
-0.0683843195438385
0.00752120791003108
1.0879628658294678
0.6229212880134583
-0.9820852875709534
-1.2470978498458862
-0.20667102932929993
0.8903486728668213
0.3232367932796478
-0.8364260792732239
0.3661279082298279
1.5103775262832642
1.497719168663025
-0.11579056829214096
1.102311372756958
-0.018065113574266434
-0.13338987529277802
-0.08851506561040878
0.0345001146197319
-0.407367467880249
0.496002733707428
-0.7871306538581848
-0.02427971549332142
0.09716112911701202
0.24149560928344727
-0.13942044973373413
1.2517861127853394
-0.09727761894464493
0.3223365843296051
-0.08707605302333832
-0.8417589068412781
-0.07974625378847122
0.11518991738557816
-1.834479570388794
0.7834512591362
0.3195191025733948
-0.07117215543985367
-1.7181991338729858
-0.283667653799057
-0.07845836877822876
0.07247404754161835
1.0633610486984253
0.12956872582435608
-0.3730243146419525
0.007055548019707203
0.42592713236808777
-0.04955185949802399
1.1789671182632446
0.19230099022388458
-0.11469636112451553
0.7747328281402588
0.220309317111969
0.7174476981163025
-1.5987136363983154
-0.0236212145537138
-0.7406052947044373
-0.7967249155044556
0.47599759697914124
0.10911004990339279
-0.12421337515115738
0.8766418695449829
-0.4987949728965759
-0.9540798664093018
-0.1930871158838272
0.7395690083503723
0.03203922137618065
-0.010625221766531467
-0.11812730133533478
0.3819690942764282
-0.16050788760185242
-0.805212140083313
-0.6935717463493347
0.3446137607097626
0.9246147274971008
-0.2541215717792511
-0.1421624720096588
-0.48959869146347046
0.13627003133296967
0.5073268413543701
-0.025653919205069542
-1.3176233768463135
0.21479548513889313
-1.1967215538024902
-0.05844695493578911
-0.03489789366722107
0.3703732490539551
0.31339895725250244
0.071306511759758
0.0005932822823524475
0.05357647314667702
-0.026005404070019722
1.0522650480270386
0.0368613675236702
1.2527064085006714
0.15993742644786835
0.43855124711990356
-0.7090140581130981
0.1915973573923111
0.7863296866416931
0.03305543586611748
-0.05360516533255577
0.08013281971216202
1.108001947402954
-0.8036782741546631
-1.142351746559143
-0.13191278278827667
-0.14241541922092438
0.6715956926345825
0.534395158290863
0.03113752417266369
-0.1265503466129303
0.40235191583633423
0.6489269733428955
0.9194249510765076
0.8352530002593994
-0.0005713148857466877
0.7529376149177551
-0.002830441342666745
0.14251425862312317
-0.2946489453315735
0.7574516534805298
0.7054942846298218
0.01627122238278389
0.08775278925895691
0.1353318989276886
0.551746129989624
0.3303612172603607
-0.08398319780826569
0.39314380288124084
-0.02233251929283142
-0.04292512312531471
-0.24185910820960999
-0.04135364666581154
-1.5982431173324585
-0.048827413469552994
0.03379923850297928
-0.08137703686952591
1.2657148838043213
0.4209548532962799
0.03845837339758873
0.28720590472221375
-0.2927682399749756
0.2292250096797943
-0.6976538300514221
1.3495343923568726
0.41308319568634033
0.11853586137294769
-0.37026211619377136
-0.7806152701377869
0.3806992471218109
-2.054283857345581
-1.5360301733016968
-0.1434045433998108
0.3774329125881195
-0.5603052377700806
0.18231886625289917
-0.16441436111927032
1.1898208856582642
0.8344151377677917
0.13563567399978638
0.11670660972595215
1.0484107732772827
1.2181708812713623
-0.6568602919578552
-0.0860023945569992
-0.0468594990670681
-1.4678025245666504
-0.10843312740325928
-0.9827167987823486
0.3370174467563629
0.26569458842277527
-0.8595825433731079
-1.2897289991378784
-0.20579659938812256
-0.21567267179489136
-0.029061587527394295
0.9813950657844543
-0.09702149778604507
-0.5573642253875732
0.29215365648269653
-0.3094765543937683
0.23545564711093903
0.10166925191879272
0.14268475770950317
0.8383676409721375
0.638744592666626
-1.4297027587890625
-0.7118561267852783
-0.013099003583192825
0.6374070644378662
0.10070562362670898
0.6936041116714478
0.35214975476264954
0.96345454454422
-2.285231113433838
-1.6448484659194946
-0.0955408364534378
0.03392501175403595
0.16804416477680206
-0.1836523413658142
0.6548856496810913
0.18979918956756592
-0.2095339149236679
-1.5657986402511597
0.37067094445228577
-1.0139691829681396
0.0015152981504797935
-2.142083168029785
-1.1670002937316895
-0.2763666808605194
-0.34435972571372986
1.2938929796218872
0.4340397119522095
0.348838746547699
-1.2298247814178467
-0.611740231513977
0.2753547430038452
0.017082225531339645
0.017027441412210464
-0.16264115273952484
0.6858028173446655
0.4080098271369934
0.24175411462783813
0.024347439408302307
-0.08563510328531265
0.4064980745315552
0.9122470617294312
0.18072649836540222
-0.9456102252006531
-1.8656116724014282
0.23905600607395172
0.14687995612621307
-0.07138198614120483
-0.08859001100063324
-1.5715038776397705
-0.07096326351165771
0.1995152086019516
0.8356257677078247
0.5924482345581055
-0.9920284748077393
0.26756706833839417
0.4361928403377533
0.4406319856643677
-0.560759961605072
1.3662350177764893
0.16006144881248474
-1.6827865839004517
0.7692449688911438
0.3603992760181427
-1.5069811344146729
0.4157560169696808
0.5010389685630798
0.5229544639587402
-2.476039171218872
-2.1878278255462646
0.5001168251037598
-0.6992161273956299
-0.9141654372215271
-1.8574261665344238
-1.2350335121154785
-2.573479175567627
-1.9997527599334717
-1.5656946897506714
0.4108588993549347
-1.933569073677063
0.5209952592849731
-0.5324662923812866
0.5415335297584534
-1.46127450466156
-3.196314573287964
-0.6274052262306213
0.8882591128349304
-0.9247403144836426
-1.997467041015625
0.4727163016796112
-0.43614891171455383
-2.8207616806030273
-1.4116449356079102
0.9156026244163513
0.6411841511726379
-2.2627313137054443
-0.8080772161483765
-1.3582104444503784
-2.506854295730591
-2.0875983238220215
0.6468663215637207
-0.9995107054710388
0.3009384870529175
0.4545302987098694
0.5478846430778503
0.10463405400514603
0.6493802070617676
-0.8484043478965759
0.5788465738296509
-0.742100715637207
0.37571069598197937
0.6786594390869141
0.6500223278999329
-0.638789713382721
0.5549398064613342
0.5837332010269165
-0.38988247513771057
-0.5763632655143738
-1.2380610704421997
-0.5550280213356018
-0.30129432678222656
-0.527080774307251
-0.4893651008605957
-1.0108150243759155
0.21240897476673126
-1.4325493574142456
-0.7561625838279724
0.5266507863998413
-1.1725481748580933
0.547112226486206
-0.39831194281578064
0.5432935357093811
-0.7140926718711853
-0.6015099883079529
-1.1503463983535767
0.46540725231170654
-0.9451305866241455
0.6672974824905396
-0.6562346816062927
0.17669928073883057
0.5812715291976929
-1.1521031856536865
0.46765708923339844
-0.7561238408088684
0.5211858749389648
-0.9217187762260437
0.27221688628196716
-0.3433038294315338
0.5326974391937256
-0.9795364141464233
0.5013903379440308
0.23295754194259644
0.48259294033050537
-0.8162502646446228
-0.22295476496219635
0.5877681374549866
-0.3365185260772705
-1.6140239238739014
0.6092613935470581
-0.36043357849121094
-1.7407909631729126
-1.2027699947357178
-2.261392593383789
0.24591010808944702
0.32783573865890503
-1.892840027809143
0.4253731071949005
-1.330918550491333
-0.9597395658493042
-1.4372555017471313
0.4749523103237152
0.2034568041563034
0.6650593280792236
0.673913836479187
0.5731879472732544
-1.0395292043685913
0.16935431957244873
-1.1902307271957397
-1.2478870153427124
0.276252806186676
-0.8871126770973206
-0.45873862504959106
0.44168657064437866
0.5503724813461304
-0.6279525756835938
0.337894082069397
-1.1523864269256592
-0.7070244550704956
0.24286532402038574
-1.2111088037490845
0.38093066215515137
-0.6004326343536377
0.4991377592086792
-0.7520931363105774
0.43106862902641296
0.47933319211006165
0.26000654697418213
-0.8434838056564331
-0.4265033006668091
0.5227775573730469
0.5072107911109924
0.2484705150127411
0.3991085886955261
0.39025405049324036
-1.489319920539856
-0.12613002955913544
0.365103542804718
-0.18728817999362946
0.7083134651184082
1.3721535205841064
-1.2668533325195312
0.6782562136650085
-1.4524401426315308
0.3160684108734131
0.4722883105278015
-1.426398754119873
-0.5597802400588989
0.5209457278251648
-1.2429865598678589
-0.09917215257883072
0.4619019627571106
-1.656182050704956
-1.5603923797607422
0.8133549094200134
0.5456629395484924
0.3226672112941742
-1.9568742513656616
-1.415659785270691
0.41681230068206787
-1.840937852859497
-0.6998628377914429
0.5569993257522583
0.3439052104949951
-0.7675383687019348
-1.3970519304275513
-0.4668525457382202
-0.5668620467185974
-1.0699443817138672
0.3690877854824066
0.3756740391254425
0.5521539449691772
0.3730497658252716
-1.8258873224258423
0.7171422243118286
-1.2586028575897217
-1.1769046783447266
0.2870156466960907
0.7107446789741516
-1.199588656425476
-1.4847666025161743
-1.473142385482788
0.27700963616371155
0.5529577136039734
-1.5462309122085571
0.635170042514801
0.1432192474603653
-1.1403220891952515
0.12351721525192261
-0.5512505173683167
-0.7019700407981873
0.3218122720718384
0.5267876386642456
0.5811975002288818
-0.9170786738395691
-0.9368193745613098
0.4516525864601135
-1.4140362739562988
-0.23022790253162384
0.5935354232788086
0.4469403922557831
0.23937830328941345
-0.5283108353614807
0.6498778462409973
0.5760173201560974
0.36190059781074524
0.06882193684577942
0.049863431602716446
-0.9552666544914246
0.2704743444919586
0.057152535766363144
0.5241072773933411
-1.0820924043655396
-0.7950974106788635
-1.011094093322754
-0.7592295408248901
-0.8905384540557861
-2.1413114070892334
-1.3847414255142212
0.3303585648536682
-1.259756088256836
-0.3544412851333618
0.3429606854915619
-0.6915991902351379
0.6042284369468689
-0.810805082321167
-0.8559391498565674
0.27173709869384766
0.7224755883216858
0.7062903642654419
0.21174688637256622
0.4688728451728821
0.26124680042266846
0.08009010553359985
-1.6806302070617676
0.438230037689209
