-0.12657789885997772
0.17725764214992523
0.5051231384277344
-0.7137870788574219
-0.7560209035873413
-1.4179221391677856
-0.238327294588089
0.03431890159845352
-0.550186038017273
-0.18850421905517578
-0.11147457361221313
0.16941700875759125
0.16605691611766815
0.034648481756448746
-1.7944278717041016
0.5484793186187744
-0.2627638280391693
0.03103845939040184
-0.2696132957935333
0.18392376601696014
0.14105813205242157
-1.0502592325210571
0.5651111602783203
0.40952104330062866
0.23264189064502716
-3.1309566497802734
-0.3476700782775879
0.028157522901892662
0.5129363536834717
-1.1666538715362549
0.12608103454113007
0.2877444624900818
-1.5387297868728638
-0.1252078264951706
-0.09177748113870621
0.05240043252706528
-0.6963508129119873
-0.02632386051118374
0.13646312057971954
0.12505722045898438
-0.16344834864139557
-0.04236462712287903
0.12869390845298767
0.21581418812274933
-0.6440572738647461
-0.5579747557640076
-1.4796857833862305
-1.4950876235961914
-1.6125012636184692
-0.19734549522399902
0.14841622114181519
0.09412728250026703
0.10466533899307251
-0.8278871774673462
-0.2774328589439392
-0.372909814119339
-0.5065715909004211
-0.06946441531181335
-0.016331668943166733
-0.5156657099723816
-0.1831217110157013
-0.07924656569957733
-0.08002583682537079
0.0507780946791172
0.2224118411540985
-0.4115711450576782
-0.22783122956752777
0.042010825127363205
0.10128528624773026
-0.12468001991510391
0.28180885314941406
1.148727297782898
-0.16700968146324158
0.2347458451986313
0.11661507189273834
-0.07273650169372559
-3.2617664337158203
-3.592402935028076
-0.9429112076759338
0.25706321001052856
0.4094623327255249
-0.23814934492111206
0.10412711650133133
-0.07537931948900223
-2.1923835277557373
-0.18866325914859772
0.37391820549964905
0.0375906378030777
0.1052478477358818
-0.08821072429418564
0.033772796392440796
-1.316401720046997
-0.2275766283273697
0.10854215919971466
-0.1603643149137497
0.23232506215572357
-0.14873266220092773
0.13171155750751495
-0.47545745968818665
0.14248864352703094
0.06319626420736313
-0.06992003321647644
0.007596645969897509
0.24991175532341003
-0.9702306985855103
-0.5240415930747986
0.14210593700408936
0.20642031729221344
0.6351895928382874
-0.26611337065696716
-1.9015346765518188
-0.15215745568275452
-0.1837853491306305
-0.06360474973917007
-1.7013944387435913
0.5455878376960754
-0.5376210808753967
-3.514436960220337
-0.10278031975030899
-0.01059785671532154
-1.15802001953125
0.17572182416915894
0.838836133480072
0.6581207513809204
-1.907884120941162
0.26374945044517517
-0.2631487548351288
-0.8408016562461853
0.20148760080337524
0.07903622090816498
-1.0410709381103516
-0.021643774583935738
0.29677537083625793
-1.9958606958389282
-0.352794349193573
0.6923799514770508
0.4553462862968445
-0.013657852075994015
-0.09018300473690033
-0.20938515663146973
-0.19570091366767883
-0.8388066291809082
0.43042367696762085
0.11526380479335785
-1.0310600996017456
-2.2782700061798096
-1.3038692474365234
-0.5326588153839111
0.2533082664012909
-0.1352357566356659
-0.16739465296268463
0.20523767173290253
-1.2658867835998535
-0.13701491057872772
-0.6119639277458191
-1.4663068056106567
-0.008885644376277924
-0.08025317639112473
-0.10277435183525085
0.3524962067604065
0.38198816776275635
-2.161012649536133
0.025780681520700455
0.28609272837638855
0.9520093202590942
-0.4585295617580414
-0.07845807075500488
-0.0072056264616549015
-1.1884560585021973
0.12250740081071854
-0.16043025255203247
-0.21156056225299835
-1.2109326124191284
0.2397012859582901
0.39374858140945435
0.03207189962267876
0.22819805145263672
0.38132667541503906
0.5121995210647583
-0.7562581300735474
-0.09454347938299179
0.02071634866297245
0.16428712010383606
0.03336701914668083
-0.23486527800559998
0.15257985889911652
-0.08215811103582382
-1.0175727605819702
-0.36492088437080383
-0.08226468414068222
-0.027086103335022926
0.03056209534406662
-0.36196649074554443
0.028475716710090637
-1.6582990884780884
-0.8183813691139221
-0.5113312602043152
-0.5191403031349182
-1.4158093929290771
0.014707022346556187
-0.0849999487400055
-0.19377180933952332
-0.1326577514410019
0.14833012223243713
0.23136481642723083
0.5605682134628296
0.1067451536655426
-0.22246579825878143
0.5880038738250732
0.09195741266012192
0.07096405327320099
0.07495780289173126
0.0604577399790287
0.22692762315273285
1.080486536026001
-0.45104601979255676
0.02632170543074608
0.014352650381624699
0.07924498617649078
-0.09307341277599335
-0.11689536273479462
0.8806229829788208
-0.27154088020324707
0.07001090794801712
0.10969693958759308
0.13127489387989044
-0.07664400339126587
-0.34029802680015564
-1.1261094808578491
0.3390820324420929
-1.692387580871582
-2.4260663986206055
-0.45412737131118774
0.02848600223660469
0.27939799427986145
-1.4731841087341309
0.6167340278625488
0.7186610698699951
0.2962065041065216
0.07065408676862717
-0.029812533408403397
-0.10725920647382736
-0.8545796275138855
0.7610999345779419
0.5785424709320068
0.27016812562942505
0.13115544617176056
0.13200166821479797
-0.44350847601890564
0.24259167909622192
0.0015542481560260057
0.07538492977619171
0.1345883309841156
-0.9107087850570679
-0.7514986395835876
-0.41657376289367676
-0.09656363725662231
0.12886542081832886
0.315786749124527
-0.47460028529167175
-0.3614230751991272
-0.1725078523159027
-0.19277141988277435
-0.014489168301224709
-2.036907434463501
0.39270490407943726
-0.36670824885368347
-1.6680729389190674
-0.013764315284788609
-0.03289661183953285
-0.9893487691879272
-0.2489698976278305
0.8463828563690186
0.26106563210487366
-3.0638108253479004
0.32713639736175537
-0.5914769768714905
0.6454519629478455
-0.23690053820610046
0.5184729099273682
-1.5015007257461548
-0.13910216093063354
0.2929604649543762
-0.2518112063407898
-0.2907860577106476
-0.5610108971595764
0.33531078696250916
-0.42456215620040894
-0.002052152529358864
-0.2551666498184204
-0.008221480064094067
-1.9463545083999634
0.18370331823825836
0.10437873750925064
-1.0224051475524902
-2.1929266452789307
-0.8687819838523865
-0.9975454807281494
-0.29499122500419617
0.16881726682186127
-0.2574012875556946
0.15599144995212555
0.19176432490348816
-0.7826374173164368
-1.7317341566085815
-0.6717795133590698
-0.5301638245582581
-0.026711346581578255
0.19012494385242462
0.03515201434493065
0.020526094362139702
0.21212945878505707
0.11130708456039429
0.02067020907998085
0.0958835631608963
-0.15291225910186768
-0.05634865164756775
0.14017657935619354
-0.10032061487436295
0.23016153275966644
0.45643019676208496
1.377496600151062
0.06391981989145279
-0.9047083854675293
0.0752638503909111
0.27546194195747375
-0.21631063520908356
-3.7922091484069824
-0.9484879970550537
1.023082971572876
0.20853742957115173
-0.3093727231025696
-0.22606106102466583
0.25215381383895874
-1.1698371171951294
-1.117038369178772
0.9445443153381348
0.046873532235622406
-0.08818083256483078
0.04975730925798416
-0.08038531988859177
-2.0640857219696045
-1.4331262111663818
-0.01744011975824833
0.04894115403294563
0.2579903304576874
0.15390031039714813
0.11660224944353104
0.9281606078147888
0.1620810627937317
-0.07570905983448029
-0.16434088349342346
0.25975319743156433
-0.7032362222671509
-0.5539669990539551
-0.42674490809440613
-0.39208850264549255
0.003318064147606492
0.9727007746696472
0.20138493180274963
0.25029096007347107
-0.0841587483882904
-0.12867990136146545
-0.0295089241117239
-1.5250582695007324
0.633235514163971
0.5206762552261353
0.061538245528936386
-0.0375843308866024
0.19319817423820496
0.08730696886777878
-0.7739183902740479
1.3704839944839478
-1.335900902748108
-1.8284450769424438
-0.6424511671066284
0.01400559302419424
0.08855462819337845
0.38270729780197144
-0.24105817079544067
0.029726644977927208
-0.047779329121112823
0.3363790810108185
0.10420584678649902
-0.137645423412323
0.41519173979759216
0.31042101979255676
0.1826879382133484
0.05492270365357399
-0.04877378046512604
-0.2134571075439453
-0.11255825310945511
1.2828859090805054
-0.7646039724349976
0.3864573538303375
0.17750979959964752
0.40761271119117737
0.12944500148296356
-1.3196507692337036
0.25249817967414856
-0.21950028836727142
-0.013955752365291119
0.6901971697807312
0.4437459111213684
0.6778757572174072
0.814774751663208
-0.22133558988571167
0.024065295234322548
-0.08435636013746262
0.1774750053882599
0.18372425436973572
0.15016642212867737
0.14340278506278992
-0.07700574398040771
-0.6212673187255859
-0.5385360717773438
-2.6265342235565186
-3.043943166732788
-0.8829697370529175
-0.035984110087156296
0.01828157715499401
-0.008267007768154144
-0.20984575152397156
0.22939011454582214
0.18613538146018982
0.10214501619338989
0.04156884923577309
-0.042000912129879
0.35248473286628723
0.8378780484199524
0.28344157338142395
0.05186668783426285
0.06201349198818207
0.19817544519901276
0.028547605499625206
1.0018821954727173
1.3827192783355713
0.13886390626430511
0.027410143986344337
0.0647302195429802
0.10825216770172119
0.16248774528503418
1.0732961893081665
-0.09600198268890381
-0.04782522842288017
-1.3480534553527832
-1.5258464813232422
-1.1306675672531128
0.5689257383346558
-0.5991384983062744
-0.18385715782642365
0.06470923125743866
-0.41161179542541504
-1.4543601274490356
-0.7226413488388062
-1.8642959594726562
-0.6609913110733032
-0.21935081481933594
0.28344687819480896
-0.08635026216506958
-0.1444348841905594
0.06386473774909973
-0.025705477222800255
-0.09741953760385513
-2.616497039794922
1.5066059827804565
0.2154824435710907
0.16881555318832397
0.16136473417282104
0.22268493473529816
0.21643030643463135
-2.441214084625244
0.9562498331069946
0.10899131000041962
0.20733742415905
-3.068854331970215
-0.0841340571641922
-0.03144044056534767
0.6104159951210022
-0.43838271498680115
0.0424681194126606
-0.06844142079353333
-0.6902416944503784
0.013404455967247486
0.16042165458202362
-0.5509554147720337
-1.347334623336792
0.03873482346534729
0.09456527978181839
0.1467123031616211
-0.07175863534212112
-0.27340754866600037
-0.03973030298948288
-0.02675153687596321
-0.03833131864666939
0.5040983557701111
0.13394778966903687
0.17358537018299103
-0.3501141667366028
0.004993903916329145
-0.04793647676706314
-0.1421847939491272
0.9168363809585571
1.6075172424316406
1.256099820137024
0.4973313808441162
-0.2300950437784195
-0.19477692246437073
-0.05613430589437485
-0.13186641037464142
0.47828182578086853
-0.3460322916507721
-0.23712636530399323
0.34425872564315796
0.306262731552124
-0.43008193373680115
-0.12730450928211212
0.3899359107017517
-0.9384005665779114
-0.1563469022512436
0.007046592887490988
-0.2247200459241867
0.2828271687030792
0.05516720190644264
0.19508907198905945
-0.12470144033432007
-0.022005226463079453
0.23588377237319946
0.36034825444221497
-0.6900501251220703
-0.19463802874088287
0.04358474537730217
0.03291616961359978
-0.1407790184020996
0.2405698299407959
0.7341291308403015
-0.18494662642478943
-0.402115136384964
-0.0244071576744318
0.13990403711795807
0.0901673212647438
0.08844105154275894
-1.0506638288497925
0.22733329236507416
-1.0166794061660767
-0.5351525545120239
-0.38812005519866943
-0.4914683699607849
-1.3822300434112549
-0.1605994701385498
0.08958106487989426
-0.012236887589097023
-0.5072342157363892
-1.7012192010879517
-2.3887972831726074
-1.6653709411621094
-0.481313556432724
-0.1998266577720642
0.08847881853580475
-0.04185190051794052
-0.1564188003540039
-0.20170144736766815
-0.24241353571414948
-2.0370872020721436
-2.41084885597229
0.5887781977653503
0.06594480574131012
0.26350638270378113
0.09075818210840225
0.14921258389949799
-0.08258188515901566
-2.7520742416381836
0.9326607584953308
0.1087796539068222
-0.34254536032676697
-0.36035406589508057
0.2424885630607605
-0.014552325941622257
-0.05356653034687042
0.2571161985397339
-0.29753419756889343
-0.009315305389463902
0.11800651997327805
0.06745728850364685
-0.293609619140625
-1.4170997142791748
-0.6915777325630188
-0.5653064846992493
-0.36610254645347595
0.014811253175139427
-0.2780090570449829
-0.28311023116111755
-0.25525379180908203
-0.2998700737953186
0.9104734063148499
0.7296044826507568
0.2838956117630005
0.573756754398346
0.7268767952919006
-0.17767666280269623
-0.03340256214141846
0.2547934353351593
0.8347026705741882
0.41288256645202637
0.33150815963745117
0.25599658489227295
-1.1864738464355469
0.8167680501937866
-0.18223027884960175
-0.11477811634540558
0.022535141557455063
0.02981177158653736
-0.0004671106580644846
-0.06843214482069016
-1.7889072895050049
-0.04371177405118942
0.1497637927532196
-0.011887547560036182
-0.21282491087913513
0.1200803741812706
-0.0662592276930809
-1.7217391729354858
0.48874807357788086
-3.348597526550293
-0.5728162527084351
-0.44267749786376953
-0.14840587973594666
-0.3295857608318329
0.9410718083381653
-0.4830162823200226
0.36055123805999756
0.2184431403875351
0.24759668111801147
0.11980848759412766
0.22180289030075073
1.9937849044799805
0.017230132594704628
0.23518504202365875
0.1326582431793213
-0.0618584081530571
0.05779067054390907
0.4017030596733093
0.959438681602478
-0.8423712849617004
0.4393933415412903
0.3400347828865051
0.2736338675022125
-2.03389835357666
-0.49175378680229187
0.09119872748851776
-0.041181810200214386
0.11765754222869873
0.22778378427028656
-0.034460537135601044
-0.3675311505794525
1.7597233057022095
2.058262825012207
0.6150661706924438
0.5129451751708984
-0.3936907947063446
-0.6384360790252686
-0.3780555725097656
-0.18413658440113068
0.0317770391702652
0.5182018876075745
0.2335408478975296
-0.6082192063331604
0.021698467433452606
0.25779032707214355
-0.059544261544942856
0.03847602382302284
1.3022475242614746
0.2771117091178894
-0.3642674386501312
0.15725338459014893
-0.00013496470637619495
-0.6481977701187134
-2.0288426876068115
-1.2233394384384155
-1.0405778884887695
0.3996737599372864
0.005330099258571863
-0.09494046866893768
0.22215603291988373
-1.1411586999893188
-1.7474151849746704
-0.8279945254325867
0.005323957651853561
0.1530008167028427
0.06950008124113083
-0.004567938391119242
-1.9459173679351807
-0.4454028606414795
-0.2496383637189865
-0.7660477161407471
0.1467820554971695
-0.1100127175450325
-0.857049822807312
-1.0821326971054077
0.015200605615973473
-0.13977202773094177
0.0014580786228179932
-1.2461614608764648
-2.9961159229278564
-3.395966053009033
-1.1341001987457275
-0.2218213677406311
0.04053009673953056
-0.020401766523718834
0.40091821551322937
0.006626063026487827
-2.8275327682495117
0.2748894989490509
0.3890223801136017
0.4795907437801361
-0.7724889516830444
-0.09559237957000732
0.17442722618579865
-3.2556748390197754
0.12919466197490692
0.04483375698328018
-0.9796912670135498
-0.054493099451065063
0.12954473495483398
0.24263764917850494
-0.08508474379777908
0.26278093457221985
-0.08075182139873505
0.24323663115501404
-0.4135075509548187
0.12153832614421844
-0.05509110912680626
0.04391803592443466
0.05163928493857384
-0.3015681803226471
-0.17084498703479767
-0.24343857169151306
-0.7210944890975952
-0.3980485796928406
-0.12854395806789398
-0.021024612709879875
0.4544326066970825
0.3609779477119446
-0.14052404463291168
-0.9911686778068542
-0.5537200570106506
-0.2971954047679901
-0.40059229731559753
-0.4441899359226227
-0.09729213267564774
0.06466445326805115
-0.1876159906387329
-1.6596505641937256
-3.5505905151367188
-5.3327765464782715
-2.620420217514038
-2.051569938659668
-0.8005168437957764
-1.0187666416168213
0.12181799113750458
-0.20657028257846832
-0.30214327573776245
-0.14570452272891998
0.42612984776496887
0.5274576544761658
-1.2344040870666504
-0.3822743594646454
-0.25623205304145813
-0.25290223956108093
-0.02236287295818329
-0.002914294833317399
-0.631620466709137
-1.3593546152114868
0.31752678751945496
0.40354129672050476
-0.07232236862182617
0.1837892234325409
0.07036583870649338
-0.0011366689577698708
-0.35922184586524963
0.011075015179812908
-0.010863540694117546
0.16143062710762024
0.06884979456663132
-0.02983694151043892
-0.3900538682937622
-0.5017821192741394
-3.626657009124756
-0.45763492584228516
-0.16982199251651764
-0.012812365777790546
-0.011712206527590752
-0.5211869478225708
-0.12268036603927612
-0.41431722044944763
-0.9088128805160522
-0.5973258018493652
-0.9218595027923584
-1.1753653287887573
-0.3349057137966156
0.012371343560516834
-0.31102102994918823
-0.33343029022216797
-0.5998299717903137
-0.5634191632270813
-0.11630533635616302
0.5109683871269226
-0.07574187964200974
-0.44187018275260925
-0.10853062570095062
-0.666619062423706
-0.1477564424276352
-0.18517886102199554
0.07993859052658081
0.27111905813217163
-1.4388446807861328
-0.3589160144329071
-0.1200154572725296
-0.14329661428928375
-0.1226523146033287
-0.24347397685050964
-0.3195951282978058
-1.6649724245071411
0.5397312045097351
0.4095272719860077
0.15560990571975708
0.39269325137138367
0.10315770655870438
-1.0248152017593384
-1.5013495683670044
-0.24209843575954437
0.16172251105308533
0.16698922216892242
0.060301586985588074
-0.3968419134616852
-1.5112199783325195
-0.5781283974647522
-1.4838900566101074
-0.4284217655658722
-0.2992193102836609
-0.1653226763010025
0.027367742732167244
-0.39597609639167786
0.5875818729400635
0.18971094489097595
-0.00741742504760623
-0.19667120277881622
0.12165690213441849
0.7570779323577881
-0.4581483006477356
0.1253979504108429
-0.15223196148872375
-0.6870052814483643
-1.833079218864441
-2.607436180114746
-2.0572469234466553
-0.8172309398651123
0.21184870600700378
-0.3296079635620117
0.22274921834468842
-0.022934217005968094
-0.11162061244249344
-0.28293201327323914
-0.036023207008838654
-0.45632386207580566
1.2214455604553223
0.038614679127931595
0.019966937601566315
-0.061733800917863846
0.10019327700138092
0.030831973999738693
-1.017334222793579
1.4021351337432861
0.4730857014656067
0.2001809924840927
0.002954937983304262
0.4704027473926544
0.29643628001213074
0.04725255072116852
-0.23533542454242706
-1.5374919176101685
-0.7052583694458008
-0.028883494436740875
-0.18012595176696777
-0.5977588295936584
-0.13510343432426453
-0.9249987602233887
-1.198607087135315
-0.2014828771352768
-0.07177706807851791
-1.4501004219055176
-0.6642561554908752
0.2673031985759735
-0.17627017199993134
0.5889579653739929
0.009619227610528469
0.2323458194732666
-0.7014880776405334
0.016011051833629608
0.1875356286764145
-0.05001882463693619
0.06792958080768585
0.030825987458229065
-0.09075538069009781
0.18460685014724731
-0.09722274541854858
-0.36551642417907715
0.13610900938510895
0.23346203565597534
0.05442892760038376
0.0027728425338864326
0.09761911630630493
0.21060751378536224
-0.11581695079803467
-1.3943753242492676
0.4437960088253021
-0.06497161835432053
-0.07811568677425385
-0.17139118909835815
0.3043532073497772
0.0692557618021965
-0.7970975637435913
0.2164529263973236
-0.36609041690826416
-0.2146720439195633
-0.7578423619270325
-0.12487851083278656
0.1273607313632965
-0.03599926084280014
0.4397009015083313
0.43442100286483765
0.19187332689762115
-0.16628773510456085
0.13744936883449554
-0.06595255434513092
0.5078107118606567
1.3865007162094116
0.22178716957569122
0.22714585065841675
0.11580659449100494
0.03836850821971893
0.4497235417366028
1.2647806406021118
-0.09027416259050369
-2.0353169441223145
-2.177645444869995
-3.35731840133667
-2.110708236694336
-1.788861870765686
-0.27780136466026306
-0.09070450812578201
-0.21456411480903625
0.6004577875137329
0.198689267039299
0.3058032989501953
0.23717139661312103
-0.7684222459793091
0.3116740882396698
0.29683932662010193
0.5538367033004761
0.35375282168388367
0.18382064998149872
0.0533469058573246
-0.11284732818603516
-0.4207961857318878
-0.7888088226318359
-1.0952770709991455
-0.6184746026992798
-0.25728628039360046
0.003648733254522085
-0.25851818919181824
-1.0756877660751343
0.03609272465109825
-1.082939863204956
-0.2704126536846161
-0.15611810982227325
0.014921323396265507
-0.412087619304657
0.3243984282016754
0.14073579013347626
0.7563427686691284
0.07092449069023132
0.05132896825671196
0.1718551218509674
0.25376394391059875
1.1414527893066406
1.1171661615371704
0.2285776138305664
0.11252370476722717
-0.014757801778614521
0.05717010423541069
0.3149738609790802
1.7832350730895996
0.20163343846797943
-1.327836036682129
-2.2648253440856934
-1.6849517822265625
0.6054657697677612
0.32867544889450073
-0.43148839473724365
-0.0366966612637043
0.21778090298175812
1.479522466659546
-0.1270013004541397
0.41269242763519287
1.4531184434890747
2.3209543228149414
0.5841326117515564
0.585418164730072
-0.43773263692855835
-0.5462545156478882
-0.14557017385959625
0.04948596656322479
-0.10754377394914627
-1.4975500106811523
-0.017223956063389778
-2.1218838691711426
-0.3141332268714905
0.012924019247293472
-2.0541586875915527
-3.0877881050109863
-1.4312785863876343
-0.004564044065773487
-0.7207809686660767
0.11994031071662903
-0.03449076786637306
0.12584389746189117
0.44433632493019104
-1.9580086469650269
0.13107463717460632
-0.28989535570144653
0.32154324650764465
-0.036203399300575256
0.17531846463680267
0.270535409450531
-2.342104911804199
0.387460321187973
-0.7392346262931824
-0.19533544778823853
0.16381843388080597
0.03807671368122101
-0.32474908232688904
-0.6173316240310669
0.10849927365779877
-0.16745232045650482
-1.87156343460083
-2.5859885215759277
-1.3037097454071045
-0.437318354845047
-0.2003561109304428
-0.1120382621884346
0.4634796679019928
1.153592586517334
2.5211102962493896
1.1541911363601685
1.9402955770492554
1.4961769580841064
1.34079909324646
0.23204128444194794
-0.004801360424607992
0.10868337750434875
-0.05426090955734253
-0.08139330893754959
-0.43593576550483704
-1.9678022861480713
-0.17074503004550934
-0.21242566406726837
-0.2460794895887375
-0.2936113774776459
-0.35690516233444214
-0.37211498618125916
-0.9910101294517517
-0.30793124437332153
-0.2544005215167999
-0.0033116373233497143
0.1145372986793518
0.16080190241336823
0.07653587311506271
0.5167943239212036
-1.2495360374450684
0.21415291726589203
0.2050793170928955
0.21385131776332855
0.4394591152667999
0.4590511620044708
1.5265942811965942
-0.4666518270969391
0.053642094135284424
0.04137764498591423
-0.21217584609985352
-0.8132772445678711
-0.146553173661232
0.0724637508392334
-0.552599310874939
-1.736153244972229
-3.180859088897705
-3.1323537826538086
-2.974085807800293
-2.0686275959014893
-0.16465801000595093
-0.03268786892294884
0.20558349788188934
0.16245047748088837
-0.30626392364501953
-0.7264572381973267
-0.3434053957462311
-0.0866585522890091
0.11826460808515549
0.6954845786094666
0.08872932195663452
0.004568921402096748
-0.32071197032928467
-0.37443363666534424
-0.08980885148048401
-2.1929311752319336
1.130876898765564
0.19781900942325592
0.15561673045158386
0.2594945728778839
0.2718639075756073
0.24735794961452484
-1.3900946378707886
1.329732060432434
0.03543601557612419
-0.2761813998222351
-1.7280229330062866
0.13733474910259247
-0.14435411989688873
0.1465463787317276
1.2633789777755737
-0.16971924901008606
-2.7317745685577393
0.03442699462175369
0.06118486449122429
-0.39215195178985596
-0.7447773814201355
-0.7420770525932312
-0.5530340075492859
0.00509380828589201
-0.043844182044267654
-0.21466711163520813
-1.0754833221435547
-0.177295982837677
-0.183681920170784
0.032949235290288925
0.1513940542936325
-0.0730162262916565
0.09815862029790878
0.017482992261648178
0.5005018711090088
0.11625317484140396
-0.16916555166244507
0.21584536135196686
-1.010404109954834
-0.9182353019714355
-1.568267822265625
-0.4214813709259033
0.0007176592480391264
-0.7132143974304199
-0.5460178256034851
-1.3944180011749268
-0.12343332916498184
-0.13110019266605377
-2.7739975452423096
-2.267075300216675
0.9645364284515381
-0.1888822317123413
0.1435185968875885
0.0755198523402214
-0.041188355535268784
-0.44410502910614014
-0.28523945808410645
0.1491290032863617
0.20572800934314728
-0.08516079187393188
0.13179777562618256
0.08379604667425156
-0.7954849004745483
-1.16127347946167
0.6822137832641602
-0.5297462344169617
-0.07799594849348068
0.18141277134418488
-0.11539026349782944
-1.4033654928207397
-1.0735636949539185
-0.5632270574569702
-2.204686403274536
-0.06567941606044769
-0.0975835770368576
-0.17306368052959442
-1.2880537509918213
-0.6426507234573364
0.08745035529136658
0.6421768665313721
0.32437846064567566
0.20269988477230072
0.5751801133155823
0.6947565078735352
0.1195434033870697
-0.028616638854146004
0.4301993250846863
0.963763415813446
0.17250995337963104
0.3398849666118622
0.966277539730072
1.8619571924209595
-0.12893210351467133
0.3296624422073364
-0.16609197854995728
-0.009128289297223091
0.05124271288514137
0.2067423015832901
0.5958954095840454
2.964252233505249
-0.7569408416748047
-0.1529768407344818
-0.023923788219690323
-0.22947140038013458
-2.1852328777313232
-5.444919586181641
-1.3296624422073364
-0.4608891010284424
-0.02223244681954384
0.018904998898506165
-0.028822608292102814
0.0790514200925827
0.03180408850312233
-0.08724085241556168
-0.9930297136306763
0.047515787184238434
0.05444593355059624
-0.038325317203998566
0.07766086608171463
0.09252532571554184
0.09921479970216751
-0.28933241963386536
0.005436532665044069
-0.07367603480815887
0.0975453108549118
0.04188360646367073
0.09185607731342316
0.07431253045797348
0.02094469964504242
0.1215711236000061
0.17689919471740723
0.05130377784371376
0.04864880070090294
0.6157096028327942
0.22518102824687958
-0.2638090252876282
-0.18435227870941162
0.13497333228588104
0.5518171787261963
-0.982657253742218
-0.38586241006851196
0.03872525691986084
0.03709381818771362
-0.505988359451294
0.26510608196258545
0.1626042276620865
0.1172916367650032
0.05915936082601547
0.0114669818431139
-1.1167638301849365
0.3468899428844452
0.05858843773603439
-0.44817039370536804
0.1636580377817154
0.12804941833019257
-0.19455812871456146
-0.6098041534423828
0.17363476753234863
-1.0100370645523071
-0.3047213554382324
0.2805846035480499
0.33829617500305176
-0.13761134445667267
-0.7296831607818604
2.2835700511932373
0.05992133542895317
-0.7501707673072815
-1.077186107635498
0.04603440687060356
0.3768090307712555
-2.1889262199401855
0.9515827298164368
0.2460067868232727
0.06796875596046448
0.07390972971916199
0.10926622152328491
-0.4237629771232605
-1.6964466571807861
1.0626137256622314
1.359861135482788
0.667095422744751
0.019574247300624847
-0.4832611680030823
-0.24976254999637604
0.03690226376056671
0.07418595999479294
-0.053792014718055725
-0.030662937089800835
-0.18557827174663544
-0.08295970410108566
-0.5741756558418274
-1.0632190704345703
0.1707405000925064
0.6435177326202393
0.25086694955825806
0.07917206734418869
-0.0574260875582695
-0.08780688792467117
-0.13888601958751678
-1.2683101892471313
0.9397202134132385
0.2922743856906891
0.06280108541250229
-0.02777167782187462
0.029069384559988976
-0.13211950659751892
-0.26772841811180115
1.2353154420852661
-4.038235664367676
-2.7990169525146484
-0.24988751113414764
-0.09301102161407471
-0.0893135741353035
0.8659074902534485
0.06326062977313995
0.13554896414279938
0.12480954825878143
0.14375421404838562
0.003920465242117643
0.04886598140001297
1.0311076641082764
0.344561904668808
0.12538032233715057
0.038353245705366135
0.024144671857357025
0.060183070600032806
0.18964934349060059
1.833886742591858
-0.35674914717674255
0.36318954825401306
0.2537399232387543
0.2912695109844208
0.17239098250865936
-0.4119616448879242
0.7392787933349609
-0.2655518651008606
-0.061300091445446014
0.05694851279258728
-1.4611060619354248
-3.4460339546203613
-2.5020549297332764
-1.535336971282959
-0.15489979088306427
-0.38527020812034607
-0.36551910638809204
-0.3056066632270813
0.18163669109344482
0.18493542075157166
0.11264046281576157
0.9041433930397034
-0.8027070760726929
-0.39637598395347595
0.30617693066596985
-0.18255692720413208
-0.19694767892360687
0.28867509961128235
0.9252492189407349
-0.7283729314804077
-0.10516088455915451
0.06208150088787079
0.28468963503837585
0.17932789027690887
-0.1421917825937271
0.12664909660816193
-1.2275644540786743
-1.0401601791381836
0.19330526888370514
0.0228589940816164
-0.1725817173719406
-1.5754083395004272
-0.8249481320381165
-1.1025018692016602
-0.3878103494644165
-0.12454594671726227
-0.032998763024806976
-0.009474569000303745
-1.3801413774490356
-1.1893742084503174
0.4783942401409149
-1.055051326751709
0.12410520017147064
0.30544039607048035
0.5412416458129883
0.8361803293228149
-0.1739111691713333
0.24864687025547028
0.007712259888648987
-0.6935188174247742
0.04082789272069931
-0.7132832407951355
-0.04788493365049362
0.1861565113067627
0.07086534053087234
-0.26056379079818726
-0.004248581826686859
0.04604722931981087
-0.25411170721054077
-0.25295376777648926
-0.1488516926765442
-1.4427152872085571
0.8495556712150574
0.08371499925851822
0.12349723279476166
-0.02888362854719162
0.17369472980499268
-0.16132692992687225
-2.7904365062713623
0.49649643898010254
0.26651161909103394
-0.038924142718315125
-0.24317088723182678
0.3477415442466736
0.07919205725193024
-0.2898264229297638
-0.230545312166214
-0.28745996952056885
-0.05245007574558258
0.15972007811069489
0.05885404720902443
-0.19980154931545258
-0.1089891865849495
-1.2889665365219116
-0.5341253280639648
-0.3170650601387024
-0.15694347023963928
-0.4405647814273834
-0.3440718948841095
0.003999144770205021
-0.34157922863960266
1.1878477334976196
0.258600652217865
0.19685663282871246
0.33191990852355957
0.06226532906293869
0.4426833391189575
-0.22187626361846924
-0.1483812928199768
0.02090226672589779
0.5621602535247803
-0.4685225784778595
-1.0838260650634766
-0.08206979185342789
-0.0012661358341574669
0.9488190412521362
0.32377809286117554
0.4179221987724304
0.12918852269649506
0.014546352438628674
-0.47969168424606323
-1.4165534973144531
0.5779064297676086
-0.5499675273895264
-1.300192952156067
0.02300962246954441
0.16025124490261078
-0.961781919002533
-0.05352795496582985
0.042699579149484634
-0.3939565420150757
0.1022755429148674
0.09368981420993805
-0.04976583272218704
-0.03756864741444588
-0.5481695532798767
2.4378936290740967
0.006498867645859718
-0.5178899765014648
-0.5855231881141663
0.13185811042785645
0.3939809799194336
-1.5988777875900269
1.721760630607605
0.2844906747341156
0.06786344200372696
0.06342263519763947
0.06793168932199478
-0.5977794528007507
-1.344760775566101
0.3309280276298523
1.3354666233062744
0.6851097345352173
0.33283737301826477
0.016961365938186646
-0.3293273150920868
-0.1905708611011505
-0.06384044885635376
0.17374424636363983
0.9367095828056335
-0.48037460446357727
1.0530582666397095
1.6187772750854492
1.912116289138794
0.18861150741577148
0.3416993021965027
-0.880389392375946
-0.5813359618186951
-0.05240549147129059
-0.18520303070545197
-0.2688549757003784
-1.6985833644866943
0.3131430447101593
-1.7098677158355713
-0.15555670857429504
0.13992241024971008
-1.9602200984954834
-1.563153624534607
-1.5647380352020264
-0.11109373718500137
0.20052261650562286
0.06602825224399567
0.01129065826535225
-0.041145987808704376
0.23845230042934418
-0.644003689289093
0.2819973826408386
-0.11056876927614212
0.19503508508205414
0.2200010120868683
-0.03022398054599762
0.14510968327522278
-1.3697028160095215
0.2412281334400177
-0.7262788414955139
-0.17861449718475342
0.2868057191371918
0.1268700361251831
-0.1831701397895813
-0.7844081521034241
0.021656736731529236
-0.5058627724647522
-2.0318968296051025
-1.5805983543395996
-1.9181492328643799
-0.7128425240516663
-0.2154073715209961
-0.10508314520120621
0.2749401926994324
-0.06612648069858551
-0.24448780715465546
0.1569136679172516
1.2069950103759766
0.7548946142196655
-0.1088557317852974
-0.1851145178079605
-0.30661848187446594
0.07800069451332092
0.057029008865356445
0.3288845717906952
0.640882134437561
1.337235450744629
-0.9801009893417358
-0.05875340476632118
0.1605481654405594
-0.42366597056388855
-1.7164565324783325
-3.2649130821228027
-1.4271340370178223
-0.8341774344444275
-0.0487685389816761
0.044866565614938736
-0.09578640013933182
-0.011638320051133633
-0.17821104824543
-1.1482207775115967
-0.7779766321182251
-0.10539279878139496
-0.4797658920288086
-0.7085185050964355
0.03965349867939949
0.027748631313443184
0.24092590808868408
-0.47054004669189453
0.2027895152568817
0.08779545873403549
0.11919949948787689
0.10784600675106049
0.219339519739151
-0.12258820980787277
-0.23869672417640686
0.5434874892234802
0.78429114818573
0.36252376437187195
0.2505738437175751
0.6758063435554504
-0.24304324388504028
0.11609933525323868
-0.22024796903133392
-0.32378196716308594
-1.6571590900421143
-1.9584444761276245
-2.469804525375366
-0.9384840726852417
-0.8650588393211365
-0.8382831811904907
-0.22398741543293
-0.2878381311893463
-0.19883738458156586
-0.36942508816719055
-0.07293178886175156
0.12999789416790009
-0.52902752161026
-0.3892133831977844
-0.05909529700875282
0.06869334727525711
0.14056514203548431
-0.01876400224864483
0.23100709915161133
-1.648247480392456
0.16386833786964417
0.22406166791915894
-0.07081391662359238
0.0411183126270771
-0.43959367275238037
0.1287054419517517
-1.3912203311920166
0.1776019185781479
-0.06318573653697968
-0.002693681512027979
0.07739932090044022
0.0025938227772712708
-1.0968097448349
-1.2221654653549194
-0.14228926599025726
-0.08424428105354309
-0.06061258539557457
-0.05972904711961746
-0.8953471779823303
-0.8649604916572571
-0.17175768315792084
-1.8442312479019165
-2.5196752548217773
-5.030272960662842
-5.582489967346191
-2.796912670135498
-0.04552137851715088
0.07040084153413773
0.2828109860420227
0.8998581171035767
2.680877447128296
0.8209286332130432
1.7613530158996582
2.0200424194335938
0.744809091091156
0.47983518242836
0.07067219167947769
-0.18741492927074432
-0.08987508714199066
-0.08103147894144058
-0.10077255219221115
-1.267629623413086
-0.3286217749118805
-0.18567276000976562
-0.23372125625610352
-0.018697328865528107
-0.07115141302347183
-0.08790945261716843
-0.822648823261261
0.08472686260938644
0.09820956736803055
0.19495558738708496
-0.16565395891666412
-0.04582849517464638
0.14028604328632355
0.583115816116333
-0.5475500822067261
0.16238924860954285
0.2040572166442871
0.09476881474256516
0.2580896019935608
0.3500177264213562
1.1745591163635254
-0.08533094078302383
-0.0045112501829862595
-0.04034716635942459
-0.004364374093711376
-0.11529132723808289
-0.3739318251609802
0.833019495010376
-0.9065507650375366
-2.0748636722564697
-3.0235602855682373
-4.371932506561279
-4.687103271484375
-3.003563404083252
-0.1514064520597458
0.02871243841946125
-0.1305544078350067
0.5592989921569824
0.34758618474006653
0.48498761653900146
0.7158492207527161
-1.107398509979248
0.8179531693458557
-0.04681914672255516
-0.1940731555223465
0.14880260825157166
-0.11262991279363632
-0.2337101846933365
-0.2921053171157837
-2.420492649078369
0.4403284788131714
-1.3483290672302246
-0.8479676246643066
-0.20404617488384247
-0.10171790421009064
-1.5211899280548096
-1.1030076742172241
0.5833641886711121
-0.4937154948711395
-0.2909546196460724
0.3072873055934906
-0.318512499332428
-0.9957833290100098
0.5476852655410767
-0.19728533923625946
0.282532274723053
0.10662544518709183
0.31590259075164795
-0.20001459121704102
0.4303553104400635
1.540704369544983
-0.2832869589328766
0.4059566557407379
-0.0024008045438677073
-0.16088803112506866
0.0659002885222435
0.12812532484531403
1.3953287601470947
-0.029780354350805283
-0.6420413851737976
-2.1215415000915527
-2.6334450244903564
-1.0839180946350098
-0.15550068020820618
-0.4078124761581421
0.10956728458404541
-0.18754583597183228
-0.09396786242723465
-0.4177402853965759
-0.17740337550640106
-0.14397042989730835
0.029088249430060387
-0.17236381769180298
-0.0010292624356225133
0.3405366837978363
0.11629382520914078
0.04318515211343765
-0.0715443566441536
-1.707095980644226
-1.7714951038360596
1.1806020736694336
0.218107670545578
-0.11966222524642944
0.15442413091659546
0.04473579302430153
-0.18081428110599518
-2.4341466426849365
0.6871057152748108
-0.2787836492061615
-0.08579922467470169
0.09225354343652725
0.11310379952192307
-0.14344054460525513
-0.7676759958267212
1.729642629623413
-0.501970648765564
-1.6618335247039795
-0.29733964800834656
-0.012208360247313976
0.17462481558322906
-0.4448312222957611
1.3492459058761597
0.5403128266334534
0.10347578674554825
0.11304067820310593
-0.0703505426645279
-0.5680509209632874
-0.8787693977355957
0.9035010933876038
1.1371147632598877
0.8885753154754639
0.39823049306869507
0.32680338621139526
0.48057684302330017
0.5346721410751343
0.05108761042356491
0.12858204543590546
0.2034241110086441
-1.5101643800735474
-1.4005095958709717
-1.1505001783370972
-0.974943220615387
0.22006967663764954
0.458954781293869
-0.4108690619468689
0.035960130393505096
-0.10091587156057358
-0.07655025273561478
0.0782412588596344
0.6456010937690735
0.5741922855377197
0.2885676622390747
0.38715797662734985
0.5275452136993408
0.20275753736495972
0.20993082225322723
0.5670559406280518
0.1903531849384308
0.05129662901163101
0.04336942732334137
-0.640821635723114
-0.547459602355957
-0.08669087290763855
0.10881581157445908
-0.28848859667778015
0.2187473624944687
-0.5079360008239746
-0.4530494809150696
-0.04101274907588959
0.11452925950288773
-1.7141071557998657
-1.3065292835235596
0.1282060742378235
0.2480486035346985
-0.017706548795104027
-0.01673217862844467
-0.21227963268756866
-0.7224018573760986
-0.7188526391983032
0.14046169817447662
0.29201367497444153
0.07919120043516159
0.008984765969216824
-0.40113046765327454
0.12025964260101318
-0.08875122666358948
-0.1385556012392044
0.24516239762306213
0.38298189640045166
0.12658922374248505
0.8329257965087891
0.7576578259468079
-0.0012187717948108912
0.4866832196712494
0.24226346611976624
0.08794081956148148
0.16751018166542053
0.18038101494312286
0.5787438154220581
1.8558733463287354
0.14326973259449005
-0.00818285346031189
-0.046987615525722504
0.03881938382983208
-0.29169559478759766
-0.7459683418273926
-0.16347026824951172
-0.24978415668010712
0.11107700318098068
-0.013393355533480644
0.09772314876317978
0.037396784871816635
-0.27134090662002563
-1.2640469074249268
0.6501637101173401
-0.8857387900352478
-1.2374625205993652
-1.4617912769317627
0.028921306133270264
0.23891803622245789
-0.9649869203567505
0.32566431164741516
0.46240001916885376
0.217290997505188
0.09589850902557373
0.07283720374107361
0.11746787279844284
-1.4861761331558228
0.6003830432891846
1.2861891984939575
0.6624096035957336
0.26904869079589844
-0.22996807098388672
-0.31562548875808716
-0.1413108855485916
0.017984088510274887
-0.0034288817550987005
-1.192840337753296
-2.2324411869049072
-3.3094050884246826
-2.6698219776153564
-0.3196672201156616
-0.07204865664243698
0.09436268359422684
-0.1274813562631607
-0.21465761959552765
-0.17756925523281097
0.08774358034133911
0.06447383761405945
-0.14199413359165192
-1.3026528358459473
-0.08682211488485336
0.10853889584541321
-0.2143876701593399
0.1385686993598938
0.027167756110429764
-0.6411120891571045
-0.44884371757507324
0.18516498804092407
0.1370941400527954
-0.40465155243873596
0.34901970624923706
0.22802625596523285
-0.8344115018844604
-0.4046996533870697
-0.015264413319528103
0.05381370708346367
-0.3059082329273224
0.22107765078544617
-0.07342837005853653
-0.15197432041168213
-0.05790630728006363
-0.7473312020301819
-4.653882026672363
-0.0765504240989685
-0.034978557378053665
0.13992375135421753
0.5921958684921265
0.5213903784751892
-1.133160948753357
-0.040925994515419006
0.15087392926216125
0.23824547231197357
0.6854364275932312
-0.22761771082878113
0.1504332274198532
0.079270139336586
0.06682590395212173
0.11767221242189407
-1.4871662855148315
-1.526781439781189
-0.4888869822025299
-0.18729522824287415
-0.23886197805404663
-0.087698794901371
-3.9128096103668213
-0.25171634554862976
-0.16421926021575928
-0.04311355948448181
-2.6257834434509277
-0.3278447985649109
-1.5021380186080933
-0.5948457717895508
-0.14700409770011902
0.06203481927514076
-0.2817220687866211
-2.2021703720092773
-0.37825503945350647
-0.14857102930545807
-0.01982463151216507
0.31489571928977966
-0.004476907197386026
-1.143239140510559
-1.1867419481277466
-0.49296870827674866
-1.8743399381637573
-0.06623624265193939
0.15013140439987183
-0.7726402878761292
-0.26089391112327576
-0.8459213972091675
-1.2283159494400024
0.018164368346333504
-0.18343015015125275
-0.18260852992534637
-1.8563557863235474
-0.3709237277507782
0.3082336187362671
-0.14205369353294373
0.02550450712442398
-0.21733960509300232
0.06530288606882095
-0.018087521195411682
0.23062379658222198
-0.20184597373008728
-0.06982554495334625
0.15732572972774506
1.8141831159591675
1.337432622909546
1.2811840772628784
1.8999472856521606
-0.6771100163459778
0.005065384320914745
0.3483380675315857
0.031372375786304474
-0.0019968771375715733
-0.03504188731312752
-2.226285219192505
-2.8561110496520996
-0.6485984921455383
-0.002340804086998105
-0.24020272493362427
-0.054973553866147995
-0.47861164808273315
-0.13297544419765472
0.05148704722523689
-0.960996687412262
-0.2619302272796631
0.16792650520801544
0.1666816771030426
0.019011277705430984
0.0724121704697609
0.27321475744247437
0.00969377625733614
-0.20269350707530975
-0.0505901537835598
0.23170724511146545
0.06074613705277443
0.043706014752388
0.1782277375459671
-0.09350750595331192
-0.36615774035453796
-0.3512517213821411
-0.03602318465709686
0.24888652563095093
-0.1257445216178894
-1.0854897499084473
-0.5180733799934387
-0.1130203977227211
-0.6793347001075745
-1.4137217998504639
-2.103196620941162
-2.115957260131836
-1.2590610980987549
0.24222849309444427
-0.355757474899292
0.031491562724113464
0.29419228434562683
-0.8424012064933777
-0.8958821296691895
-1.549432396888733
-0.8994539380073547
0.12698815762996674
-0.17671865224838257
0.018846610561013222
-0.1404097080230713
0.1419363170862198
0.2546440362930298
0.0045374673791229725
-1.8396044969558716
0.4525899589061737
-0.29063695669174194
0.04114053398370743
-0.03161049261689186
0.3252171277999878
0.2744801640510559
-1.1993756294250488
0.23653995990753174
0.27013763785362244
0.1284712851047516
-0.9711444973945618
-0.4034115970134735
0.3005891442298889
0.3081684708595276
-1.0728753805160522
0.23783601820468903
0.4134986400604248
-0.6906283497810364
0.027910402044653893
-0.0004540642548818141
0.32488006353378296
-0.08660288900136948
0.06495704501867294
0.27463650703430176
0.07216496020555496
-0.13161183893680573
-0.2152375727891922
0.6603283286094666
-0.11481642723083496
-0.8186126351356506
-0.7833094000816345
-1.398604154586792
-1.7408852577209473
-1.6176866292953491
-0.20688702166080475
-0.5004280805587769
-0.08208847045898438
0.6226598024368286
0.47127217054367065
0.0188092440366745
-0.7770349979400635
-0.14403875172138214
-0.1716725379228592
-0.003683540504425764
-0.11305828392505646
0.23782075941562653
0.47073665261268616
0.2263595461845398
-0.15590351819992065
0.5450382232666016
-0.4680320620536804
0.27787962555885315
-0.13264881074428558
-0.3163873553276062
0.1392013281583786
0.32433634996414185
-0.19592460989952087
0.1586664766073227
-1.2415958642959595
-0.292463481426239
0.27130046486854553
0.03453034162521362
-0.41652241349220276
-0.8785498738288879
1.7431219816207886
0.42049580812454224
0.0913400650024414
0.054268572479486465
0.1244727298617363
0.0022006845101714134
0.4291568696498871
1.8071173429489136
0.2832612693309784
-0.07615000009536743
-0.08223342150449753
0.07308392971754074
0.2409457564353943
0.2791755199432373
-0.21559098362922668
-1.0376238822937012
0.16941672563552856
0.5382177829742432
0.40362387895584106
0.07585924863815308
0.3087882995605469
0.08768280595541
-0.08141771703958511
0.053806520998477936
0.3278992772102356
-0.13309532403945923
0.4615726172924042
1.9296876192092896
0.1864127814769745
-0.22173058986663818
-0.7551465034484863
-0.2796446979045868
-0.07004109025001526
-0.07941295206546783
-0.46777358651161194
-1.4318920373916626
-1.5445318222045898
-0.3836922347545624
0.0076211909763514996
-0.11516933888196945
-0.18725116550922394
-0.20536921918392181
-1.8573516607284546
-1.4009872674942017
0.3707759380340576
0.27171728014945984
0.09732288122177124
0.2763780355453491
-0.02697625942528248
-1.7288531064987183
-0.42823609709739685
-0.13821916282176971
0.3634355366230011
-0.014721496030688286
0.03853168711066246
-0.3138730227947235
-2.0735738277435303
-0.4377201497554779
-3.2387049198150635
-1.1091527938842773
-0.1107119619846344
-0.11762107163667679
-0.018635306507349014
-0.5339754819869995
0.3421710431575775
-1.722322940826416
0.2103896588087082
0.0433419868350029
0.2641755938529968
0.8629729151725769
-0.49837395548820496
-0.26457399129867554
0.2693761885166168
-0.04500554874539375
0.5828478336334229
0.6324275732040405
0.7555331587791443
-0.5277432203292847
-0.06841482222080231
-0.4015808403491974
-0.36041948199272156
-0.20427455008029938
0.034298595041036606
0.08488965034484863
0.017013877630233765
-0.06154204159975052
0.054637666791677475
0.11080534756183624
0.07648725807666779
-0.11712177097797394
0.03511252626776695
0.1765047162771225
-0.06440854072570801
-0.006846087984740734
-0.33697032928466797
-0.2505282759666443
0.19604673981666565
0.013671856373548508
-0.6627825498580933
-0.39681732654571533
-0.7269273996353149
-0.3259580731391907
0.12397027015686035
0.23425529897212982
-0.3658430874347687
-0.85688316822052
0.1484776884317398
-0.455526739358902
-0.012320972979068756
0.06351987272500992
0.10878138989210129
0.43428313732147217
0.720869779586792
0.666132926940918
-0.0729200467467308
-2.904299736022949
-2.7279117107391357
-0.25045013427734375
-0.7005933523178101
-0.9735519886016846
-0.10008689761161804
0.2258482426404953
-0.07300212234258652
-0.6436284780502319
-2.3903374671936035
-4.399093151092529
-3.3986306190490723
-1.8444547653198242
0.16522884368896484
0.24003657698631287
-0.1255817860364914
-0.24876032769680023
-0.4055345058441162
-0.1513257622718811
0.001862148055806756
-0.7303776144981384
0.5331814289093018
-0.16732075810432434
0.021423596888780594
-0.031096018850803375
0.12306991964578629
-0.11998190730810165
-2.063800811767578
-0.009878931567072868
0.5272438526153564
0.2386530488729477
-0.06033405289053917
0.4643029570579529
0.2292996346950531
-0.8026221990585327
-0.6913269758224487
-0.39457616209983826
-0.28549912571907043
-0.05301547050476074
-0.08352770656347275
-0.7356541752815247
-0.38942891359329224
-1.175722360610962
-3.810349225997925
-0.450624942779541
-0.15088801085948944
-0.23128311336040497
-0.5432205200195312
0.23043259978294373
0.09760395437479019
0.4488290846347809
-0.016093596816062927
-0.17228227853775024
0.2443656474351883
0.5587897300720215
0.8606820702552795
-0.3695332109928131
0.046431973576545715
0.05978032946586609
0.9504973292350769
-0.07919258624315262
1.1696128845214844
1.090047001838684
0.3676178455352783
0.2732750475406647
-0.8678972721099854
-0.342438668012619
-0.06747886538505554
0.13809902966022491
-0.07033871114253998
-1.958169937133789
0.48450160026550293
-0.2067217379808426
-0.06361401826143265
0.1801944226026535
-0.062187083065509796
0.05739183351397514
-1.9974021911621094
0.5539424419403076
0.3193128705024719
0.4054783582687378
-0.5027332901954651
-0.2770516574382782
0.31644752621650696
-0.05404059961438179
-0.7284705638885498
0.11444801092147827
0.46188822388648987
-0.3814045190811157
0.08702477812767029
0.2632499933242798
-1.7588894367218018
-0.8532916903495789
-0.03362257033586502
0.21798376739025116
0.057328641414642334
-0.23087367415428162
-0.6619189977645874
-0.42758795619010925
0.14269718527793884
-0.8844212889671326
-1.157164216041565
-1.9179164171218872
-2.23008131980896
-1.5901075601577759
-0.23701052367687225
-0.07578549534082413
0.3117630183696747
1.3715564012527466
0.4086611568927765
0.30675238370895386
1.272151231765747
2.841322183609009
0.9172350764274597
0.27000609040260315
-0.5410054922103882
-0.39069655537605286
-0.13752242922782898
0.05100175738334656
0.3017933666706085
-0.22021856904029846
0.09579623490571976
-0.7087331414222717
-0.11558785289525986
-0.0926273986697197
-0.8230576515197754
-1.7968833446502686
-2.10713267326355
-0.343558132648468
0.09729661047458649
0.0700409859418869
0.019947240129113197
0.08778434246778488
0.3898587226867676
-1.9199153184890747
-0.08796130865812302
-0.054101478308439255
0.2619897425174713
-0.047002337872982025
0.18511585891246796
0.22047166526317596
-1.7516330480575562
0.22305847704410553
-0.13549081981182098
-0.024855894967913628
0.21410734951496124
0.09877228736877441
-0.3487851321697235
-0.7918311357498169
0.20396320521831512
-0.2897522747516632
-2.3024842739105225
-3.069538116455078
-2.2399866580963135
-1.4637115001678467
-0.2181825190782547
-0.2539444863796234
-0.0832601934671402
0.9978726506233215
0.751470148563385
0.36502519249916077
0.9319750070571899
-0.551366925239563
0.1943676620721817
-0.14870698750019073
-0.3237992823123932
0.011356201022863388
0.21569408476352692
0.10792068392038345
0.02739834412932396
0.2917156517505646
-0.9169067144393921
0.40641969442367554
0.17104344069957733
-0.05628492310643196
-0.08410774171352386
0.09032809734344482
0.4134097397327423
0.2432524710893631
-1.5649617910385132
-0.4285745918750763
0.3451734483242035
-0.09776638448238373
-0.11478428542613983
0.40926802158355713
-0.22899414598941803
-0.2566600441932678
0.3578846752643585
0.14170195162296295
-0.22069518268108368
-0.07035818696022034
0.761535108089447
-0.4624612629413605
-0.0468892939388752
0.06231333315372467
-0.05205114558339119
-0.034826286137104034
0.2447439432144165
-0.3111976087093353
0.07624126970767975
-1.9842982292175293
-1.1212263107299805
-0.6414838433265686
0.02784954570233822
-0.12640805542469025
-0.05950178951025009
0.1193789541721344
0.5499522686004639
-1.0875493288040161
-1.5892627239227295
0.8260167241096497
-1.85908043384552
-1.7045396566390991
-0.10529792308807373
-0.044252268970012665
-0.03898337483406067
0.19278386235237122
0.7736809849739075
-0.4928208589553833
0.09981369227170944
0.0027792109176516533
0.8966962099075317
0.17979900538921356
0.052712853997945786
0.033889107406139374
0.2330513745546341
0.01237811055034399
0.6263312101364136
0.34395790100097656
-1.246311068534851
-0.6464816927909851
-0.3725137710571289
-1.6233612298965454
-0.15028983354568481
0.3161424398422241
-0.10957031697034836
-1.1691912412643433
0.07341219484806061
-1.422874093055725
0.1840680092573166
0.44579094648361206
-0.28819528222084045
-2.102611541748047
-0.12299701571464539
-2.253706455230713
-0.16924336552619934
-0.532256543636322
0.9516475200653076
0.14254191517829895
0.17311158776283264
-0.10019040107727051
0.22157546877861023
-0.04232926294207573
0.7778329253196716
0.19945195317268372
0.05493606626987457
0.0668954849243164
-1.133152723312378
1.2557233572006226
1.232114315032959
-1.0889116525650024
1.3385056257247925
0.8140631914138794
0.20008128881454468
-1.404495358467102
-0.01611761376261711
-1.2139815092086792
0.0036155760753899813
-0.07132057100534439
-0.9175536036491394
0.1685183346271515
-1.590850591659546
-0.6867087483406067
0.1463419795036316
-0.07760068774223328
-0.22715753316879272
-0.0497644767165184
0.48760107159614563
-0.03306737169623375
-1.4368306398391724
0.27763164043426514
0.8029536604881287
0.36954671144485474
-1.1081441640853882
-0.02192883938550949
-0.03748242184519768
0.25277841091156006
0.5759938955307007
0.4712008237838745
-1.1147246360778809
-0.08336495608091354
0.13562797009944916
0.3289536237716675
-0.3759908974170685
0.9939385056495667
0.0462692566215992
0.5510737299919128
0.26408132910728455
-0.8831130862236023
-0.11879512667655945
0.43446311354637146
-0.24626238644123077
-0.08262763917446136
-0.08747873455286026
0.3988158106803894
-0.259446918964386
0.2980772852897644
-1.6110870838165283
-0.1800193339586258
1.0945558547973633
-0.7676092386245728
-0.6745595335960388
0.9112865328788757
0.033275749534368515
-0.4442831575870514
-1.4855245351791382
-1.2157137393951416
-0.25194308161735535
0.03604333847761154
-0.7356470227241516
-0.4055718183517456
-0.7934160828590393
-0.5018667578697205
0.09510913491249084
-0.029401114210486412
-1.023695945739746
-1.4157251119613647
-1.6770399808883667
-1.4810024499893188
-1.144877314567566
0.576427161693573
-1.3601012229919434
-0.6919755339622498
-0.7541449666023254
0.24732479453086853
-0.05698718503117561
-1.4369490146636963
0.11440159380435944
-1.0217186212539673
-1.0565791130065918
-1.8339139223098755
0.03982950374484062
-0.13770438730716705
-1.141212821006775
-1.5382795333862305
0.17831677198410034
0.5755699276924133
-1.4827244281768799
-1.603298306465149
-0.04222506657242775
0.0962030440568924
0.010740977711975574
0.07819163799285889
-1.3451638221740723
-1.8493154048919678
0.07533074915409088
0.17496588826179504
-0.4699663817882538
-1.3975120782852173
-0.5732610821723938
0.004851025994867086
0.08484989404678345
-0.9027080535888672
0.8516607284545898
-0.030822210013866425
-0.13663581013679504
-0.17544744908809662
-0.0024912753142416477
0.42991113662719727
-0.1328001767396927
-1.0493305921554565
0.3228166401386261
0.14218242466449738
0.16589511930942535
1.1002415418624878
-0.2330402433872223
-0.058847129344940186
-1.532056450843811
-1.7749308347702026
0.5259758830070496
0.07505334168672562
-1.4170280694961548
0.6409904360771179
0.04578588157892227
0.4919615089893341
0.24296702444553375
0.4212884306907654
-1.768338680267334
-0.44318708777427673
-0.3207067549228668
-0.3714366853237152
-0.41507574915885925
0.4531784653663635
-0.07225986570119858
0.21060782670974731
0.6984745264053345
-0.2842139005661011
-1.0555285215377808
-0.2880902588367462
0.2116340547800064
0.0029704407788813114
-0.25087079405784607
0.6440967321395874
-0.6306314468383789
-1.0897780656814575
-0.20403432846069336
0.13539829850196838
-1.5949594974517822
0.16856618225574493
-0.7298313975334167
-0.7791497707366943
0.6743004322052002
-1.000732421875
1.1422399282455444
-0.9807536005973816
-0.16029861569404602
-1.1148793697357178
0.11588694155216217
-0.032302629202604294
-1.3698569536209106
0.5241886973381042
-1.3069936037063599
-0.1301157921552658
0.13940395414829254
-0.04792330414056778
-0.45122653245925903
-0.14803610742092133
-0.31605759263038635
-0.6367645859718323
-1.5942983627319336
-0.059715427458286285
0.7432458996772766
0.46165937185287476
-1.0299707651138306
0.5523217916488647
-0.06682687997817993
0.18185797333717346
-1.3382335901260376
0.5571447610855103
0.2541821300983429
-0.5817904472351074
-0.5592600107192993
-0.006912042386829853
-0.13793601095676422
0.684586763381958
-0.0075432914309203625
-0.328437864780426
-1.1601985692977905
-1.5024710893630981
0.19242776930332184
0.172872394323349
-0.06691794097423553
0.016887875273823738
-1.4937905073165894
0.11146026104688644
-0.03218280151486397
0.28846824169158936
-0.9264681935310364
-0.3156443238258362
1.1572216749191284
-0.4055612087249756
-0.04945622384548187
0.8552892804145813
0.045641109347343445
-0.06911803036928177
0.7191805243492126
-0.7258065342903137
-0.2405916452407837
-0.8862106800079346
0.1778218299150467
-0.5168181657791138
-0.24817146360874176
-1.1401325464248657
-1.1515214443206787
-1.636222243309021
0.1347082108259201
0.26213338971138
-1.5586268901824951
0.10075781494379044
-1.409522533416748
0.06373251229524612
-1.8837426900863647
0.1100199818611145
0.19357548654079437
0.04191190376877785
-0.9651883244514465
0.6313105821609497
0.0676027312874794
-1.361557960510254
-1.1900641918182373
-0.16701753437519073
0.5431175231933594
0.14128004014492035
-0.370471715927124
-0.08757201582193375
-1.961876630783081
0.16583263874053955
-0.3644320070743561
-0.16001427173614502
0.24880965054035187
-1.550995945930481
0.45801159739494324
-2.125924825668335
-0.6087679862976074
-1.3173174858093262
0.32279011607170105
0.16534791886806488
-1.3182117938995361
1.3135476112365723
1.3336269855499268
0.1102464497089386
0.06864988058805466
0.9791787266731262
0.08423372358083725
0.06405898183584213
-2.5978336334228516
-0.04820206016302109
0.06830178201198578
-0.017079005017876625
-0.12367364019155502
0.36093440651893616
0.3971904516220093
0.23560239374637604
0.08778788149356842
0.9368011355400085
-0.7951511740684509
-1.1050219535827637
-1.5984095335006714
-1.3697870969772339
0.37572458386421204
0.606605052947998
0.3857657313346863
-0.45959582924842834
-0.025515295565128326
0.317262202501297
0.08016626536846161
-1.0751978158950806
-0.27695146203041077
0.6579808592796326
0.5881963968276978
-0.5918875932693481
-0.09631157666444778
-0.10217735916376114
0.10650904476642609
0.10930183529853821
0.528432309627533
1.5217185020446777
-0.6629838347434998
-1.336793065071106
-0.11660855263471603
-0.12260935455560684
0.0014243738260120153
0.5209399461746216
-1.5896530151367188
-0.40780818462371826
0.09064041078090668
0.06121836602687836
0.508819580078125
0.6404584050178528
-1.1665780544281006
0.20234324038028717
0.4802264869213104
-1.338611125946045
-0.0002421005629003048
-0.255485475063324
0.7597598433494568
0.0574115626513958
-0.07035417854785919
-0.4558812975883484
0.24095743894577026
0.08629539608955383
1.31761634349823
0.7202537655830383
0.006780154537409544
-0.04175962880253792
0.7237136363983154
0.5031579732894897
-0.4249175190925598
-0.0329219326376915
-0.7939998507499695
-1.695510983467102
0.039924509823322296
0.43558481335639954
-0.004562752321362495
-0.22745828330516815
-0.14028258621692657
0.44405630230903625
-0.7545300722122192
0.41465649008750916
1.2931547164916992
0.13096384704113007
0.28944164514541626
0.03467344492673874
0.20350301265716553
0.6100853085517883
-0.029451237991452217
-0.3434906005859375
-0.757817804813385
0.26553261280059814
-0.023497704416513443
-0.11675132811069489
-0.08830413967370987
-0.011685564182698727
0.0074082668870687485
-0.1852683424949646
-0.14465878903865814
0.09612748771905899
-0.4579576253890991
-1.1570621728897095
-1.2060431241989136
0.15712277591228485
-0.1900695413351059
-1.1356436014175415
-0.2510318458080292
0.06053135544061661
-2.120913505554199
0.19812801480293274
0.04186316207051277
0.09945347160100937
0.39772868156433105
-0.7665072083473206
0.5734472274780273
0.2420075237751007
0.257883220911026
0.5344096422195435
-0.4828585982322693
-0.4050034284591675
-0.9182901382446289
-1.5320171117782593
0.34582796692848206
0.2556557357311249
-1.6435850858688354
-0.4796534776687622
0.07102794200181961
0.15792174637317657
0.17082054913043976
-0.4418192207813263
-1.659600019454956
-0.21449367702007294
0.008327146992087364
-0.2012033462524414
-1.6071677207946777
0.11900418996810913
0.005162451881915331
-0.6705430150032043
0.5901892781257629
0.2219875454902649
-0.740082859992981
-0.5264108777046204
-1.8543648719787598
0.26846006512641907
-1.703053593635559
0.35686659812927246
-0.7085214257240295
-0.771344780921936
-1.9396641254425049
0.21171820163726807
0.6697250008583069
0.3681131899356842
-1.3766348361968994
-0.08783864974975586
-0.17207688093185425
-1.3211804628372192
0.22020260989665985
-1.6383118629455566
-1.3292466402053833
0.22846364974975586
0.505412757396698
-1.0659401416778564
-1.0847187042236328
0.7875137329101562
-0.7271317839622498
-0.7740548253059387
-0.1730722188949585
-1.131716012954712
-0.030946390703320503
-0.906695544719696
0.4805893003940582
-0.14686715602874756
-0.27789390087127686
-0.9652822017669678
1.5914396047592163
-0.3846829831600189
-1.3424160480499268
0.3724342882633209
-0.4660190939903259
-1.3875529766082764
-0.3160361349582672
1.152061939239502
0.12779459357261658
-0.05362337455153465
-1.120939016342163
-0.920940101146698
0.18458333611488342
0.07899868488311768
-1.2114758491516113
-0.7829357981681824
0.43186280131340027
0.17385777831077576
-0.015137722715735435
-0.22814777493476868
0.008794517256319523
-0.795969545841217
0.4977802336215973
0.6589435935020447
0.04089203104376793
0.3127533495426178
0.690953254699707
0.905120849609375
1.7570958137512207
-0.7428799867630005
0.15138129889965057
1.3913034200668335
0.4956344962120056
-1.4919257164001465
-0.11316504329442978
0.2074902057647705
0.1968538612127304
-1.0763722658157349
-0.5635287761688232
0.10019222646951675
-0.9545671343803406
-0.8459753394126892
-1.5147318840026855
-1.6130274534225464
0.018788060173392296
-0.16056634485721588
-0.7872934937477112
-1.0225130319595337
-0.7626299262046814
-0.12794554233551025
0.10011196881532669
0.42181333899497986
-0.6866254210472107
0.07689827680587769
-1.7372725009918213
0.19259768724441528
-0.10317528247833252
0.3458295166492462
0.018276618793606758
-0.30104926228523254
-0.12753917276859283
0.19284646213054657
0.16456587612628937
0.4103825092315674
-1.4372214078903198
0.4142986834049225
-0.7967106699943542
0.19315467774868011
-0.1088380441069603
-1.6808412075042725
-0.09267619997262955
-1.5322692394256592
0.15503402054309845
-0.23642966151237488
-0.025317078456282616
0.22171969711780548
0.4754787087440491
-0.40345776081085205
0.975040853023529
-1.468190312385559
-2.114586353302002
1.5037695169448853
-0.21451535820960999
0.2950083315372467
0.024557849392294884
0.4825502038002014
-0.14552800357341766
0.07130701839923859
0.3155824840068817
-0.4586532413959503
-1.1913374662399292
-1.8232446908950806
-0.756942093372345
0.05454031378030777
0.07289836555719376
-0.1674921065568924
-0.8298943042755127
0.07155345380306244
0.41105809807777405
0.015727253630757332
-1.6504660844802856
-1.3653953075408936
0.34080684185028076
-0.06496445089578629
0.013755658641457558
-0.5659770965576172
-0.03647252544760704
-2.13728928565979
-0.3849913775920868
-0.0689779743552208
0.628129243850708
-0.14597955346107483
0.04982535541057587
-2.796351432800293
-0.2531679570674896
-0.1451636701822281
-0.5541167855262756
0.167345330119133
0.050084732472896576
-0.9487085938453674
0.6721285581588745
-0.16152749955654144
0.18878042697906494
-0.6826110482215881
0.4877128303050995
0.03644814342260361
0.5734800100326538
0.4168340563774109
-1.353922724723816
-1.0398610830307007
0.7362715005874634
-0.7820658683776855
-0.015294322744011879
0.5732317566871643
1.0519518852233887
0.9104959964752197
-0.22499698400497437
0.15013854205608368
0.46041426062583923
0.07445473223924637
-1.588101863861084
-0.46507829427719116
-0.27195581793785095
0.021954750642180443
0.38153451681137085
0.34056180715560913
-0.5178889036178589
0.17454512417316437
0.9084571003913879
-0.24955902993679047
0.1222311481833458
0.14873532950878143
0.9016193747520447
-0.3222370147705078
0.1022690162062645
0.5909867286682129
-0.9291257858276367
0.45173898339271545
0.2730867862701416
0.015176363289356232
0.39267951250076294
0.35304853320121765
0.6153659820556641
0.6084975600242615
-0.07281836867332458
-0.8561385273933411
-0.35196012258529663
0.3021754324436188
-0.04983878880739212
-0.40950915217399597
-0.21251019835472107
-0.0177173912525177
-0.2064514309167862
-0.09179087728261948
-0.1352740079164505
0.2141181379556656
-1.4163485765457153
1.284489393234253
1.0140552520751953
0.1336704045534134
-0.24190016090869904
0.6848465800285339
0.1566852480173111
-1.3971401453018188
-0.987802267074585
-1.003334403038025
0.252993643283844
-1.4041728973388672
-0.5348169207572937
0.8456676602363586
-0.3521000146865845
-0.3094995617866516
-0.2889169156551361
-1.6500368118286133
-0.8556849956512451
-0.5121637582778931
0.3517560362815857
-0.0582609623670578
0.018345123156905174
-0.17616532742977142
1.3822487592697144
-0.2198047786951065
-0.7340893745422363
0.11926206946372986
-0.5691577196121216
-0.7573463916778564
0.3899086117744446
0.8312771320343018
0.34331801533699036
-0.19321201741695404
-0.09361183643341064
-0.33115920424461365
-0.06803318858146667
-0.05179214850068092
-0.9216240644454956
0.004375047981739044
0.4912162721157074
-1.1527254581451416
-0.03960211202502251
-0.3253418505191803
0.20978589355945587
-1.0107635259628296
-0.2972535789012909
0.687117874622345
0.1915116310119629
0.1794416904449463
0.3853135406970978
-1.8901398181915283
-1.6042437553405762
-1.696395754814148
-0.04195744916796684
-1.6286662817001343
0.11470126360654831
0.5334603190422058
0.8761544823646545
0.2920870780944824
-0.9481667280197144
0.3893706202507019
0.06258583068847656
-0.6070572733879089
-1.8195970058441162
-0.35657039284706116
-0.0789862796664238
-0.017277171835303307
0.15240557491779327
0.20266009867191315
-2.236621618270874
-0.08935202658176422
0.7682165503501892
0.1293065845966339
-2.1652112007141113
0.23588985204696655
0.37531188130378723
0.14401252567768097
0.1174013614654541
0.6565687656402588
-1.64341402053833
-1.7499704360961914
-0.8238049745559692
-0.10473000258207321
-0.4256376326084137
0.13063712418079376
-0.0660582184791565
-0.12597207725048065
0.05712196230888367
-0.40580636262893677
-0.9502695202827454
0.30667275190353394
0.4141523241996765
0.04162875562906265
-0.031740956008434296
-0.023762302473187447
0.1150718480348587
-1.6732481718063354
0.004626892507076263
0.19608396291732788
-1.0715786218643188
-1.1713883876800537
-1.596869945526123
0.04076724126935005
-0.37700599431991577
-1.5150988101959229
0.24748612940311432
-0.15231667459011078
0.8513747453689575
-1.7272231578826904
0.028070969507098198
-0.5441421866416931
0.013433340936899185
0.16273227334022522
-0.3197019398212433
-0.666711151599884
-0.04796948283910751
-1.6378846168518066
-0.15354757010936737
0.23987756669521332
0.6510875225067139
0.45233795046806335
-1.056631326675415
-0.6907998323440552
-0.03202047199010849
0.5935371518135071
0.07389423251152039
0.16576537489891052
-0.24927359819412231
0.9524660706520081
0.15991058945655823
-1.3462656736373901
-0.9559661746025085
0.09012891352176666
-0.34697598218917847
-0.18030983209609985
-0.3476194739341736
-0.1511564701795578
-1.0310660600662231
-1.1298470497131348
0.6100066304206848
-0.35438835620880127
0.563235342502594
-0.029681595042347908
0.2113976925611496
-0.8232543468475342
-0.19918161630630493
0.37223297357559204
0.2575709819793701
0.26219630241394043
-1.318593978881836
-0.2903147041797638
1.251658320426941
-0.26974549889564514
-0.05222626402974129
1.5555670261383057
0.05285372585058212
0.46528419852256775
1.433648943901062
-0.8167926073074341
-0.46409326791763306
-0.20973613858222961
0.21536079049110413
-0.5503837466239929
0.007436965126544237
0.09095396101474762
-0.4523369073867798
-0.5901354551315308
-0.09372662007808685
0.31593483686447144
-0.13096700608730316
0.2260262817144394
-0.13602213561534882
-0.061859309673309326
-1.051577091217041
0.1098233312368393
0.6468992233276367
-0.06442911177873611
-0.1619352400302887
0.8871237635612488
0.03142346814274788
-1.4749795198440552
-0.6719514727592468
-0.11337101459503174
1.055985927581787
0.15632304549217224
-0.2551098167896271
-0.05773211643099785
-0.732836127281189
-0.05690109729766846
-0.13983559608459473
-0.2205769419670105
0.41370195150375366
-0.5670503973960876
0.810980498790741
-0.5395193099975586
-0.7404481172561646
-0.2535054385662079
0.5739856958389282
0.009243467822670937
-0.7714459300041199
1.189536452293396
0.912377655506134
0.20477557182312012
0.14095064997673035
1.5222456455230713
-0.9282296299934387
0.629950761795044
0.45894718170166016
-0.029401294887065887
0.02071930095553398
0.04346300661563873
0.7401934862136841
0.2842329442501068
-0.16932572424411774
-0.1322982907295227
-0.10639625042676926
0.015602926723659039
-0.09532249718904495
0.2827409505844116
0.42739763855934143
0.7400165796279907
0.8033774495124817
0.010659100487828255
0.4069391191005707
-0.1393689215183258
0.8214519023895264
-0.9052573442459106
0.04495992884039879
-0.30414068698883057
1.1311230659484863
0.4959618151187897
0.12372148782014847
-0.028419720008969307
0.9856922626495361
0.1435132771730423
0.02477067895233631
0.12476808577775955
-0.08395494520664215
-0.13200056552886963
0.5088366270065308
-0.2678377628326416
-0.18890933692455292
-0.18369543552398682
0.14148996770381927
0.019715290516614914
-0.2053779810667038
0.34580370783805847
-0.04200952127575874
0.1506764143705368
-0.8522912859916687
-1.0660507678985596
-1.283864974975586
-1.2352664470672607
0.012225731275975704
-1.5961370468139648
0.19171041250228882
0.9421436786651611
1.2726863622665405
0.014392459765076637
-0.42988041043281555
0.21872061491012573
0.4044748544692993
0.05231858417391777
-1.230523705482483
-0.3581087291240692
-0.1186184212565422
-0.0453493595123291
-0.15931105613708496
0.4518069922924042
-2.3296353816986084
-0.03584727644920349
1.10020112991333
0.07130610197782516
-1.2112544775009155
0.2447119653224945
1.2062994241714478
0.08663896471261978
0.03518800437450409
0.8224844336509705
-1.2134301662445068
-1.0149314403533936
-0.8459686636924744
-0.2965890169143677
-0.10867545008659363
0.2069409042596817
0.049622792750597
0.09216638654470444
0.020847689360380173
-0.8339693546295166
-0.41883909702301025
-0.22273766994476318
1.0216878652572632
-0.0746704563498497
0.3901495635509491
-0.026299677789211273
-0.4994952380657196
-1.2129803895950317
0.16889497637748718
-0.0071052978746593
-0.905598521232605
1.0132925510406494
-0.12286286056041718
0.36182886362075806
0.9229995012283325
0.3686350882053375
-0.027526581659913063
0.012095538899302483
0.6831930875778198
-0.27470317482948303
-0.04710479825735092
-0.7335310578346252
0.6065657138824463
0.15626057982444763
1.5302941799163818
0.5505741238594055
0.042823608964681625
-0.03356393426656723
0.0965702012181282
0.7141631841659546
-0.125760018825531
0.09118760377168655
-0.8627802729606628
-0.6851320862770081
0.03748659789562225
0.21905574202537537
0.44947388768196106
-0.21788960695266724
-0.21409542858600616
0.3529964089393616
-0.0011230850359424949
0.40065819025039673
0.9239046573638916
-0.03132640942931175
1.04720139503479
0.2187078297138214
0.02836466021835804
0.820726215839386
0.1330464631319046
0.43576082587242126
-0.3477376103401184
-0.2273889183998108
-0.014276398345828056
-0.1029750406742096
0.08333799988031387
0.028893934562802315
-0.6038753390312195
-0.04273782670497894
-0.0570344440639019
0.06763143837451935
0.6051754355430603
-0.001167082809843123
0.8533620834350586
0.3323774039745331
-1.9698848724365234
1.081304669380188
-1.6876860857009888
0.22475984692573547
-1.1299387216567993
0.6704580783843994
0.1136142686009407
0.03654182329773903
0.07206958532333374
-0.032049600034952164
-0.32509705424308777
-0.423855721950531
-0.16120053827762604
0.023930208757519722
-0.0817049965262413
-2.041728973388672
0.454418808221817
0.10122863203287125
0.5908425450325012
0.21567228436470032
-0.04024067148566246
-1.3125540018081665
0.1882311850786209
-0.6579146385192871
0.07811844348907471
-1.8591572046279907
0.8879542946815491
-0.2511735260486603
-0.29047802090644836
0.28482577204704285
0.498383104801178
0.12544266879558563
0.19053132832050323
-1.8444854021072388
-0.09336576610803604
0.27372273802757263
0.6877614259719849
0.19892281293869019
-1.183168649673462
-0.11393067985773087
-0.08577404171228409
-0.013219696469604969
0.538154661655426
0.14703017473220825
-0.009071662090718746
0.11342951655387878
-1.0176804065704346
0.4272102117538452
0.9010321497917175
-1.184816837310791
0.2822832465171814
0.9980728626251221
-0.028571676462888718
0.04509461671113968
0.14582917094230652
0.0726555734872818
-2.0429189205169678
0.325873464345932
-0.008580527268350124
-1.1614103317260742
-1.528259515762329
-0.6479021906852722
-0.04193201661109924
0.03053639456629753
-0.4665837287902832
-0.0695200264453888
-1.4515453577041626
-0.9807304739952087
0.3408986032009125
0.5105452537536621
-0.7460311055183411
0.2147057205438614
0.07414679229259491
-0.11570724099874496
0.20159946382045746
0.46932607889175415
0.28756898641586304
-0.19688403606414795
-1.7547749280929565
-2.2521145343780518
0.07740099728107452
0.5426420569419861
-0.04476585239171982
0.19936110079288483
0.2289959043264389
0.651824414730072
-1.9878100156784058
-1.181286096572876
-0.08147508651018143
0.19988106191158295
-0.1052381619811058
0.07794871926307678
-1.5582352876663208
-1.5914853811264038
-0.07502894848585129
-0.04554786533117294
-1.0451633930206299
-1.8206454515457153
-1.5873490571975708
0.8415819406509399
-0.9052344560623169
-0.702687680721283
-0.4736209511756897
0.6154199242591858
0.2284005731344223
-0.2564907371997833
0.05471881106495857
0.2454967349767685
0.46501031517982483
-0.14326225221157074
1.5804821252822876
0.058197785168886185
0.320520281791687
0.5856980085372925
0.07951066642999649
0.22802117466926575
0.5305259823799133
0.566310465335846
0.6212478876113892
-0.19334805011749268
-0.15726366639137268
-0.4818849265575409
0.29184484481811523
-0.3593516945838928
0.39592307806015015
-0.14578768610954285
0.21053488552570343
-1.777673602104187
-0.5456323623657227
0.3626957833766937
0.15547281503677368
0.05839853733778
-0.17946968972682953
-1.3795276880264282
0.6065593361854553
-0.22359584271907806
0.6952239871025085
-0.7855554819107056
0.0097520612180233
0.6034961342811584
0.054893214255571365
0.37507399916648865
-0.39397040009498596
0.20636403560638428
-0.0005308558465912938
0.1711283177137375
0.7866963744163513
0.5564934611320496
-1.9700855016708374
-0.6985495090484619
0.30124709010124207
-1.869045615196228
0.3664909899234772
-0.02002078667283058
-0.0027299823705106974
1.0118842124938965
-0.06739197671413422
0.2655794322490692
-0.08373197913169861
0.27218323945999146
-1.5892342329025269
-0.33818256855010986
-0.19243621826171875
0.019971761852502823
-0.09573850780725479
0.011419915594160557
-0.23910759389400482
-0.660969078540802
0.8419733643531799
0.03133344650268555
0.6579451560974121
0.44659900665283203
0.21860890090465546
-0.3157864511013031
0.04498353973031044
0.29571980237960815
-1.4910774230957031
0.7996149659156799
0.042489249259233475
-0.21288442611694336
-0.671934962272644
0.16779503226280212
0.5138877034187317
0.6961183547973633
-0.0024590068496763706
-0.4812730550765991
-0.3834030330181122
0.24147021770477295
-0.09716224670410156
-0.23990868031978607
-1.0948588848114014
-0.08165813982486725
0.2768687903881073
0.09836713969707489
-0.7792364954948425
0.6842842102050781
0.5445558428764343
-2.0385565757751465
-1.8854957818984985
-1.2908216714859009
-1.8754980564117432
-1.114441990852356
-2.1622250080108643
0.30508214235305786
-1.088688611984253
0.6583254933357239
0.5759534239768982
0.6031111478805542
0.36425453424453735
-1.4163562059402466
0.46077728271484375
-1.5348520278930664
-1.406201958656311
-2.7576634883880615
-1.5498868227005005
-1.893284797668457
0.7609013915061951
-3.118464946746826
-0.7141737937927246
0.48992007970809937
-0.5191007852554321
-2.6337687969207764
0.41474562883377075
1.070804238319397
-1.5361344814300537
-1.7917639017105103
0.7928143739700317
0.47969651222229004
-1.016748309135437
-1.8416563272476196
-2.25235915184021
0.5424089431762695
0.5319671630859375
-0.5884988307952881
0.5183923840522766
-1.5488731861114502
-0.9661961793899536
0.6378219127655029
0.4802253842353821
-0.30379536747932434
0.09132694453001022
0.6612147688865662
0.6365548372268677
-1.3019273281097412
-1.4948643445968628
-0.5789987444877625
0.3754802644252777
-0.8624106049537659
-1.3893769979476929
-0.5324347615242004
-1.0789306163787842
0.631611704826355
-1.4000030755996704
0.224773570895195
-0.6461364030838013
-1.010001540184021
-1.0917836427688599
0.5329079031944275
0.29022136330604553
-0.8936454653739929
0.5433129668235779
0.6118556261062622
0.5916920900344849
0.45955127477645874
0.5833515524864197
0.3145105242729187
-0.051907215267419815
-1.2849111557006836
0.4278126657009125
-0.6221039891242981
-1.0835403203964233
-0.9394789338111877
0.5142425894737244
-0.6724302768707275
0.4121220111846924
0.5652061104774475
0.5428808927536011
-0.6970734000205994
0.28126537799835205
-0.8036129474639893
-0.7444421052932739
0.3625370264053345
-0.4759122431278229
0.3388192653656006
-0.7800655961036682
0.6011750102043152
0.5525535345077515
0.48750975728034973
-0.18809443712234497
0.517084538936615
0.3018661439418793
-1.3910528421401978
0.33460327982902527
-0.47724851965904236
0.42193248867988586
1.1228206157684326
0.5095985531806946
-0.6471439003944397
-0.050431180745363235
0.5157937407493591
-0.15286873281002045
-2.4020369052886963
0.47325053811073303
0.2246837168931961
0.6779994964599609
-0.9036798477172852
-2.155311346054077
-2.0131404399871826
-1.5540080070495605
-1.0257025957107544
-1.2556862831115723
-1.0993322134017944
-1.3484972715377808
-0.4731074273586273
-1.8936033248901367
0.298489511013031
-0.18453720211982727
-0.680270791053772
0.5258995890617371
-1.7228223085403442
-0.3862517178058624
-0.4635142982006073
0.5109771490097046
-1.3485876321792603
-0.09953795373439789
0.6637808084487915
-1.0967694520950317
0.3210084140300751
0.29048168659210205
-0.4962714910507202
0.5802626013755798
0.40870022773742676
-1.0667775869369507
0.354949414730072
0.660024881362915
-0.908851146697998
-0.13744378089904785
-0.5517485737800598
0.2316981703042984
-0.21841371059417725
0.35376015305519104
-0.6246065497398376
-0.6005827784538269
-0.48198366165161133
0.5130419135093689
0.7098495364189148
0.6138502359390259
0.5656090378761292
-1.487775206565857
-1.7327070236206055
-0.3509957790374756
-1.3617023229599
-1.196380853652954
-1.0694026947021484
-1.179668664932251
0.6356309652328491
-0.7507845163345337
-1.1243613958358765
-1.2594667673110962
0.5936922430992126
-2.651543140411377
0.5828301310539246
-0.6613626480102539
0.4938574731349945
-2.38081955909729
-0.9610099196434021
0.8586506843566895
-2.0200142860412598
0.5036135315895081
-0.4304425120353699
-0.8780782222747803
-1.3011192083358765
-1.2580939531326294
-0.13988438248634338
0.5419483780860901
-1.5387444496154785
-0.8420310020446777
0.46445295214653015
-1.015854001045227
0.6745245456695557
-1.7435578107833862
-1.833278775215149
0.3986540734767914
0.36535772681236267
-1.9146815538406372
0.7300226092338562
-0.9052079916000366
0.1161457747220993
0.42650920152664185
0.5773555040359497
-0.5180354118347168
0.6609660387039185
0.5713418126106262
0.44657444953918457
0.4546113610267639
0.17621657252311707
0.1844269186258316
-0.4608016908168793
0.6148039698600769
0.18059906363487244
0.554641604423523
0.5327360033988953
0.1122175082564354
-0.9730130434036255
-0.5826683640480042
0.48133426904678345
0.23582781851291656
0.39731329679489136
-1.0272055864334106
0.5050538778305054
0.19111047685146332
0.4877309501171112
0.44596782326698303
-0.7892548441886902
0.40005531907081604
-1.0216623544692993
-1.3439583778381348
-0.9088008999824524
-0.9396975040435791
-0.5513641238212585
0.5768861174583435
-0.8834139108657837
0.42813199758529663
0.8986601233482361
0.5453136563301086
0.4985745847225189
-1.501089096069336
0.4679926335811615
-1.0109087228775024
0.6604799628257751
-0.9988685250282288
-0.9744117856025696
-1.471092939376831
-0.5088596343994141
-1.8320566415786743
0.3986612856388092
-1.4219551086425781
-1.250392198562622
-1.2602691650390625
0.021419528871774673
-0.8748593926429749
-0.9006218910217285
0.4802797734737396
0.42197877168655396
-0.315475195646286
