#include <fix16.h>

#include "weights.h"

// THIS FILE HAS BEEN GENERATED BY THE TRAINING.PY SCRIPT, DON'T MODIFY IT!
const fix16_t WEIGHTS[] = {
    F16(-0.12657789885997772),
    F16(0.17725764214992523),
    F16(0.5051231384277344),
    F16(-0.7137870788574219),
    F16(-0.7560209035873413),
    F16(-1.4179221391677856),
    F16(-0.238327294588089),
    F16(0.03431890159845352),
    F16(-0.550186038017273),
    F16(-0.18850421905517578),
    F16(-0.11147457361221313),
    F16(0.16941700875759125),
    F16(0.16605691611766815),
    F16(0.034648481756448746),
    F16(-1.7944278717041016),
    F16(0.5484793186187744),
    F16(-0.2627638280391693),
    F16(0.03103845939040184),
    F16(-0.2696132957935333),
    F16(0.18392376601696014),
    F16(0.14105813205242157),
    F16(-1.0502592325210571),
    F16(0.5651111602783203),
    F16(0.40952104330062866),
    F16(0.23264189064502716),
    F16(-3.1309566497802734),
    F16(-0.3476700782775879),
    F16(0.028157522901892662),
    F16(0.5129363536834717),
    F16(-1.1666538715362549),
    F16(0.12608103454113007),
    F16(0.2877444624900818),
    F16(-1.5387297868728638),
    F16(-0.1252078264951706),
    F16(-0.09177748113870621),
    F16(0.05240043252706528),
    F16(-0.6963508129119873),
    F16(-0.02632386051118374),
    F16(0.13646312057971954),
    F16(0.12505722045898438),
    F16(-0.16344834864139557),
    F16(-0.04236462712287903),
    F16(0.12869390845298767),
    F16(0.21581418812274933),
    F16(-0.6440572738647461),
    F16(-0.5579747557640076),
    F16(-1.4796857833862305),
    F16(-1.4950876235961914),
    F16(-1.6125012636184692),
    F16(-0.19734549522399902),
    F16(0.14841622114181519),
    F16(0.09412728250026703),
    F16(0.10466533899307251),
    F16(-0.8278871774673462),
    F16(-0.2774328589439392),
    F16(-0.372909814119339),
    F16(-0.5065715909004211),
    F16(-0.06946441531181335),
    F16(-0.016331668943166733),
    F16(-0.5156657099723816),
    F16(-0.1831217110157013),
    F16(-0.07924656569957733),
    F16(-0.08002583682537079),
    F16(0.0507780946791172),
    F16(0.2224118411540985),
    F16(-0.4115711450576782),
    F16(-0.22783122956752777),
    F16(0.042010825127363205),
    F16(0.10128528624773026),
    F16(-0.12468001991510391),
    F16(0.28180885314941406),
    F16(1.148727297782898),
    F16(-0.16700968146324158),
    F16(0.2347458451986313),
    F16(0.11661507189273834),
    F16(-0.07273650169372559),
    F16(-3.2617664337158203),
    F16(-3.592402935028076),
    F16(-0.9429112076759338),
    F16(0.25706321001052856),
    F16(0.4094623327255249),
    F16(-0.23814934492111206),
    F16(0.10412711650133133),
    F16(-0.07537931948900223),
    F16(-2.1923835277557373),
    F16(-0.18866325914859772),
    F16(0.37391820549964905),
    F16(0.0375906378030777),
    F16(0.1052478477358818),
    F16(-0.08821072429418564),
    F16(0.033772796392440796),
    F16(-1.316401720046997),
    F16(-0.2275766283273697),
    F16(0.10854215919971466),
    F16(-0.1603643149137497),
    F16(0.23232506215572357),
    F16(-0.14873266220092773),
    F16(0.13171155750751495),
    F16(-0.47545745968818665),
    F16(0.14248864352703094),
    F16(0.06319626420736313),
    F16(-0.06992003321647644),
    F16(0.007596645969897509),
    F16(0.24991175532341003),
    F16(-0.9702306985855103),
    F16(-0.5240415930747986),
    F16(0.14210593700408936),
    F16(0.20642031729221344),
    F16(0.6351895928382874),
    F16(-0.26611337065696716),
    F16(-1.9015346765518188),
    F16(-0.15215745568275452),
    F16(-0.1837853491306305),
    F16(-0.06360474973917007),
    F16(-1.7013944387435913),
    F16(0.5455878376960754),
    F16(-0.5376210808753967),
    F16(-3.514436960220337),
    F16(-0.10278031975030899),
    F16(-0.01059785671532154),
    F16(-1.15802001953125),
    F16(0.17572182416915894),
    F16(0.838836133480072),
    F16(0.6581207513809204),
    F16(-1.907884120941162),
    F16(0.26374945044517517),
    F16(-0.2631487548351288),
    F16(-0.8408016562461853),
    F16(0.20148760080337524),
    F16(0.07903622090816498),
    F16(-1.0410709381103516),
    F16(-0.021643774583935738),
    F16(0.29677537083625793),
    F16(-1.9958606958389282),
    F16(-0.352794349193573),
    F16(0.6923799514770508),
    F16(0.4553462862968445),
    F16(-0.013657852075994015),
    F16(-0.09018300473690033),
    F16(-0.20938515663146973),
    F16(-0.19570091366767883),
    F16(-0.8388066291809082),
    F16(0.43042367696762085),
    F16(0.11526380479335785),
    F16(-1.0310600996017456),
    F16(-2.2782700061798096),
    F16(-1.3038692474365234),
    F16(-0.5326588153839111),
    F16(0.2533082664012909),
    F16(-0.1352357566356659),
    F16(-0.16739465296268463),
    F16(0.20523767173290253),
    F16(-1.2658867835998535),
    F16(-0.13701491057872772),
    F16(-0.6119639277458191),
    F16(-1.4663068056106567),
    F16(-0.008885644376277924),
    F16(-0.08025317639112473),
    F16(-0.10277435183525085),
    F16(0.3524962067604065),
    F16(0.38198816776275635),
    F16(-2.161012649536133),
    F16(0.025780681520700455),
    F16(0.28609272837638855),
    F16(0.9520093202590942),
    F16(-0.4585295617580414),
    F16(-0.07845807075500488),
    F16(-0.0072056264616549015),
    F16(-1.1884560585021973),
    F16(0.12250740081071854),
    F16(-0.16043025255203247),
    F16(-0.21156056225299835),
    F16(-1.2109326124191284),
    F16(0.2397012859582901),
    F16(0.39374858140945435),
    F16(0.03207189962267876),
    F16(0.22819805145263672),
    F16(0.38132667541503906),
    F16(0.5121995210647583),
    F16(-0.7562581300735474),
    F16(-0.09454347938299179),
    F16(0.02071634866297245),
    F16(0.16428712010383606),
    F16(0.03336701914668083),
    F16(-0.23486527800559998),
    F16(0.15257985889911652),
    F16(-0.08215811103582382),
    F16(-1.0175727605819702),
    F16(-0.36492088437080383),
    F16(-0.08226468414068222),
    F16(-0.027086103335022926),
    F16(0.03056209534406662),
    F16(-0.36196649074554443),
    F16(0.028475716710090637),
    F16(-1.6582990884780884),
    F16(-0.8183813691139221),
    F16(-0.5113312602043152),
    F16(-0.5191403031349182),
    F16(-1.4158093929290771),
    F16(0.014707022346556187),
    F16(-0.0849999487400055),
    F16(-0.19377180933952332),
    F16(-0.1326577514410019),
    F16(0.14833012223243713),
    F16(0.23136481642723083),
    F16(0.5605682134628296),
    F16(0.1067451536655426),
    F16(-0.22246579825878143),
    F16(0.5880038738250732),
    F16(0.09195741266012192),
    F16(0.07096405327320099),
    F16(0.07495780289173126),
    F16(0.0604577399790287),
    F16(0.22692762315273285),
    F16(1.080486536026001),
    F16(-0.45104601979255676),
    F16(0.02632170543074608),
    F16(0.014352650381624699),
    F16(0.07924498617649078),
    F16(-0.09307341277599335),
    F16(-0.11689536273479462),
    F16(0.8806229829788208),
    F16(-0.27154088020324707),
    F16(0.07001090794801712),
    F16(0.10969693958759308),
    F16(0.13127489387989044),
    F16(-0.07664400339126587),
    F16(-0.34029802680015564),
    F16(-1.1261094808578491),
    F16(0.3390820324420929),
    F16(-1.692387580871582),
    F16(-2.4260663986206055),
    F16(-0.45412737131118774),
    F16(0.02848600223660469),
    F16(0.27939799427986145),
    F16(-1.4731841087341309),
    F16(0.6167340278625488),
    F16(0.7186610698699951),
    F16(0.2962065041065216),
    F16(0.07065408676862717),
    F16(-0.029812533408403397),
    F16(-0.10725920647382736),
    F16(-0.8545796275138855),
    F16(0.7610999345779419),
    F16(0.5785424709320068),
    F16(0.27016812562942505),
    F16(0.13115544617176056),
    F16(0.13200166821479797),
    F16(-0.44350847601890564),
    F16(0.24259167909622192),
    F16(0.0015542481560260057),
    F16(0.07538492977619171),
    F16(0.1345883309841156),
    F16(-0.9107087850570679),
    F16(-0.7514986395835876),
    F16(-0.41657376289367676),
    F16(-0.09656363725662231),
    F16(0.12886542081832886),
    F16(0.315786749124527),
    F16(-0.47460028529167175),
    F16(-0.3614230751991272),
    F16(-0.1725078523159027),
    F16(-0.19277141988277435),
    F16(-0.014489168301224709),
    F16(-2.036907434463501),
    F16(0.39270490407943726),
    F16(-0.36670824885368347),
    F16(-1.6680729389190674),
    F16(-0.013764315284788609),
    F16(-0.03289661183953285),
    F16(-0.9893487691879272),
    F16(-0.2489698976278305),
    F16(0.8463828563690186),
    F16(0.26106563210487366),
    F16(-3.0638108253479004),
    F16(0.32713639736175537),
    F16(-0.5914769768714905),
    F16(0.6454519629478455),
    F16(-0.23690053820610046),
    F16(0.5184729099273682),
    F16(-1.5015007257461548),
    F16(-0.13910216093063354),
    F16(0.2929604649543762),
    F16(-0.2518112063407898),
    F16(-0.2907860577106476),
    F16(-0.5610108971595764),
    F16(0.33531078696250916),
    F16(-0.42456215620040894),
    F16(-0.002052152529358864),
    F16(-0.2551666498184204),
    F16(-0.008221480064094067),
    F16(-1.9463545083999634),
    F16(0.18370331823825836),
    F16(0.10437873750925064),
    F16(-1.0224051475524902),
    F16(-2.1929266452789307),
    F16(-0.8687819838523865),
    F16(-0.9975454807281494),
    F16(-0.29499122500419617),
    F16(0.16881726682186127),
    F16(-0.2574012875556946),
    F16(0.15599144995212555),
    F16(0.19176432490348816),
    F16(-0.7826374173164368),
    F16(-1.7317341566085815),
    F16(-0.6717795133590698),
    F16(-0.5301638245582581),
    F16(-0.026711346581578255),
    F16(0.19012494385242462),
    F16(0.03515201434493065),
    F16(0.020526094362139702),
    F16(0.21212945878505707),
    F16(0.11130708456039429),
    F16(0.02067020907998085),
    F16(0.0958835631608963),
    F16(-0.15291225910186768),
    F16(-0.05634865164756775),
    F16(0.14017657935619354),
    F16(-0.10032061487436295),
    F16(0.23016153275966644),
    F16(0.45643019676208496),
    F16(1.377496600151062),
    F16(0.06391981989145279),
    F16(-0.9047083854675293),
    F16(0.0752638503909111),
    F16(0.27546194195747375),
    F16(-0.21631063520908356),
    F16(-3.7922091484069824),
    F16(-0.9484879970550537),
    F16(1.023082971572876),
    F16(0.20853742957115173),
    F16(-0.3093727231025696),
    F16(-0.22606106102466583),
    F16(0.25215381383895874),
    F16(-1.1698371171951294),
    F16(-1.117038369178772),
    F16(0.9445443153381348),
    F16(0.046873532235622406),
    F16(-0.08818083256483078),
    F16(0.04975730925798416),
    F16(-0.08038531988859177),
    F16(-2.0640857219696045),
    F16(-1.4331262111663818),
    F16(-0.01744011975824833),
    F16(0.04894115403294563),
    F16(0.2579903304576874),
    F16(0.15390031039714813),
    F16(0.11660224944353104),
    F16(0.9281606078147888),
    F16(0.1620810627937317),
    F16(-0.07570905983448029),
    F16(-0.16434088349342346),
    F16(0.25975319743156433),
    F16(-0.7032362222671509),
    F16(-0.5539669990539551),
    F16(-0.42674490809440613),
    F16(-0.39208850264549255),
    F16(0.003318064147606492),
    F16(0.9727007746696472),
    F16(0.20138493180274963),
    F16(0.25029096007347107),
    F16(-0.0841587483882904),
    F16(-0.12867990136146545),
    F16(-0.0295089241117239),
    F16(-1.5250582695007324),
    F16(0.633235514163971),
    F16(0.5206762552261353),
    F16(0.061538245528936386),
    F16(-0.0375843308866024),
    F16(0.19319817423820496),
    F16(0.08730696886777878),
    F16(-0.7739183902740479),
    F16(1.3704839944839478),
    F16(-1.335900902748108),
    F16(-1.8284450769424438),
    F16(-0.6424511671066284),
    F16(0.01400559302419424),
    F16(0.08855462819337845),
    F16(0.38270729780197144),
    F16(-0.24105817079544067),
    F16(0.029726644977927208),
    F16(-0.047779329121112823),
    F16(0.3363790810108185),
    F16(0.10420584678649902),
    F16(-0.137645423412323),
    F16(0.41519173979759216),
    F16(0.31042101979255676),
    F16(0.1826879382133484),
    F16(0.05492270365357399),
    F16(-0.04877378046512604),
    F16(-0.2134571075439453),
    F16(-0.11255825310945511),
    F16(1.2828859090805054),
    F16(-0.7646039724349976),
    F16(0.3864573538303375),
    F16(0.17750979959964752),
    F16(0.40761271119117737),
    F16(0.12944500148296356),
    F16(-1.3196507692337036),
    F16(0.25249817967414856),
    F16(-0.21950028836727142),
    F16(-0.013955752365291119),
    F16(0.6901971697807312),
    F16(0.4437459111213684),
    F16(0.6778757572174072),
    F16(0.814774751663208),
    F16(-0.22133558988571167),
    F16(0.024065295234322548),
    F16(-0.08435636013746262),
    F16(0.1774750053882599),
    F16(0.18372425436973572),
    F16(0.15016642212867737),
    F16(0.14340278506278992),
    F16(-0.07700574398040771),
    F16(-0.6212673187255859),
    F16(-0.5385360717773438),
    F16(-2.6265342235565186),
    F16(-3.043943166732788),
    F16(-0.8829697370529175),
    F16(-0.035984110087156296),
    F16(0.01828157715499401),
    F16(-0.008267007768154144),
    F16(-0.20984575152397156),
    F16(0.22939011454582214),
    F16(0.18613538146018982),
    F16(0.10214501619338989),
    F16(0.04156884923577309),
    F16(-0.042000912129879),
    F16(0.35248473286628723),
    F16(0.8378780484199524),
    F16(0.28344157338142395),
    F16(0.05186668783426285),
    F16(0.06201349198818207),
    F16(0.19817544519901276),
    F16(0.028547605499625206),
    F16(1.0018821954727173),
    F16(1.3827192783355713),
    F16(0.13886390626430511),
    F16(0.027410143986344337),
    F16(0.0647302195429802),
    F16(0.10825216770172119),
    F16(0.16248774528503418),
    F16(1.0732961893081665),
    F16(-0.09600198268890381),
    F16(-0.04782522842288017),
    F16(-1.3480534553527832),
    F16(-1.5258464813232422),
    F16(-1.1306675672531128),
    F16(0.5689257383346558),
    F16(-0.5991384983062744),
    F16(-0.18385715782642365),
    F16(0.06470923125743866),
    F16(-0.41161179542541504),
    F16(-1.4543601274490356),
    F16(-0.7226413488388062),
    F16(-1.8642959594726562),
    F16(-0.6609913110733032),
    F16(-0.21935081481933594),
    F16(0.28344687819480896),
    F16(-0.08635026216506958),
    F16(-0.1444348841905594),
    F16(0.06386473774909973),
    F16(-0.025705477222800255),
    F16(-0.09741953760385513),
    F16(-2.616497039794922),
    F16(1.5066059827804565),
    F16(0.2154824435710907),
    F16(0.16881555318832397),
    F16(0.16136473417282104),
    F16(0.22268493473529816),
    F16(0.21643030643463135),
    F16(-2.441214084625244),
    F16(0.9562498331069946),
    F16(0.10899131000041962),
    F16(0.20733742415905),
    F16(-3.068854331970215),
    F16(-0.0841340571641922),
    F16(-0.03144044056534767),
    F16(0.6104159951210022),
    F16(-0.43838271498680115),
    F16(0.0424681194126606),
    F16(-0.06844142079353333),
    F16(-0.6902416944503784),
    F16(0.013404455967247486),
    F16(0.16042165458202362),
    F16(-0.5509554147720337),
    F16(-1.347334623336792),
    F16(0.03873482346534729),
    F16(0.09456527978181839),
    F16(0.1467123031616211),
    F16(-0.07175863534212112),
    F16(-0.27340754866600037),
    F16(-0.03973030298948288),
    F16(-0.02675153687596321),
    F16(-0.03833131864666939),
    F16(0.5040983557701111),
    F16(0.13394778966903687),
    F16(0.17358537018299103),
    F16(-0.3501141667366028),
    F16(0.004993903916329145),
    F16(-0.04793647676706314),
    F16(-0.1421847939491272),
    F16(0.9168363809585571),
    F16(1.6075172424316406),
    F16(1.256099820137024),
    F16(0.4973313808441162),
    F16(-0.2300950437784195),
    F16(-0.19477692246437073),
    F16(-0.05613430589437485),
    F16(-0.13186641037464142),
    F16(0.47828182578086853),
    F16(-0.3460322916507721),
    F16(-0.23712636530399323),
    F16(0.34425872564315796),
    F16(0.306262731552124),
    F16(-0.43008193373680115),
    F16(-0.12730450928211212),
    F16(0.3899359107017517),
    F16(-0.9384005665779114),
    F16(-0.1563469022512436),
    F16(0.007046592887490988),
    F16(-0.2247200459241867),
    F16(0.2828271687030792),
    F16(0.05516720190644264),
    F16(0.19508907198905945),
    F16(-0.12470144033432007),
    F16(-0.022005226463079453),
    F16(0.23588377237319946),
    F16(0.36034825444221497),
    F16(-0.6900501251220703),
    F16(-0.19463802874088287),
    F16(0.04358474537730217),
    F16(0.03291616961359978),
    F16(-0.1407790184020996),
    F16(0.2405698299407959),
    F16(0.7341291308403015),
    F16(-0.18494662642478943),
    F16(-0.402115136384964),
    F16(-0.0244071576744318),
    F16(0.13990403711795807),
    F16(0.0901673212647438),
    F16(0.08844105154275894),
    F16(-1.0506638288497925),
    F16(0.22733329236507416),
    F16(-1.0166794061660767),
    F16(-0.5351525545120239),
    F16(-0.38812005519866943),
    F16(-0.4914683699607849),
    F16(-1.3822300434112549),
    F16(-0.1605994701385498),
    F16(0.08958106487989426),
    F16(-0.012236887589097023),
    F16(-0.5072342157363892),
    F16(-1.7012192010879517),
    F16(-2.3887972831726074),
    F16(-1.6653709411621094),
    F16(-0.481313556432724),
    F16(-0.1998266577720642),
    F16(0.08847881853580475),
    F16(-0.04185190051794052),
    F16(-0.1564188003540039),
    F16(-0.20170144736766815),
    F16(-0.24241353571414948),
    F16(-2.0370872020721436),
    F16(-2.41084885597229),
    F16(0.5887781977653503),
    F16(0.06594480574131012),
    F16(0.26350638270378113),
    F16(0.09075818210840225),
    F16(0.14921258389949799),
    F16(-0.08258188515901566),
    F16(-2.7520742416381836),
    F16(0.9326607584953308),
    F16(0.1087796539068222),
    F16(-0.34254536032676697),
    F16(-0.36035406589508057),
    F16(0.2424885630607605),
    F16(-0.014552325941622257),
    F16(-0.05356653034687042),
    F16(0.2571161985397339),
    F16(-0.29753419756889343),
    F16(-0.009315305389463902),
    F16(0.11800651997327805),
    F16(0.06745728850364685),
    F16(-0.293609619140625),
    F16(-1.4170997142791748),
    F16(-0.6915777325630188),
    F16(-0.5653064846992493),
    F16(-0.36610254645347595),
    F16(0.014811253175139427),
    F16(-0.2780090570449829),
    F16(-0.28311023116111755),
    F16(-0.25525379180908203),
    F16(-0.2998700737953186),
    F16(0.9104734063148499),
    F16(0.7296044826507568),
    F16(0.2838956117630005),
    F16(0.573756754398346),
    F16(0.7268767952919006),
    F16(-0.17767666280269623),
    F16(-0.03340256214141846),
    F16(0.2547934353351593),
    F16(0.8347026705741882),
    F16(0.41288256645202637),
    F16(0.33150815963745117),
    F16(0.25599658489227295),
    F16(-1.1864738464355469),
    F16(0.8167680501937866),
    F16(-0.18223027884960175),
    F16(-0.11477811634540558),
    F16(0.022535141557455063),
    F16(0.02981177158653736),
    F16(-0.0004671106580644846),
    F16(-0.06843214482069016),
    F16(-1.7889072895050049),
    F16(-0.04371177405118942),
    F16(0.1497637927532196),
    F16(-0.011887547560036182),
    F16(-0.21282491087913513),
    F16(0.1200803741812706),
    F16(-0.0662592276930809),
    F16(-1.7217391729354858),
    F16(0.48874807357788086),
    F16(-3.348597526550293),
    F16(-0.5728162527084351),
    F16(-0.44267749786376953),
    F16(-0.14840587973594666),
    F16(-0.3295857608318329),
    F16(0.9410718083381653),
    F16(-0.4830162823200226),
    F16(0.36055123805999756),
    F16(0.2184431403875351),
    F16(0.24759668111801147),
    F16(0.11980848759412766),
    F16(0.22180289030075073),
    F16(1.9937849044799805),
    F16(0.017230132594704628),
    F16(0.23518504202365875),
    F16(0.1326582431793213),
    F16(-0.0618584081530571),
    F16(0.05779067054390907),
    F16(0.4017030596733093),
    F16(0.959438681602478),
    F16(-0.8423712849617004),
    F16(0.4393933415412903),
    F16(0.3400347828865051),
    F16(0.2736338675022125),
    F16(-2.03389835357666),
    F16(-0.49175378680229187),
    F16(0.09119872748851776),
    F16(-0.041181810200214386),
    F16(0.11765754222869873),
    F16(0.22778378427028656),
    F16(-0.034460537135601044),
    F16(-0.3675311505794525),
    F16(1.7597233057022095),
    F16(2.058262825012207),
    F16(0.6150661706924438),
    F16(0.5129451751708984),
    F16(-0.3936907947063446),
    F16(-0.6384360790252686),
    F16(-0.3780555725097656),
    F16(-0.18413658440113068),
    F16(0.0317770391702652),
    F16(0.5182018876075745),
    F16(0.2335408478975296),
    F16(-0.6082192063331604),
    F16(0.021698467433452606),
    F16(0.25779032707214355),
    F16(-0.059544261544942856),
    F16(0.03847602382302284),
    F16(1.3022475242614746),
    F16(0.2771117091178894),
    F16(-0.3642674386501312),
    F16(0.15725338459014893),
    F16(-0.00013496470637619495),
    F16(-0.6481977701187134),
    F16(-2.0288426876068115),
    F16(-1.2233394384384155),
    F16(-1.0405778884887695),
    F16(0.3996737599372864),
    F16(0.005330099258571863),
    F16(-0.09494046866893768),
    F16(0.22215603291988373),
    F16(-1.1411586999893188),
    F16(-1.7474151849746704),
    F16(-0.8279945254325867),
    F16(0.005323957651853561),
    F16(0.1530008167028427),
    F16(0.06950008124113083),
    F16(-0.004567938391119242),
    F16(-1.9459173679351807),
    F16(-0.4454028606414795),
    F16(-0.2496383637189865),
    F16(-0.7660477161407471),
    F16(0.1467820554971695),
    F16(-0.1100127175450325),
    F16(-0.857049822807312),
    F16(-1.0821326971054077),
    F16(0.015200605615973473),
    F16(-0.13977202773094177),
    F16(0.0014580786228179932),
    F16(-1.2461614608764648),
    F16(-2.9961159229278564),
    F16(-3.395966053009033),
    F16(-1.1341001987457275),
    F16(-0.2218213677406311),
    F16(0.04053009673953056),
    F16(-0.020401766523718834),
    F16(0.40091821551322937),
    F16(0.006626063026487827),
    F16(-2.8275327682495117),
    F16(0.2748894989490509),
    F16(0.3890223801136017),
    F16(0.4795907437801361),
    F16(-0.7724889516830444),
    F16(-0.09559237957000732),
    F16(0.17442722618579865),
    F16(-3.2556748390197754),
    F16(0.12919466197490692),
    F16(0.04483375698328018),
    F16(-0.9796912670135498),
    F16(-0.054493099451065063),
    F16(0.12954473495483398),
    F16(0.24263764917850494),
    F16(-0.08508474379777908),
    F16(0.26278093457221985),
    F16(-0.08075182139873505),
    F16(0.24323663115501404),
    F16(-0.4135075509548187),
    F16(0.12153832614421844),
    F16(-0.05509110912680626),
    F16(0.04391803592443466),
    F16(0.05163928493857384),
    F16(-0.3015681803226471),
    F16(-0.17084498703479767),
    F16(-0.24343857169151306),
    F16(-0.7210944890975952),
    F16(-0.3980485796928406),
    F16(-0.12854395806789398),
    F16(-0.021024612709879875),
    F16(0.4544326066970825),
    F16(0.3609779477119446),
    F16(-0.14052404463291168),
    F16(-0.9911686778068542),
    F16(-0.5537200570106506),
    F16(-0.2971954047679901),
    F16(-0.40059229731559753),
    F16(-0.4441899359226227),
    F16(-0.09729213267564774),
    F16(0.06466445326805115),
    F16(-0.1876159906387329),
    F16(-1.6596505641937256),
    F16(-3.5505905151367188),
    F16(-5.3327765464782715),
    F16(-2.620420217514038),
    F16(-2.051569938659668),
    F16(-0.8005168437957764),
    F16(-1.0187666416168213),
    F16(0.12181799113750458),
    F16(-0.20657028257846832),
    F16(-0.30214327573776245),
    F16(-0.14570452272891998),
    F16(0.42612984776496887),
    F16(0.5274576544761658),
    F16(-1.2344040870666504),
    F16(-0.3822743594646454),
    F16(-0.25623205304145813),
    F16(-0.25290223956108093),
    F16(-0.02236287295818329),
    F16(-0.002914294833317399),
    F16(-0.631620466709137),
    F16(-1.3593546152114868),
    F16(0.31752678751945496),
    F16(0.40354129672050476),
    F16(-0.07232236862182617),
    F16(0.1837892234325409),
    F16(0.07036583870649338),
    F16(-0.0011366689577698708),
    F16(-0.35922184586524963),
    F16(0.011075015179812908),
    F16(-0.010863540694117546),
    F16(0.16143062710762024),
    F16(0.06884979456663132),
    F16(-0.02983694151043892),
    F16(-0.3900538682937622),
    F16(-0.5017821192741394),
    F16(-3.626657009124756),
    F16(-0.45763492584228516),
    F16(-0.16982199251651764),
    F16(-0.012812365777790546),
    F16(-0.011712206527590752),
    F16(-0.5211869478225708),
    F16(-0.12268036603927612),
    F16(-0.41431722044944763),
    F16(-0.9088128805160522),
    F16(-0.5973258018493652),
    F16(-0.9218595027923584),
    F16(-1.1753653287887573),
    F16(-0.3349057137966156),
    F16(0.012371343560516834),
    F16(-0.31102102994918823),
    F16(-0.33343029022216797),
    F16(-0.5998299717903137),
    F16(-0.5634191632270813),
    F16(-0.11630533635616302),
    F16(0.5109683871269226),
    F16(-0.07574187964200974),
    F16(-0.44187018275260925),
    F16(-0.10853062570095062),
    F16(-0.666619062423706),
    F16(-0.1477564424276352),
    F16(-0.18517886102199554),
    F16(0.07993859052658081),
    F16(0.27111905813217163),
    F16(-1.4388446807861328),
    F16(-0.3589160144329071),
    F16(-0.1200154572725296),
    F16(-0.14329661428928375),
    F16(-0.1226523146033287),
    F16(-0.24347397685050964),
    F16(-0.3195951282978058),
    F16(-1.6649724245071411),
    F16(0.5397312045097351),
    F16(0.4095272719860077),
    F16(0.15560990571975708),
    F16(0.39269325137138367),
    F16(0.10315770655870438),
    F16(-1.0248152017593384),
    F16(-1.5013495683670044),
    F16(-0.24209843575954437),
    F16(0.16172251105308533),
    F16(0.16698922216892242),
    F16(0.060301586985588074),
    F16(-0.3968419134616852),
    F16(-1.5112199783325195),
    F16(-0.5781283974647522),
    F16(-1.4838900566101074),
    F16(-0.4284217655658722),
    F16(-0.2992193102836609),
    F16(-0.1653226763010025),
    F16(0.027367742732167244),
    F16(-0.39597609639167786),
    F16(0.5875818729400635),
    F16(0.18971094489097595),
    F16(-0.00741742504760623),
    F16(-0.19667120277881622),
    F16(0.12165690213441849),
    F16(0.7570779323577881),
    F16(-0.4581483006477356),
    F16(0.1253979504108429),
    F16(-0.15223196148872375),
    F16(-0.6870052814483643),
    F16(-1.833079218864441),
    F16(-2.607436180114746),
    F16(-2.0572469234466553),
    F16(-0.8172309398651123),
    F16(0.21184870600700378),
    F16(-0.3296079635620117),
    F16(0.22274921834468842),
    F16(-0.022934217005968094),
    F16(-0.11162061244249344),
    F16(-0.28293201327323914),
    F16(-0.036023207008838654),
    F16(-0.45632386207580566),
    F16(1.2214455604553223),
    F16(0.038614679127931595),
    F16(0.019966937601566315),
    F16(-0.061733800917863846),
    F16(0.10019327700138092),
    F16(0.030831973999738693),
    F16(-1.017334222793579),
    F16(1.4021351337432861),
    F16(0.4730857014656067),
    F16(0.2001809924840927),
    F16(0.002954937983304262),
    F16(0.4704027473926544),
    F16(0.29643628001213074),
    F16(0.04725255072116852),
    F16(-0.23533542454242706),
    F16(-1.5374919176101685),
    F16(-0.7052583694458008),
    F16(-0.028883494436740875),
    F16(-0.18012595176696777),
    F16(-0.5977588295936584),
    F16(-0.13510343432426453),
    F16(-0.9249987602233887),
    F16(-1.198607087135315),
    F16(-0.2014828771352768),
    F16(-0.07177706807851791),
    F16(-1.4501004219055176),
    F16(-0.6642561554908752),
    F16(0.2673031985759735),
    F16(-0.17627017199993134),
    F16(0.5889579653739929),
    F16(0.009619227610528469),
    F16(0.2323458194732666),
    F16(-0.7014880776405334),
    F16(0.016011051833629608),
    F16(0.1875356286764145),
    F16(-0.05001882463693619),
    F16(0.06792958080768585),
    F16(0.030825987458229065),
    F16(-0.09075538069009781),
    F16(0.18460685014724731),
    F16(-0.09722274541854858),
    F16(-0.36551642417907715),
    F16(0.13610900938510895),
    F16(0.23346203565597534),
    F16(0.05442892760038376),
    F16(0.0027728425338864326),
    F16(0.09761911630630493),
    F16(0.21060751378536224),
    F16(-0.11581695079803467),
    F16(-1.3943753242492676),
    F16(0.4437960088253021),
    F16(-0.06497161835432053),
    F16(-0.07811568677425385),
    F16(-0.17139118909835815),
    F16(0.3043532073497772),
    F16(0.0692557618021965),
    F16(-0.7970975637435913),
    F16(0.2164529263973236),
    F16(-0.36609041690826416),
    F16(-0.2146720439195633),
    F16(-0.7578423619270325),
    F16(-0.12487851083278656),
    F16(0.1273607313632965),
    F16(-0.03599926084280014),
    F16(0.4397009015083313),
    F16(0.43442100286483765),
    F16(0.19187332689762115),
    F16(-0.16628773510456085),
    F16(0.13744936883449554),
    F16(-0.06595255434513092),
    F16(0.5078107118606567),
    F16(1.3865007162094116),
    F16(0.22178716957569122),
    F16(0.22714585065841675),
    F16(0.11580659449100494),
    F16(0.03836850821971893),
    F16(0.4497235417366028),
    F16(1.2647806406021118),
    F16(-0.09027416259050369),
    F16(-2.0353169441223145),
    F16(-2.177645444869995),
    F16(-3.35731840133667),
    F16(-2.110708236694336),
    F16(-1.788861870765686),
    F16(-0.27780136466026306),
    F16(-0.09070450812578201),
    F16(-0.21456411480903625),
    F16(0.6004577875137329),
    F16(0.198689267039299),
    F16(0.3058032989501953),
    F16(0.23717139661312103),
    F16(-0.7684222459793091),
    F16(0.3116740882396698),
    F16(0.29683932662010193),
    F16(0.5538367033004761),
    F16(0.35375282168388367),
    F16(0.18382064998149872),
    F16(0.0533469058573246),
    F16(-0.11284732818603516),
    F16(-0.4207961857318878),
    F16(-0.7888088226318359),
    F16(-1.0952770709991455),
    F16(-0.6184746026992798),
    F16(-0.25728628039360046),
    F16(0.003648733254522085),
    F16(-0.25851818919181824),
    F16(-1.0756877660751343),
    F16(0.03609272465109825),
    F16(-1.082939863204956),
    F16(-0.2704126536846161),
    F16(-0.15611810982227325),
    F16(0.014921323396265507),
    F16(-0.412087619304657),
    F16(0.3243984282016754),
    F16(0.14073579013347626),
    F16(0.7563427686691284),
    F16(0.07092449069023132),
    F16(0.05132896825671196),
    F16(0.1718551218509674),
    F16(0.25376394391059875),
    F16(1.1414527893066406),
    F16(1.1171661615371704),
    F16(0.2285776138305664),
    F16(0.11252370476722717),
    F16(-0.014757801778614521),
    F16(0.05717010423541069),
    F16(0.3149738609790802),
    F16(1.7832350730895996),
    F16(0.20163343846797943),
    F16(-1.327836036682129),
    F16(-2.2648253440856934),
    F16(-1.6849517822265625),
    F16(0.6054657697677612),
    F16(0.32867544889450073),
    F16(-0.43148839473724365),
    F16(-0.0366966612637043),
    F16(0.21778090298175812),
    F16(1.479522466659546),
    F16(-0.1270013004541397),
    F16(0.41269242763519287),
    F16(1.4531184434890747),
    F16(2.3209543228149414),
    F16(0.5841326117515564),
    F16(0.585418164730072),
    F16(-0.43773263692855835),
    F16(-0.5462545156478882),
    F16(-0.14557017385959625),
    F16(0.04948596656322479),
    F16(-0.10754377394914627),
    F16(-1.4975500106811523),
    F16(-0.017223956063389778),
    F16(-2.1218838691711426),
    F16(-0.3141332268714905),
    F16(0.012924019247293472),
    F16(-2.0541586875915527),
    F16(-3.0877881050109863),
    F16(-1.4312785863876343),
    F16(-0.004564044065773487),
    F16(-0.7207809686660767),
    F16(0.11994031071662903),
    F16(-0.03449076786637306),
    F16(0.12584389746189117),
    F16(0.44433632493019104),
    F16(-1.9580086469650269),
    F16(0.13107463717460632),
    F16(-0.28989535570144653),
    F16(0.32154324650764465),
    F16(-0.036203399300575256),
    F16(0.17531846463680267),
    F16(0.270535409450531),
    F16(-2.342104911804199),
    F16(0.387460321187973),
    F16(-0.7392346262931824),
    F16(-0.19533544778823853),
    F16(0.16381843388080597),
    F16(0.03807671368122101),
    F16(-0.32474908232688904),
    F16(-0.6173316240310669),
    F16(0.10849927365779877),
    F16(-0.16745232045650482),
    F16(-1.87156343460083),
    F16(-2.5859885215759277),
    F16(-1.3037097454071045),
    F16(-0.437318354845047),
    F16(-0.2003561109304428),
    F16(-0.1120382621884346),
    F16(0.4634796679019928),
    F16(1.153592586517334),
    F16(2.5211102962493896),
    F16(1.1541911363601685),
    F16(1.9402955770492554),
    F16(1.4961769580841064),
    F16(1.34079909324646),
    F16(0.23204128444194794),
    F16(-0.004801360424607992),
    F16(0.10868337750434875),
    F16(-0.05426090955734253),
    F16(-0.08139330893754959),
    F16(-0.43593576550483704),
    F16(-1.9678022861480713),
    F16(-0.17074503004550934),
    F16(-0.21242566406726837),
    F16(-0.2460794895887375),
    F16(-0.2936113774776459),
    F16(-0.35690516233444214),
    F16(-0.37211498618125916),
    F16(-0.9910101294517517),
    F16(-0.30793124437332153),
    F16(-0.2544005215167999),
    F16(-0.0033116373233497143),
    F16(0.1145372986793518),
    F16(0.16080190241336823),
    F16(0.07653587311506271),
    F16(0.5167943239212036),
    F16(-1.2495360374450684),
    F16(0.21415291726589203),
    F16(0.2050793170928955),
    F16(0.21385131776332855),
    F16(0.4394591152667999),
    F16(0.4590511620044708),
    F16(1.5265942811965942),
    F16(-0.4666518270969391),
    F16(0.053642094135284424),
    F16(0.04137764498591423),
    F16(-0.21217584609985352),
    F16(-0.8132772445678711),
    F16(-0.146553173661232),
    F16(0.0724637508392334),
    F16(-0.552599310874939),
    F16(-1.736153244972229),
    F16(-3.180859088897705),
    F16(-3.1323537826538086),
    F16(-2.974085807800293),
    F16(-2.0686275959014893),
    F16(-0.16465801000595093),
    F16(-0.03268786892294884),
    F16(0.20558349788188934),
    F16(0.16245047748088837),
    F16(-0.30626392364501953),
    F16(-0.7264572381973267),
    F16(-0.3434053957462311),
    F16(-0.0866585522890091),
    F16(0.11826460808515549),
    F16(0.6954845786094666),
    F16(0.08872932195663452),
    F16(0.004568921402096748),
    F16(-0.32071197032928467),
    F16(-0.37443363666534424),
    F16(-0.08980885148048401),
    F16(-2.1929311752319336),
    F16(1.130876898765564),
    F16(0.19781900942325592),
    F16(0.15561673045158386),
    F16(0.2594945728778839),
    F16(0.2718639075756073),
    F16(0.24735794961452484),
    F16(-1.3900946378707886),
    F16(1.329732060432434),
    F16(0.03543601557612419),
    F16(-0.2761813998222351),
    F16(-1.7280229330062866),
    F16(0.13733474910259247),
    F16(-0.14435411989688873),
    F16(0.1465463787317276),
    F16(1.2633789777755737),
    F16(-0.16971924901008606),
    F16(-2.7317745685577393),
    F16(0.03442699462175369),
    F16(0.06118486449122429),
    F16(-0.39215195178985596),
    F16(-0.7447773814201355),
    F16(-0.7420770525932312),
    F16(-0.5530340075492859),
    F16(0.00509380828589201),
    F16(-0.043844182044267654),
    F16(-0.21466711163520813),
    F16(-1.0754833221435547),
    F16(-0.177295982837677),
    F16(-0.183681920170784),
    F16(0.032949235290288925),
    F16(0.1513940542936325),
    F16(-0.0730162262916565),
    F16(0.09815862029790878),
    F16(0.017482992261648178),
    F16(0.5005018711090088),
    F16(0.11625317484140396),
    F16(-0.16916555166244507),
    F16(0.21584536135196686),
    F16(-1.010404109954834),
    F16(-0.9182353019714355),
    F16(-1.568267822265625),
    F16(-0.4214813709259033),
    F16(0.0007176592480391264),
    F16(-0.7132143974304199),
    F16(-0.5460178256034851),
    F16(-1.3944180011749268),
    F16(-0.12343332916498184),
    F16(-0.13110019266605377),
    F16(-2.7739975452423096),
    F16(-2.267075300216675),
    F16(0.9645364284515381),
    F16(-0.1888822317123413),
    F16(0.1435185968875885),
    F16(0.0755198523402214),
    F16(-0.041188355535268784),
    F16(-0.44410502910614014),
    F16(-0.28523945808410645),
    F16(0.1491290032863617),
    F16(0.20572800934314728),
    F16(-0.08516079187393188),
    F16(0.13179777562618256),
    F16(0.08379604667425156),
    F16(-0.7954849004745483),
    F16(-1.16127347946167),
    F16(0.6822137832641602),
    F16(-0.5297462344169617),
    F16(-0.07799594849348068),
    F16(0.18141277134418488),
    F16(-0.11539026349782944),
    F16(-1.4033654928207397),
    F16(-1.0735636949539185),
    F16(-0.5632270574569702),
    F16(-2.204686403274536),
    F16(-0.06567941606044769),
    F16(-0.0975835770368576),
    F16(-0.17306368052959442),
    F16(-1.2880537509918213),
    F16(-0.6426507234573364),
    F16(0.08745035529136658),
    F16(0.6421768665313721),
    F16(0.32437846064567566),
    F16(0.20269988477230072),
    F16(0.5751801133155823),
    F16(0.6947565078735352),
    F16(0.1195434033870697),
    F16(-0.028616638854146004),
    F16(0.4301993250846863),
    F16(0.963763415813446),
    F16(0.17250995337963104),
    F16(0.3398849666118622),
    F16(0.966277539730072),
    F16(1.8619571924209595),
    F16(-0.12893210351467133),
    F16(0.3296624422073364),
    F16(-0.16609197854995728),
    F16(-0.009128289297223091),
    F16(0.05124271288514137),
    F16(0.2067423015832901),
    F16(0.5958954095840454),
    F16(2.964252233505249),
    F16(-0.7569408416748047),
    F16(-0.1529768407344818),
    F16(-0.023923788219690323),
    F16(-0.22947140038013458),
    F16(-2.1852328777313232),
    F16(-5.444919586181641),
    F16(-1.3296624422073364),
    F16(-0.4608891010284424),
    F16(-0.02223244681954384),
    F16(0.018904998898506165),
    F16(-0.028822608292102814),
    F16(0.0790514200925827),
    F16(0.03180408850312233),
    F16(-0.08724085241556168),
    F16(-0.9930297136306763),
    F16(0.047515787184238434),
    F16(0.05444593355059624),
    F16(-0.038325317203998566),
    F16(0.07766086608171463),
    F16(0.09252532571554184),
    F16(0.09921479970216751),
    F16(-0.28933241963386536),
    F16(0.005436532665044069),
    F16(-0.07367603480815887),
    F16(0.0975453108549118),
    F16(0.04188360646367073),
    F16(0.09185607731342316),
    F16(0.07431253045797348),
    F16(0.02094469964504242),
    F16(0.1215711236000061),
    F16(0.17689919471740723),
    F16(0.05130377784371376),
    F16(0.04864880070090294),
    F16(0.6157096028327942),
    F16(0.22518102824687958),
    F16(-0.2638090252876282),
    F16(-0.18435227870941162),
    F16(0.13497333228588104),
    F16(0.5518171787261963),
    F16(-0.982657253742218),
    F16(-0.38586241006851196),
    F16(0.03872525691986084),
    F16(0.03709381818771362),
    F16(-0.505988359451294),
    F16(0.26510608196258545),
    F16(0.1626042276620865),
    F16(0.1172916367650032),
    F16(0.05915936082601547),
    F16(0.0114669818431139),
    F16(-1.1167638301849365),
    F16(0.3468899428844452),
    F16(0.05858843773603439),
    F16(-0.44817039370536804),
    F16(0.1636580377817154),
    F16(0.12804941833019257),
    F16(-0.19455812871456146),
    F16(-0.6098041534423828),
    F16(0.17363476753234863),
    F16(-1.0100370645523071),
    F16(-0.3047213554382324),
    F16(0.2805846035480499),
    F16(0.33829617500305176),
    F16(-0.13761134445667267),
    F16(-0.7296831607818604),
    F16(2.2835700511932373),
    F16(0.05992133542895317),
    F16(-0.7501707673072815),
    F16(-1.077186107635498),
    F16(0.04603440687060356),
    F16(0.3768090307712555),
    F16(-2.1889262199401855),
    F16(0.9515827298164368),
    F16(0.2460067868232727),
    F16(0.06796875596046448),
    F16(0.07390972971916199),
    F16(0.10926622152328491),
    F16(-0.4237629771232605),
    F16(-1.6964466571807861),
    F16(1.0626137256622314),
    F16(1.359861135482788),
    F16(0.667095422744751),
    F16(0.019574247300624847),
    F16(-0.4832611680030823),
    F16(-0.24976254999637604),
    F16(0.03690226376056671),
    F16(0.07418595999479294),
    F16(-0.053792014718055725),
    F16(-0.030662937089800835),
    F16(-0.18557827174663544),
    F16(-0.08295970410108566),
    F16(-0.5741756558418274),
    F16(-1.0632190704345703),
    F16(0.1707405000925064),
    F16(0.6435177326202393),
    F16(0.25086694955825806),
    F16(0.07917206734418869),
    F16(-0.0574260875582695),
    F16(-0.08780688792467117),
    F16(-0.13888601958751678),
    F16(-1.2683101892471313),
    F16(0.9397202134132385),
    F16(0.2922743856906891),
    F16(0.06280108541250229),
    F16(-0.02777167782187462),
    F16(0.029069384559988976),
    F16(-0.13211950659751892),
    F16(-0.26772841811180115),
    F16(1.2353154420852661),
    F16(-4.038235664367676),
    F16(-2.7990169525146484),
    F16(-0.24988751113414764),
    F16(-0.09301102161407471),
    F16(-0.0893135741353035),
    F16(0.8659074902534485),
    F16(0.06326062977313995),
    F16(0.13554896414279938),
    F16(0.12480954825878143),
    F16(0.14375421404838562),
    F16(0.003920465242117643),
    F16(0.04886598140001297),
    F16(1.0311076641082764),
    F16(0.344561904668808),
    F16(0.12538032233715057),
    F16(0.038353245705366135),
    F16(0.024144671857357025),
    F16(0.060183070600032806),
    F16(0.18964934349060059),
    F16(1.833886742591858),
    F16(-0.35674914717674255),
    F16(0.36318954825401306),
    F16(0.2537399232387543),
    F16(0.2912695109844208),
    F16(0.17239098250865936),
    F16(-0.4119616448879242),
    F16(0.7392787933349609),
    F16(-0.2655518651008606),
    F16(-0.061300091445446014),
    F16(0.05694851279258728),
    F16(-1.4611060619354248),
    F16(-3.4460339546203613),
    F16(-2.5020549297332764),
    F16(-1.535336971282959),
    F16(-0.15489979088306427),
    F16(-0.38527020812034607),
    F16(-0.36551910638809204),
    F16(-0.3056066632270813),
    F16(0.18163669109344482),
    F16(0.18493542075157166),
    F16(0.11264046281576157),
    F16(0.9041433930397034),
    F16(-0.8027070760726929),
    F16(-0.39637598395347595),
    F16(0.30617693066596985),
    F16(-0.18255692720413208),
    F16(-0.19694767892360687),
    F16(0.28867509961128235),
    F16(0.9252492189407349),
    F16(-0.7283729314804077),
    F16(-0.10516088455915451),
    F16(0.06208150088787079),
    F16(0.28468963503837585),
    F16(0.17932789027690887),
    F16(-0.1421917825937271),
    F16(0.12664909660816193),
    F16(-1.2275644540786743),
    F16(-1.0401601791381836),
    F16(0.19330526888370514),
    F16(0.0228589940816164),
    F16(-0.1725817173719406),
    F16(-1.5754083395004272),
    F16(-0.8249481320381165),
    F16(-1.1025018692016602),
    F16(-0.3878103494644165),
    F16(-0.12454594671726227),
    F16(-0.032998763024806976),
    F16(-0.009474569000303745),
    F16(-1.3801413774490356),
    F16(-1.1893742084503174),
    F16(0.4783942401409149),
    F16(-1.055051326751709),
    F16(0.12410520017147064),
    F16(0.30544039607048035),
    F16(0.5412416458129883),
    F16(0.8361803293228149),
    F16(-0.1739111691713333),
    F16(0.24864687025547028),
    F16(0.007712259888648987),
    F16(-0.6935188174247742),
    F16(0.04082789272069931),
    F16(-0.7132832407951355),
    F16(-0.04788493365049362),
    F16(0.1861565113067627),
    F16(0.07086534053087234),
    F16(-0.26056379079818726),
    F16(-0.004248581826686859),
    F16(0.04604722931981087),
    F16(-0.25411170721054077),
    F16(-0.25295376777648926),
    F16(-0.1488516926765442),
    F16(-1.4427152872085571),
    F16(0.8495556712150574),
    F16(0.08371499925851822),
    F16(0.12349723279476166),
    F16(-0.02888362854719162),
    F16(0.17369472980499268),
    F16(-0.16132692992687225),
    F16(-2.7904365062713623),
    F16(0.49649643898010254),
    F16(0.26651161909103394),
    F16(-0.038924142718315125),
    F16(-0.24317088723182678),
    F16(0.3477415442466736),
    F16(0.07919205725193024),
    F16(-0.2898264229297638),
    F16(-0.230545312166214),
    F16(-0.28745996952056885),
    F16(-0.05245007574558258),
    F16(0.15972007811069489),
    F16(0.05885404720902443),
    F16(-0.19980154931545258),
    F16(-0.1089891865849495),
    F16(-1.2889665365219116),
    F16(-0.5341253280639648),
    F16(-0.3170650601387024),
    F16(-0.15694347023963928),
    F16(-0.4405647814273834),
    F16(-0.3440718948841095),
    F16(0.003999144770205021),
    F16(-0.34157922863960266),
    F16(1.1878477334976196),
    F16(0.258600652217865),
    F16(0.19685663282871246),
    F16(0.33191990852355957),
    F16(0.06226532906293869),
    F16(0.4426833391189575),
    F16(-0.22187626361846924),
    F16(-0.1483812928199768),
    F16(0.02090226672589779),
    F16(0.5621602535247803),
    F16(-0.4685225784778595),
    F16(-1.0838260650634766),
    F16(-0.08206979185342789),
    F16(-0.0012661358341574669),
    F16(0.9488190412521362),
    F16(0.32377809286117554),
    F16(0.4179221987724304),
    F16(0.12918852269649506),
    F16(0.014546352438628674),
    F16(-0.47969168424606323),
    F16(-1.4165534973144531),
    F16(0.5779064297676086),
    F16(-0.5499675273895264),
    F16(-1.300192952156067),
    F16(0.02300962246954441),
    F16(0.16025124490261078),
    F16(-0.961781919002533),
    F16(-0.05352795496582985),
    F16(0.042699579149484634),
    F16(-0.3939565420150757),
    F16(0.1022755429148674),
    F16(0.09368981420993805),
    F16(-0.04976583272218704),
    F16(-0.03756864741444588),
    F16(-0.5481695532798767),
    F16(2.4378936290740967),
    F16(0.006498867645859718),
    F16(-0.5178899765014648),
    F16(-0.5855231881141663),
    F16(0.13185811042785645),
    F16(0.3939809799194336),
    F16(-1.5988777875900269),
    F16(1.721760630607605),
    F16(0.2844906747341156),
    F16(0.06786344200372696),
    F16(0.06342263519763947),
    F16(0.06793168932199478),
    F16(-0.5977794528007507),
    F16(-1.344760775566101),
    F16(0.3309280276298523),
    F16(1.3354666233062744),
    F16(0.6851097345352173),
    F16(0.33283737301826477),
    F16(0.016961365938186646),
    F16(-0.3293273150920868),
    F16(-0.1905708611011505),
    F16(-0.06384044885635376),
    F16(0.17374424636363983),
    F16(0.9367095828056335),
    F16(-0.48037460446357727),
    F16(1.0530582666397095),
    F16(1.6187772750854492),
    F16(1.912116289138794),
    F16(0.18861150741577148),
    F16(0.3416993021965027),
    F16(-0.880389392375946),
    F16(-0.5813359618186951),
    F16(-0.05240549147129059),
    F16(-0.18520303070545197),
    F16(-0.2688549757003784),
    F16(-1.6985833644866943),
    F16(0.3131430447101593),
    F16(-1.7098677158355713),
    F16(-0.15555670857429504),
    F16(0.13992241024971008),
    F16(-1.9602200984954834),
    F16(-1.563153624534607),
    F16(-1.5647380352020264),
    F16(-0.11109373718500137),
    F16(0.20052261650562286),
    F16(0.06602825224399567),
    F16(0.01129065826535225),
    F16(-0.041145987808704376),
    F16(0.23845230042934418),
    F16(-0.644003689289093),
    F16(0.2819973826408386),
    F16(-0.11056876927614212),
    F16(0.19503508508205414),
    F16(0.2200010120868683),
    F16(-0.03022398054599762),
    F16(0.14510968327522278),
    F16(-1.3697028160095215),
    F16(0.2412281334400177),
    F16(-0.7262788414955139),
    F16(-0.17861449718475342),
    F16(0.2868057191371918),
    F16(0.1268700361251831),
    F16(-0.1831701397895813),
    F16(-0.7844081521034241),
    F16(0.021656736731529236),
    F16(-0.5058627724647522),
    F16(-2.0318968296051025),
    F16(-1.5805983543395996),
    F16(-1.9181492328643799),
    F16(-0.7128425240516663),
    F16(-0.2154073715209961),
    F16(-0.10508314520120621),
    F16(0.2749401926994324),
    F16(-0.06612648069858551),
    F16(-0.24448780715465546),
    F16(0.1569136679172516),
    F16(1.2069950103759766),
    F16(0.7548946142196655),
    F16(-0.1088557317852974),
    F16(-0.1851145178079605),
    F16(-0.30661848187446594),
    F16(0.07800069451332092),
    F16(0.057029008865356445),
    F16(0.3288845717906952),
    F16(0.640882134437561),
    F16(1.337235450744629),
    F16(-0.9801009893417358),
    F16(-0.05875340476632118),
    F16(0.1605481654405594),
    F16(-0.42366597056388855),
    F16(-1.7164565324783325),
    F16(-3.2649130821228027),
    F16(-1.4271340370178223),
    F16(-0.8341774344444275),
    F16(-0.0487685389816761),
    F16(0.044866565614938736),
    F16(-0.09578640013933182),
    F16(-0.011638320051133633),
    F16(-0.17821104824543),
    F16(-1.1482207775115967),
    F16(-0.7779766321182251),
    F16(-0.10539279878139496),
    F16(-0.4797658920288086),
    F16(-0.7085185050964355),
    F16(0.03965349867939949),
    F16(0.027748631313443184),
    F16(0.24092590808868408),
    F16(-0.47054004669189453),
    F16(0.2027895152568817),
    F16(0.08779545873403549),
    F16(0.11919949948787689),
    F16(0.10784600675106049),
    F16(0.219339519739151),
    F16(-0.12258820980787277),
    F16(-0.23869672417640686),
    F16(0.5434874892234802),
    F16(0.78429114818573),
    F16(0.36252376437187195),
    F16(0.2505738437175751),
    F16(0.6758063435554504),
    F16(-0.24304324388504028),
    F16(0.11609933525323868),
    F16(-0.22024796903133392),
    F16(-0.32378196716308594),
    F16(-1.6571590900421143),
    F16(-1.9584444761276245),
    F16(-2.469804525375366),
    F16(-0.9384840726852417),
    F16(-0.8650588393211365),
    F16(-0.8382831811904907),
    F16(-0.22398741543293),
    F16(-0.2878381311893463),
    F16(-0.19883738458156586),
    F16(-0.36942508816719055),
    F16(-0.07293178886175156),
    F16(0.12999789416790009),
    F16(-0.52902752161026),
    F16(-0.3892133831977844),
    F16(-0.05909529700875282),
    F16(0.06869334727525711),
    F16(0.14056514203548431),
    F16(-0.01876400224864483),
    F16(0.23100709915161133),
    F16(-1.648247480392456),
    F16(0.16386833786964417),
    F16(0.22406166791915894),
    F16(-0.07081391662359238),
    F16(0.0411183126270771),
    F16(-0.43959367275238037),
    F16(0.1287054419517517),
    F16(-1.3912203311920166),
    F16(0.1776019185781479),
    F16(-0.06318573653697968),
    F16(-0.002693681512027979),
    F16(0.07739932090044022),
    F16(0.0025938227772712708),
    F16(-1.0968097448349),
    F16(-1.2221654653549194),
    F16(-0.14228926599025726),
    F16(-0.08424428105354309),
    F16(-0.06061258539557457),
    F16(-0.05972904711961746),
    F16(-0.8953471779823303),
    F16(-0.8649604916572571),
    F16(-0.17175768315792084),
    F16(-1.8442312479019165),
    F16(-2.5196752548217773),
    F16(-5.030272960662842),
    F16(-5.582489967346191),
    F16(-2.796912670135498),
    F16(-0.04552137851715088),
    F16(0.07040084153413773),
    F16(0.2828109860420227),
    F16(0.8998581171035767),
    F16(2.680877447128296),
    F16(0.8209286332130432),
    F16(1.7613530158996582),
    F16(2.0200424194335938),
    F16(0.744809091091156),
    F16(0.47983518242836),
    F16(0.07067219167947769),
    F16(-0.18741492927074432),
    F16(-0.08987508714199066),
    F16(-0.08103147894144058),
    F16(-0.10077255219221115),
    F16(-1.267629623413086),
    F16(-0.3286217749118805),
    F16(-0.18567276000976562),
    F16(-0.23372125625610352),
    F16(-0.018697328865528107),
    F16(-0.07115141302347183),
    F16(-0.08790945261716843),
    F16(-0.822648823261261),
    F16(0.08472686260938644),
    F16(0.09820956736803055),
    F16(0.19495558738708496),
    F16(-0.16565395891666412),
    F16(-0.04582849517464638),
    F16(0.14028604328632355),
    F16(0.583115816116333),
    F16(-0.5475500822067261),
    F16(0.16238924860954285),
    F16(0.2040572166442871),
    F16(0.09476881474256516),
    F16(0.2580896019935608),
    F16(0.3500177264213562),
    F16(1.1745591163635254),
    F16(-0.08533094078302383),
    F16(-0.0045112501829862595),
    F16(-0.04034716635942459),
    F16(-0.004364374093711376),
    F16(-0.11529132723808289),
    F16(-0.3739318251609802),
    F16(0.833019495010376),
    F16(-0.9065507650375366),
    F16(-2.0748636722564697),
    F16(-3.0235602855682373),
    F16(-4.371932506561279),
    F16(-4.687103271484375),
    F16(-3.003563404083252),
    F16(-0.1514064520597458),
    F16(0.02871243841946125),
    F16(-0.1305544078350067),
    F16(0.5592989921569824),
    F16(0.34758618474006653),
    F16(0.48498761653900146),
    F16(0.7158492207527161),
    F16(-1.107398509979248),
    F16(0.8179531693458557),
    F16(-0.04681914672255516),
    F16(-0.1940731555223465),
    F16(0.14880260825157166),
    F16(-0.11262991279363632),
    F16(-0.2337101846933365),
    F16(-0.2921053171157837),
    F16(-2.420492649078369),
    F16(0.4403284788131714),
    F16(-1.3483290672302246),
    F16(-0.8479676246643066),
    F16(-0.20404617488384247),
    F16(-0.10171790421009064),
    F16(-1.5211899280548096),
    F16(-1.1030076742172241),
    F16(0.5833641886711121),
    F16(-0.4937154948711395),
    F16(-0.2909546196460724),
    F16(0.3072873055934906),
    F16(-0.318512499332428),
    F16(-0.9957833290100098),
    F16(0.5476852655410767),
    F16(-0.19728533923625946),
    F16(0.282532274723053),
    F16(0.10662544518709183),
    F16(0.31590259075164795),
    F16(-0.20001459121704102),
    F16(0.4303553104400635),
    F16(1.540704369544983),
    F16(-0.2832869589328766),
    F16(0.4059566557407379),
    F16(-0.0024008045438677073),
    F16(-0.16088803112506866),
    F16(0.0659002885222435),
    F16(0.12812532484531403),
    F16(1.3953287601470947),
    F16(-0.029780354350805283),
    F16(-0.6420413851737976),
    F16(-2.1215415000915527),
    F16(-2.6334450244903564),
    F16(-1.0839180946350098),
    F16(-0.15550068020820618),
    F16(-0.4078124761581421),
    F16(0.10956728458404541),
    F16(-0.18754583597183228),
    F16(-0.09396786242723465),
    F16(-0.4177402853965759),
    F16(-0.17740337550640106),
    F16(-0.14397042989730835),
    F16(0.029088249430060387),
    F16(-0.17236381769180298),
    F16(-0.0010292624356225133),
    F16(0.3405366837978363),
    F16(0.11629382520914078),
    F16(0.04318515211343765),
    F16(-0.0715443566441536),
    F16(-1.707095980644226),
    F16(-1.7714951038360596),
    F16(1.1806020736694336),
    F16(0.218107670545578),
    F16(-0.11966222524642944),
    F16(0.15442413091659546),
    F16(0.04473579302430153),
    F16(-0.18081428110599518),
    F16(-2.4341466426849365),
    F16(0.6871057152748108),
    F16(-0.2787836492061615),
    F16(-0.08579922467470169),
    F16(0.09225354343652725),
    F16(0.11310379952192307),
    F16(-0.14344054460525513),
    F16(-0.7676759958267212),
    F16(1.729642629623413),
    F16(-0.501970648765564),
    F16(-1.6618335247039795),
    F16(-0.29733964800834656),
    F16(-0.012208360247313976),
    F16(0.17462481558322906),
    F16(-0.4448312222957611),
    F16(1.3492459058761597),
    F16(0.5403128266334534),
    F16(0.10347578674554825),
    F16(0.11304067820310593),
    F16(-0.0703505426645279),
    F16(-0.5680509209632874),
    F16(-0.8787693977355957),
    F16(0.9035010933876038),
    F16(1.1371147632598877),
    F16(0.8885753154754639),
    F16(0.39823049306869507),
    F16(0.32680338621139526),
    F16(0.48057684302330017),
    F16(0.5346721410751343),
    F16(0.05108761042356491),
    F16(0.12858204543590546),
    F16(0.2034241110086441),
    F16(-1.5101643800735474),
    F16(-1.4005095958709717),
    F16(-1.1505001783370972),
    F16(-0.974943220615387),
    F16(0.22006967663764954),
    F16(0.458954781293869),
    F16(-0.4108690619468689),
    F16(0.035960130393505096),
    F16(-0.10091587156057358),
    F16(-0.07655025273561478),
    F16(0.0782412588596344),
    F16(0.6456010937690735),
    F16(0.5741922855377197),
    F16(0.2885676622390747),
    F16(0.38715797662734985),
    F16(0.5275452136993408),
    F16(0.20275753736495972),
    F16(0.20993082225322723),
    F16(0.5670559406280518),
    F16(0.1903531849384308),
    F16(0.05129662901163101),
    F16(0.04336942732334137),
    F16(-0.640821635723114),
    F16(-0.547459602355957),
    F16(-0.08669087290763855),
    F16(0.10881581157445908),
    F16(-0.28848859667778015),
    F16(0.2187473624944687),
    F16(-0.5079360008239746),
    F16(-0.4530494809150696),
    F16(-0.04101274907588959),
    F16(0.11452925950288773),
    F16(-1.7141071557998657),
    F16(-1.3065292835235596),
    F16(0.1282060742378235),
    F16(0.2480486035346985),
    F16(-0.017706548795104027),
    F16(-0.01673217862844467),
    F16(-0.21227963268756866),
    F16(-0.7224018573760986),
    F16(-0.7188526391983032),
    F16(0.14046169817447662),
    F16(0.29201367497444153),
    F16(0.07919120043516159),
    F16(0.008984765969216824),
    F16(-0.40113046765327454),
    F16(0.12025964260101318),
    F16(-0.08875122666358948),
    F16(-0.1385556012392044),
    F16(0.24516239762306213),
    F16(0.38298189640045166),
    F16(0.12658922374248505),
    F16(0.8329257965087891),
    F16(0.7576578259468079),
    F16(-0.0012187717948108912),
    F16(0.4866832196712494),
    F16(0.24226346611976624),
    F16(0.08794081956148148),
    F16(0.16751018166542053),
    F16(0.18038101494312286),
    F16(0.5787438154220581),
    F16(1.8558733463287354),
    F16(0.14326973259449005),
    F16(-0.00818285346031189),
    F16(-0.046987615525722504),
    F16(0.03881938382983208),
    F16(-0.29169559478759766),
    F16(-0.7459683418273926),
    F16(-0.16347026824951172),
    F16(-0.24978415668010712),
    F16(0.11107700318098068),
    F16(-0.013393355533480644),
    F16(0.09772314876317978),
    F16(0.037396784871816635),
    F16(-0.27134090662002563),
    F16(-1.2640469074249268),
    F16(0.6501637101173401),
    F16(-0.8857387900352478),
    F16(-1.2374625205993652),
    F16(-1.4617912769317627),
    F16(0.028921306133270264),
    F16(0.23891803622245789),
    F16(-0.9649869203567505),
    F16(0.32566431164741516),
    F16(0.46240001916885376),
    F16(0.217290997505188),
    F16(0.09589850902557373),
    F16(0.07283720374107361),
    F16(0.11746787279844284),
    F16(-1.4861761331558228),
    F16(0.6003830432891846),
    F16(1.2861891984939575),
    F16(0.6624096035957336),
    F16(0.26904869079589844),
    F16(-0.22996807098388672),
    F16(-0.31562548875808716),
    F16(-0.1413108855485916),
    F16(0.017984088510274887),
    F16(-0.0034288817550987005),
    F16(-1.192840337753296),
    F16(-2.2324411869049072),
    F16(-3.3094050884246826),
    F16(-2.6698219776153564),
    F16(-0.3196672201156616),
    F16(-0.07204865664243698),
    F16(0.09436268359422684),
    F16(-0.1274813562631607),
    F16(-0.21465761959552765),
    F16(-0.17756925523281097),
    F16(0.08774358034133911),
    F16(0.06447383761405945),
    F16(-0.14199413359165192),
    F16(-1.3026528358459473),
    F16(-0.08682211488485336),
    F16(0.10853889584541321),
    F16(-0.2143876701593399),
    F16(0.1385686993598938),
    F16(0.027167756110429764),
    F16(-0.6411120891571045),
    F16(-0.44884371757507324),
    F16(0.18516498804092407),
    F16(0.1370941400527954),
    F16(-0.40465155243873596),
    F16(0.34901970624923706),
    F16(0.22802625596523285),
    F16(-0.8344115018844604),
    F16(-0.4046996533870697),
    F16(-0.015264413319528103),
    F16(0.05381370708346367),
    F16(-0.3059082329273224),
    F16(0.22107765078544617),
    F16(-0.07342837005853653),
    F16(-0.15197432041168213),
    F16(-0.05790630728006363),
    F16(-0.7473312020301819),
    F16(-4.653882026672363),
    F16(-0.0765504240989685),
    F16(-0.034978557378053665),
    F16(0.13992375135421753),
    F16(0.5921958684921265),
    F16(0.5213903784751892),
    F16(-1.133160948753357),
    F16(-0.040925994515419006),
    F16(0.15087392926216125),
    F16(0.23824547231197357),
    F16(0.6854364275932312),
    F16(-0.22761771082878113),
    F16(0.1504332274198532),
    F16(0.079270139336586),
    F16(0.06682590395212173),
    F16(0.11767221242189407),
    F16(-1.4871662855148315),
    F16(-1.526781439781189),
    F16(-0.4888869822025299),
    F16(-0.18729522824287415),
    F16(-0.23886197805404663),
    F16(-0.087698794901371),
    F16(-3.9128096103668213),
    F16(-0.25171634554862976),
    F16(-0.16421926021575928),
    F16(-0.04311355948448181),
    F16(-2.6257834434509277),
    F16(-0.3278447985649109),
    F16(-1.5021380186080933),
    F16(-0.5948457717895508),
    F16(-0.14700409770011902),
    F16(0.06203481927514076),
    F16(-0.2817220687866211),
    F16(-2.2021703720092773),
    F16(-0.37825503945350647),
    F16(-0.14857102930545807),
    F16(-0.01982463151216507),
    F16(0.31489571928977966),
    F16(-0.004476907197386026),
    F16(-1.143239140510559),
    F16(-1.1867419481277466),
    F16(-0.49296870827674866),
    F16(-1.8743399381637573),
    F16(-0.06623624265193939),
    F16(0.15013140439987183),
    F16(-0.7726402878761292),
    F16(-0.26089391112327576),
    F16(-0.8459213972091675),
    F16(-1.2283159494400024),
    F16(0.018164368346333504),
    F16(-0.18343015015125275),
    F16(-0.18260852992534637),
    F16(-1.8563557863235474),
    F16(-0.3709237277507782),
    F16(0.3082336187362671),
    F16(-0.14205369353294373),
    F16(0.02550450712442398),
    F16(-0.21733960509300232),
    F16(0.06530288606882095),
    F16(-0.018087521195411682),
    F16(0.23062379658222198),
    F16(-0.20184597373008728),
    F16(-0.06982554495334625),
    F16(0.15732572972774506),
    F16(1.8141831159591675),
    F16(1.337432622909546),
    F16(1.2811840772628784),
    F16(1.8999472856521606),
    F16(-0.6771100163459778),
    F16(0.005065384320914745),
    F16(0.3483380675315857),
    F16(0.031372375786304474),
    F16(-0.0019968771375715733),
    F16(-0.03504188731312752),
    F16(-2.226285219192505),
    F16(-2.8561110496520996),
    F16(-0.6485984921455383),
    F16(-0.002340804086998105),
    F16(-0.24020272493362427),
    F16(-0.054973553866147995),
    F16(-0.47861164808273315),
    F16(-0.13297544419765472),
    F16(0.05148704722523689),
    F16(-0.960996687412262),
    F16(-0.2619302272796631),
    F16(0.16792650520801544),
    F16(0.1666816771030426),
    F16(0.019011277705430984),
    F16(0.0724121704697609),
    F16(0.27321475744247437),
    F16(0.00969377625733614),
    F16(-0.20269350707530975),
    F16(-0.0505901537835598),
    F16(0.23170724511146545),
    F16(0.06074613705277443),
    F16(0.043706014752388),
    F16(0.1782277375459671),
    F16(-0.09350750595331192),
    F16(-0.36615774035453796),
    F16(-0.3512517213821411),
    F16(-0.03602318465709686),
    F16(0.24888652563095093),
    F16(-0.1257445216178894),
    F16(-1.0854897499084473),
    F16(-0.5180733799934387),
    F16(-0.1130203977227211),
    F16(-0.6793347001075745),
    F16(-1.4137217998504639),
    F16(-2.103196620941162),
    F16(-2.115957260131836),
    F16(-1.2590610980987549),
    F16(0.24222849309444427),
    F16(-0.355757474899292),
    F16(0.031491562724113464),
    F16(0.29419228434562683),
    F16(-0.8424012064933777),
    F16(-0.8958821296691895),
    F16(-1.549432396888733),
    F16(-0.8994539380073547),
    F16(0.12698815762996674),
    F16(-0.17671865224838257),
    F16(0.018846610561013222),
    F16(-0.1404097080230713),
    F16(0.1419363170862198),
    F16(0.2546440362930298),
    F16(0.0045374673791229725),
    F16(-1.8396044969558716),
    F16(0.4525899589061737),
    F16(-0.29063695669174194),
    F16(0.04114053398370743),
    F16(-0.03161049261689186),
    F16(0.3252171277999878),
    F16(0.2744801640510559),
    F16(-1.1993756294250488),
    F16(0.23653995990753174),
    F16(0.27013763785362244),
    F16(0.1284712851047516),
    F16(-0.9711444973945618),
    F16(-0.4034115970134735),
    F16(0.3005891442298889),
    F16(0.3081684708595276),
    F16(-1.0728753805160522),
    F16(0.23783601820468903),
    F16(0.4134986400604248),
    F16(-0.6906283497810364),
    F16(0.027910402044653893),
    F16(-0.0004540642548818141),
    F16(0.32488006353378296),
    F16(-0.08660288900136948),
    F16(0.06495704501867294),
    F16(0.27463650703430176),
    F16(0.07216496020555496),
    F16(-0.13161183893680573),
    F16(-0.2152375727891922),
    F16(0.6603283286094666),
    F16(-0.11481642723083496),
    F16(-0.8186126351356506),
    F16(-0.7833094000816345),
    F16(-1.398604154586792),
    F16(-1.7408852577209473),
    F16(-1.6176866292953491),
    F16(-0.20688702166080475),
    F16(-0.5004280805587769),
    F16(-0.08208847045898438),
    F16(0.6226598024368286),
    F16(0.47127217054367065),
    F16(0.0188092440366745),
    F16(-0.7770349979400635),
    F16(-0.14403875172138214),
    F16(-0.1716725379228592),
    F16(-0.003683540504425764),
    F16(-0.11305828392505646),
    F16(0.23782075941562653),
    F16(0.47073665261268616),
    F16(0.2263595461845398),
    F16(-0.15590351819992065),
    F16(0.5450382232666016),
    F16(-0.4680320620536804),
    F16(0.27787962555885315),
    F16(-0.13264881074428558),
    F16(-0.3163873553276062),
    F16(0.1392013281583786),
    F16(0.32433634996414185),
    F16(-0.19592460989952087),
    F16(0.1586664766073227),
    F16(-1.2415958642959595),
    F16(-0.292463481426239),
    F16(0.27130046486854553),
    F16(0.03453034162521362),
    F16(-0.41652241349220276),
    F16(-0.8785498738288879),
    F16(1.7431219816207886),
    F16(0.42049580812454224),
    F16(0.0913400650024414),
    F16(0.054268572479486465),
    F16(0.1244727298617363),
    F16(0.0022006845101714134),
    F16(0.4291568696498871),
    F16(1.8071173429489136),
    F16(0.2832612693309784),
    F16(-0.07615000009536743),
    F16(-0.08223342150449753),
    F16(0.07308392971754074),
    F16(0.2409457564353943),
    F16(0.2791755199432373),
    F16(-0.21559098362922668),
    F16(-1.0376238822937012),
    F16(0.16941672563552856),
    F16(0.5382177829742432),
    F16(0.40362387895584106),
    F16(0.07585924863815308),
    F16(0.3087882995605469),
    F16(0.08768280595541),
    F16(-0.08141771703958511),
    F16(0.053806520998477936),
    F16(0.3278992772102356),
    F16(-0.13309532403945923),
    F16(0.4615726172924042),
    F16(1.9296876192092896),
    F16(0.1864127814769745),
    F16(-0.22173058986663818),
    F16(-0.7551465034484863),
    F16(-0.2796446979045868),
    F16(-0.07004109025001526),
    F16(-0.07941295206546783),
    F16(-0.46777358651161194),
    F16(-1.4318920373916626),
    F16(-1.5445318222045898),
    F16(-0.3836922347545624),
    F16(0.0076211909763514996),
    F16(-0.11516933888196945),
    F16(-0.18725116550922394),
    F16(-0.20536921918392181),
    F16(-1.8573516607284546),
    F16(-1.4009872674942017),
    F16(0.3707759380340576),
    F16(0.27171728014945984),
    F16(0.09732288122177124),
    F16(0.2763780355453491),
    F16(-0.02697625942528248),
    F16(-1.7288531064987183),
    F16(-0.42823609709739685),
    F16(-0.13821916282176971),
    F16(0.3634355366230011),
    F16(-0.014721496030688286),
    F16(0.03853168711066246),
    F16(-0.3138730227947235),
    F16(-2.0735738277435303),
    F16(-0.4377201497554779),
    F16(-3.2387049198150635),
    F16(-1.1091527938842773),
    F16(-0.1107119619846344),
    F16(-0.11762107163667679),
    F16(-0.018635306507349014),
    F16(-0.5339754819869995),
    F16(0.3421710431575775),
    F16(-1.722322940826416),
    F16(0.2103896588087082),
    F16(0.0433419868350029),
    F16(0.2641755938529968),
    F16(0.8629729151725769),
    F16(-0.49837395548820496),
    F16(-0.26457399129867554),
    F16(0.2693761885166168),
    F16(-0.04500554874539375),
    F16(0.5828478336334229),
    F16(0.6324275732040405),
    F16(0.7555331587791443),
    F16(-0.5277432203292847),
    F16(-0.06841482222080231),
    F16(-0.4015808403491974),
    F16(-0.36041948199272156),
    F16(-0.20427455008029938),
    F16(0.034298595041036606),
    F16(0.08488965034484863),
    F16(0.017013877630233765),
    F16(-0.06154204159975052),
    F16(0.054637666791677475),
    F16(0.11080534756183624),
    F16(0.07648725807666779),
    F16(-0.11712177097797394),
    F16(0.03511252626776695),
    F16(0.1765047162771225),
    F16(-0.06440854072570801),
    F16(-0.006846087984740734),
    F16(-0.33697032928466797),
    F16(-0.2505282759666443),
    F16(0.19604673981666565),
    F16(0.013671856373548508),
    F16(-0.6627825498580933),
    F16(-0.39681732654571533),
    F16(-0.7269273996353149),
    F16(-0.3259580731391907),
    F16(0.12397027015686035),
    F16(0.23425529897212982),
    F16(-0.3658430874347687),
    F16(-0.85688316822052),
    F16(0.1484776884317398),
    F16(-0.455526739358902),
    F16(-0.012320972979068756),
    F16(0.06351987272500992),
    F16(0.10878138989210129),
    F16(0.43428313732147217),
    F16(0.720869779586792),
    F16(0.666132926940918),
    F16(-0.0729200467467308),
    F16(-2.904299736022949),
    F16(-2.7279117107391357),
    F16(-0.25045013427734375),
    F16(-0.7005933523178101),
    F16(-0.9735519886016846),
    F16(-0.10008689761161804),
    F16(0.2258482426404953),
    F16(-0.07300212234258652),
    F16(-0.6436284780502319),
    F16(-2.3903374671936035),
    F16(-4.399093151092529),
    F16(-3.3986306190490723),
    F16(-1.8444547653198242),
    F16(0.16522884368896484),
    F16(0.24003657698631287),
    F16(-0.1255817860364914),
    F16(-0.24876032769680023),
    F16(-0.4055345058441162),
    F16(-0.1513257622718811),
    F16(0.001862148055806756),
    F16(-0.7303776144981384),
    F16(0.5331814289093018),
    F16(-0.16732075810432434),
    F16(0.021423596888780594),
    F16(-0.031096018850803375),
    F16(0.12306991964578629),
    F16(-0.11998190730810165),
    F16(-2.063800811767578),
    F16(-0.009878931567072868),
    F16(0.5272438526153564),
    F16(0.2386530488729477),
    F16(-0.06033405289053917),
    F16(0.4643029570579529),
    F16(0.2292996346950531),
    F16(-0.8026221990585327),
    F16(-0.6913269758224487),
    F16(-0.39457616209983826),
    F16(-0.28549912571907043),
    F16(-0.05301547050476074),
    F16(-0.08352770656347275),
    F16(-0.7356541752815247),
    F16(-0.38942891359329224),
    F16(-1.175722360610962),
    F16(-3.810349225997925),
    F16(-0.450624942779541),
    F16(-0.15088801085948944),
    F16(-0.23128311336040497),
    F16(-0.5432205200195312),
    F16(0.23043259978294373),
    F16(0.09760395437479019),
    F16(0.4488290846347809),
    F16(-0.016093596816062927),
    F16(-0.17228227853775024),
    F16(0.2443656474351883),
    F16(0.5587897300720215),
    F16(0.8606820702552795),
    F16(-0.3695332109928131),
    F16(0.046431973576545715),
    F16(0.05978032946586609),
    F16(0.9504973292350769),
    F16(-0.07919258624315262),
    F16(1.1696128845214844),
    F16(1.090047001838684),
    F16(0.3676178455352783),
    F16(0.2732750475406647),
    F16(-0.8678972721099854),
    F16(-0.342438668012619),
    F16(-0.06747886538505554),
    F16(0.13809902966022491),
    F16(-0.07033871114253998),
    F16(-1.958169937133789),
    F16(0.48450160026550293),
    F16(-0.2067217379808426),
    F16(-0.06361401826143265),
    F16(0.1801944226026535),
    F16(-0.062187083065509796),
    F16(0.05739183351397514),
    F16(-1.9974021911621094),
    F16(0.5539424419403076),
    F16(0.3193128705024719),
    F16(0.4054783582687378),
    F16(-0.5027332901954651),
    F16(-0.2770516574382782),
    F16(0.31644752621650696),
    F16(-0.05404059961438179),
    F16(-0.7284705638885498),
    F16(0.11444801092147827),
    F16(0.46188822388648987),
    F16(-0.3814045190811157),
    F16(0.08702477812767029),
    F16(0.2632499933242798),
    F16(-1.7588894367218018),
    F16(-0.8532916903495789),
    F16(-0.03362257033586502),
    F16(0.21798376739025116),
    F16(0.057328641414642334),
    F16(-0.23087367415428162),
    F16(-0.6619189977645874),
    F16(-0.42758795619010925),
    F16(0.14269718527793884),
    F16(-0.8844212889671326),
    F16(-1.157164216041565),
    F16(-1.9179164171218872),
    F16(-2.23008131980896),
    F16(-1.5901075601577759),
    F16(-0.23701052367687225),
    F16(-0.07578549534082413),
    F16(0.3117630183696747),
    F16(1.3715564012527466),
    F16(0.4086611568927765),
    F16(0.30675238370895386),
    F16(1.272151231765747),
    F16(2.841322183609009),
    F16(0.9172350764274597),
    F16(0.27000609040260315),
    F16(-0.5410054922103882),
    F16(-0.39069655537605286),
    F16(-0.13752242922782898),
    F16(0.05100175738334656),
    F16(0.3017933666706085),
    F16(-0.22021856904029846),
    F16(0.09579623490571976),
    F16(-0.7087331414222717),
    F16(-0.11558785289525986),
    F16(-0.0926273986697197),
    F16(-0.8230576515197754),
    F16(-1.7968833446502686),
    F16(-2.10713267326355),
    F16(-0.343558132648468),
    F16(0.09729661047458649),
    F16(0.0700409859418869),
    F16(0.019947240129113197),
    F16(0.08778434246778488),
    F16(0.3898587226867676),
    F16(-1.9199153184890747),
    F16(-0.08796130865812302),
    F16(-0.054101478308439255),
    F16(0.2619897425174713),
    F16(-0.047002337872982025),
    F16(0.18511585891246796),
    F16(0.22047166526317596),
    F16(-1.7516330480575562),
    F16(0.22305847704410553),
    F16(-0.13549081981182098),
    F16(-0.024855894967913628),
    F16(0.21410734951496124),
    F16(0.09877228736877441),
    F16(-0.3487851321697235),
    F16(-0.7918311357498169),
    F16(0.20396320521831512),
    F16(-0.2897522747516632),
    F16(-2.3024842739105225),
    F16(-3.069538116455078),
    F16(-2.2399866580963135),
    F16(-1.4637115001678467),
    F16(-0.2181825190782547),
    F16(-0.2539444863796234),
    F16(-0.0832601934671402),
    F16(0.9978726506233215),
    F16(0.751470148563385),
    F16(0.36502519249916077),
    F16(0.9319750070571899),
    F16(-0.551366925239563),
    F16(0.1943676620721817),
    F16(-0.14870698750019073),
    F16(-0.3237992823123932),
    F16(0.011356201022863388),
    F16(0.21569408476352692),
    F16(0.10792068392038345),
    F16(0.02739834412932396),
    F16(0.2917156517505646),
    F16(-0.9169067144393921),
    F16(0.40641969442367554),
    F16(0.17104344069957733),
    F16(-0.05628492310643196),
    F16(-0.08410774171352386),
    F16(0.09032809734344482),
    F16(0.4134097397327423),
    F16(0.2432524710893631),
    F16(-1.5649617910385132),
    F16(-0.4285745918750763),
    F16(0.3451734483242035),
    F16(-0.09776638448238373),
    F16(-0.11478428542613983),
    F16(0.40926802158355713),
    F16(-0.22899414598941803),
    F16(-0.2566600441932678),
    F16(0.3578846752643585),
    F16(0.14170195162296295),
    F16(-0.22069518268108368),
    F16(-0.07035818696022034),
    F16(0.761535108089447),
    F16(-0.4624612629413605),
    F16(-0.0468892939388752),
    F16(0.06231333315372467),
    F16(-0.05205114558339119),
    F16(-0.034826286137104034),
    F16(0.2447439432144165),
    F16(-0.3111976087093353),
    F16(0.07624126970767975),
    F16(-1.9842982292175293),
    F16(-1.1212263107299805),
    F16(-0.6414838433265686),
    F16(0.02784954570233822),
    F16(-0.12640805542469025),
    F16(-0.05950178951025009),
    F16(0.1193789541721344),
    F16(0.5499522686004639),
    F16(-1.0875493288040161),
    F16(-1.5892627239227295),
    F16(0.8260167241096497),
    F16(-1.85908043384552),
    F16(-1.7045396566390991),
    F16(-0.10529792308807373),
    F16(-0.044252268970012665),
    F16(-0.03898337483406067),
    F16(0.19278386235237122),
    F16(0.7736809849739075),
    F16(-0.4928208589553833),
    F16(0.09981369227170944),
    F16(0.0027792109176516533),
    F16(0.8966962099075317),
    F16(0.17979900538921356),
    F16(0.052712853997945786),
    F16(0.033889107406139374),
    F16(0.2330513745546341),
    F16(0.01237811055034399),
    F16(0.6263312101364136),
    F16(0.34395790100097656),
    F16(-1.246311068534851),
    F16(-0.6464816927909851),
    F16(-0.3725137710571289),
    F16(-1.6233612298965454),
    F16(-0.15028983354568481),
    F16(0.3161424398422241),
    F16(-0.10957031697034836),
    F16(-1.1691912412643433),
    F16(0.07341219484806061),
    F16(-1.422874093055725),
    F16(0.1840680092573166),
    F16(0.44579094648361206),
    F16(-0.28819528222084045),
    F16(-2.102611541748047),
    F16(-0.12299701571464539),
    F16(-2.253706455230713),
    F16(-0.16924336552619934),
    F16(-0.532256543636322),
    F16(0.9516475200653076),
    F16(0.14254191517829895),
    F16(0.17311158776283264),
    F16(-0.10019040107727051),
    F16(0.22157546877861023),
    F16(-0.04232926294207573),
    F16(0.7778329253196716),
    F16(0.19945195317268372),
    F16(0.05493606626987457),
    F16(0.0668954849243164),
    F16(-1.133152723312378),
    F16(1.2557233572006226),
    F16(1.232114315032959),
    F16(-1.0889116525650024),
    F16(1.3385056257247925),
    F16(0.8140631914138794),
    F16(0.20008128881454468),
    F16(-1.404495358467102),
    F16(-0.01611761376261711),
    F16(-1.2139815092086792),
    F16(0.0036155760753899813),
    F16(-0.07132057100534439),
    F16(-0.9175536036491394),
    F16(0.1685183346271515),
    F16(-1.590850591659546),
    F16(-0.6867087483406067),
    F16(0.1463419795036316),
    F16(-0.07760068774223328),
    F16(-0.22715753316879272),
    F16(-0.0497644767165184),
    F16(0.48760107159614563),
    F16(-0.03306737169623375),
    F16(-1.4368306398391724),
    F16(0.27763164043426514),
    F16(0.8029536604881287),
    F16(0.36954671144485474),
    F16(-1.1081441640853882),
    F16(-0.02192883938550949),
    F16(-0.03748242184519768),
    F16(0.25277841091156006),
    F16(0.5759938955307007),
    F16(0.4712008237838745),
    F16(-1.1147246360778809),
    F16(-0.08336495608091354),
    F16(0.13562797009944916),
    F16(0.3289536237716675),
    F16(-0.3759908974170685),
    F16(0.9939385056495667),
    F16(0.0462692566215992),
    F16(0.5510737299919128),
    F16(0.26408132910728455),
    F16(-0.8831130862236023),
    F16(-0.11879512667655945),
    F16(0.43446311354637146),
    F16(-0.24626238644123077),
    F16(-0.08262763917446136),
    F16(-0.08747873455286026),
    F16(0.3988158106803894),
    F16(-0.259446918964386),
    F16(0.2980772852897644),
    F16(-1.6110870838165283),
    F16(-0.1800193339586258),
    F16(1.0945558547973633),
    F16(-0.7676092386245728),
    F16(-0.6745595335960388),
    F16(0.9112865328788757),
    F16(0.033275749534368515),
    F16(-0.4442831575870514),
    F16(-1.4855245351791382),
    F16(-1.2157137393951416),
    F16(-0.25194308161735535),
    F16(0.03604333847761154),
    F16(-0.7356470227241516),
    F16(-0.4055718183517456),
    F16(-0.7934160828590393),
    F16(-0.5018667578697205),
    F16(0.09510913491249084),
    F16(-0.029401114210486412),
    F16(-1.023695945739746),
    F16(-1.4157251119613647),
    F16(-1.6770399808883667),
    F16(-1.4810024499893188),
    F16(-1.144877314567566),
    F16(0.576427161693573),
    F16(-1.3601012229919434),
    F16(-0.6919755339622498),
    F16(-0.7541449666023254),
    F16(0.24732479453086853),
    F16(-0.05698718503117561),
    F16(-1.4369490146636963),
    F16(0.11440159380435944),
    F16(-1.0217186212539673),
    F16(-1.0565791130065918),
    F16(-1.8339139223098755),
    F16(0.03982950374484062),
    F16(-0.13770438730716705),
    F16(-1.141212821006775),
    F16(-1.5382795333862305),
    F16(0.17831677198410034),
    F16(0.5755699276924133),
    F16(-1.4827244281768799),
    F16(-1.603298306465149),
    F16(-0.04222506657242775),
    F16(0.0962030440568924),
    F16(0.010740977711975574),
    F16(0.07819163799285889),
    F16(-1.3451638221740723),
    F16(-1.8493154048919678),
    F16(0.07533074915409088),
    F16(0.17496588826179504),
    F16(-0.4699663817882538),
    F16(-1.3975120782852173),
    F16(-0.5732610821723938),
    F16(0.004851025994867086),
    F16(0.08484989404678345),
    F16(-0.9027080535888672),
    F16(0.8516607284545898),
    F16(-0.030822210013866425),
    F16(-0.13663581013679504),
    F16(-0.17544744908809662),
    F16(-0.0024912753142416477),
    F16(0.42991113662719727),
    F16(-0.1328001767396927),
    F16(-1.0493305921554565),
    F16(0.3228166401386261),
    F16(0.14218242466449738),
    F16(0.16589511930942535),
    F16(1.1002415418624878),
    F16(-0.2330402433872223),
    F16(-0.058847129344940186),
    F16(-1.532056450843811),
    F16(-1.7749308347702026),
    F16(0.5259758830070496),
    F16(0.07505334168672562),
    F16(-1.4170280694961548),
    F16(0.6409904360771179),
    F16(0.04578588157892227),
    F16(0.4919615089893341),
    F16(0.24296702444553375),
    F16(0.4212884306907654),
    F16(-1.768338680267334),
    F16(-0.44318708777427673),
    F16(-0.3207067549228668),
    F16(-0.3714366853237152),
    F16(-0.41507574915885925),
    F16(0.4531784653663635),
    F16(-0.07225986570119858),
    F16(0.21060782670974731),
    F16(0.6984745264053345),
    F16(-0.2842139005661011),
    F16(-1.0555285215377808),
    F16(-0.2880902588367462),
    F16(0.2116340547800064),
    F16(0.0029704407788813114),
    F16(-0.25087079405784607),
    F16(0.6440967321395874),
    F16(-0.6306314468383789),
    F16(-1.0897780656814575),
    F16(-0.20403432846069336),
    F16(0.13539829850196838),
    F16(-1.5949594974517822),
    F16(0.16856618225574493),
    F16(-0.7298313975334167),
    F16(-0.7791497707366943),
    F16(0.6743004322052002),
    F16(-1.000732421875),
    F16(1.1422399282455444),
    F16(-0.9807536005973816),
    F16(-0.16029861569404602),
    F16(-1.1148793697357178),
    F16(0.11588694155216217),
    F16(-0.032302629202604294),
    F16(-1.3698569536209106),
    F16(0.5241886973381042),
    F16(-1.3069936037063599),
    F16(-0.1301157921552658),
    F16(0.13940395414829254),
    F16(-0.04792330414056778),
    F16(-0.45122653245925903),
    F16(-0.14803610742092133),
    F16(-0.31605759263038635),
    F16(-0.6367645859718323),
    F16(-1.5942983627319336),
    F16(-0.059715427458286285),
    F16(0.7432458996772766),
    F16(0.46165937185287476),
    F16(-1.0299707651138306),
    F16(0.5523217916488647),
    F16(-0.06682687997817993),
    F16(0.18185797333717346),
    F16(-1.3382335901260376),
    F16(0.5571447610855103),
    F16(0.2541821300983429),
    F16(-0.5817904472351074),
    F16(-0.5592600107192993),
    F16(-0.006912042386829853),
    F16(-0.13793601095676422),
    F16(0.684586763381958),
    F16(-0.0075432914309203625),
    F16(-0.328437864780426),
    F16(-1.1601985692977905),
    F16(-1.5024710893630981),
    F16(0.19242776930332184),
    F16(0.172872394323349),
    F16(-0.06691794097423553),
    F16(0.016887875273823738),
    F16(-1.4937905073165894),
    F16(0.11146026104688644),
    F16(-0.03218280151486397),
    F16(0.28846824169158936),
    F16(-0.9264681935310364),
    F16(-0.3156443238258362),
    F16(1.1572216749191284),
    F16(-0.4055612087249756),
    F16(-0.04945622384548187),
    F16(0.8552892804145813),
    F16(0.045641109347343445),
    F16(-0.06911803036928177),
    F16(0.7191805243492126),
    F16(-0.7258065342903137),
    F16(-0.2405916452407837),
    F16(-0.8862106800079346),
    F16(0.1778218299150467),
    F16(-0.5168181657791138),
    F16(-0.24817146360874176),
    F16(-1.1401325464248657),
    F16(-1.1515214443206787),
    F16(-1.636222243309021),
    F16(0.1347082108259201),
    F16(0.26213338971138),
    F16(-1.5586268901824951),
    F16(0.10075781494379044),
    F16(-1.409522533416748),
    F16(0.06373251229524612),
    F16(-1.8837426900863647),
    F16(0.1100199818611145),
    F16(0.19357548654079437),
    F16(0.04191190376877785),
    F16(-0.9651883244514465),
    F16(0.6313105821609497),
    F16(0.0676027312874794),
    F16(-1.361557960510254),
    F16(-1.1900641918182373),
    F16(-0.16701753437519073),
    F16(0.5431175231933594),
    F16(0.14128004014492035),
    F16(-0.370471715927124),
    F16(-0.08757201582193375),
    F16(-1.961876630783081),
    F16(0.16583263874053955),
    F16(-0.3644320070743561),
    F16(-0.16001427173614502),
    F16(0.24880965054035187),
    F16(-1.550995945930481),
    F16(0.45801159739494324),
    F16(-2.125924825668335),
    F16(-0.6087679862976074),
    F16(-1.3173174858093262),
    F16(0.32279011607170105),
    F16(0.16534791886806488),
    F16(-1.3182117938995361),
    F16(1.3135476112365723),
    F16(1.3336269855499268),
    F16(0.1102464497089386),
    F16(0.06864988058805466),
    F16(0.9791787266731262),
    F16(0.08423372358083725),
    F16(0.06405898183584213),
    F16(-2.5978336334228516),
    F16(-0.04820206016302109),
    F16(0.06830178201198578),
    F16(-0.017079005017876625),
    F16(-0.12367364019155502),
    F16(0.36093440651893616),
    F16(0.3971904516220093),
    F16(0.23560239374637604),
    F16(0.08778788149356842),
    F16(0.9368011355400085),
    F16(-0.7951511740684509),
    F16(-1.1050219535827637),
    F16(-1.5984095335006714),
    F16(-1.3697870969772339),
    F16(0.37572458386421204),
    F16(0.606605052947998),
    F16(0.3857657313346863),
    F16(-0.45959582924842834),
    F16(-0.025515295565128326),
    F16(0.317262202501297),
    F16(0.08016626536846161),
    F16(-1.0751978158950806),
    F16(-0.27695146203041077),
    F16(0.6579808592796326),
    F16(0.5881963968276978),
    F16(-0.5918875932693481),
    F16(-0.09631157666444778),
    F16(-0.10217735916376114),
    F16(0.10650904476642609),
    F16(0.10930183529853821),
    F16(0.528432309627533),
    F16(1.5217185020446777),
    F16(-0.6629838347434998),
    F16(-1.336793065071106),
    F16(-0.11660855263471603),
    F16(-0.12260935455560684),
    F16(0.0014243738260120153),
    F16(0.5209399461746216),
    F16(-1.5896530151367188),
    F16(-0.40780818462371826),
    F16(0.09064041078090668),
    F16(0.06121836602687836),
    F16(0.508819580078125),
    F16(0.6404584050178528),
    F16(-1.1665780544281006),
    F16(0.20234324038028717),
    F16(0.4802264869213104),
    F16(-1.338611125946045),
    F16(-0.0002421005629003048),
    F16(-0.255485475063324),
    F16(0.7597598433494568),
    F16(0.0574115626513958),
    F16(-0.07035417854785919),
    F16(-0.4558812975883484),
    F16(0.24095743894577026),
    F16(0.08629539608955383),
    F16(1.31761634349823),
    F16(0.7202537655830383),
    F16(0.006780154537409544),
    F16(-0.04175962880253792),
    F16(0.7237136363983154),
    F16(0.5031579732894897),
    F16(-0.4249175190925598),
    F16(-0.0329219326376915),
    F16(-0.7939998507499695),
    F16(-1.695510983467102),
    F16(0.039924509823322296),
    F16(0.43558481335639954),
    F16(-0.004562752321362495),
    F16(-0.22745828330516815),
    F16(-0.14028258621692657),
    F16(0.44405630230903625),
    F16(-0.7545300722122192),
    F16(0.41465649008750916),
    F16(1.2931547164916992),
    F16(0.13096384704113007),
    F16(0.28944164514541626),
    F16(0.03467344492673874),
    F16(0.20350301265716553),
    F16(0.6100853085517883),
    F16(-0.029451237991452217),
    F16(-0.3434906005859375),
    F16(-0.757817804813385),
    F16(0.26553261280059814),
    F16(-0.023497704416513443),
    F16(-0.11675132811069489),
    F16(-0.08830413967370987),
    F16(-0.011685564182698727),
    F16(0.0074082668870687485),
    F16(-0.1852683424949646),
    F16(-0.14465878903865814),
    F16(0.09612748771905899),
    F16(-0.4579576253890991),
    F16(-1.1570621728897095),
    F16(-1.2060431241989136),
    F16(0.15712277591228485),
    F16(-0.1900695413351059),
    F16(-1.1356436014175415),
    F16(-0.2510318458080292),
    F16(0.06053135544061661),
    F16(-2.120913505554199),
    F16(0.19812801480293274),
    F16(0.04186316207051277),
    F16(0.09945347160100937),
    F16(0.39772868156433105),
    F16(-0.7665072083473206),
    F16(0.5734472274780273),
    F16(0.2420075237751007),
    F16(0.257883220911026),
    F16(0.5344096422195435),
    F16(-0.4828585982322693),
    F16(-0.4050034284591675),
    F16(-0.9182901382446289),
    F16(-1.5320171117782593),
    F16(0.34582796692848206),
    F16(0.2556557357311249),
    F16(-1.6435850858688354),
    F16(-0.4796534776687622),
    F16(0.07102794200181961),
    F16(0.15792174637317657),
    F16(0.17082054913043976),
    F16(-0.4418192207813263),
    F16(-1.659600019454956),
    F16(-0.21449367702007294),
    F16(0.008327146992087364),
    F16(-0.2012033462524414),
    F16(-1.6071677207946777),
    F16(0.11900418996810913),
    F16(0.005162451881915331),
    F16(-0.6705430150032043),
    F16(0.5901892781257629),
    F16(0.2219875454902649),
    F16(-0.740082859992981),
    F16(-0.5264108777046204),
    F16(-1.8543648719787598),
    F16(0.26846006512641907),
    F16(-1.703053593635559),
    F16(0.35686659812927246),
    F16(-0.7085214257240295),
    F16(-0.771344780921936),
    F16(-1.9396641254425049),
    F16(0.21171820163726807),
    F16(0.6697250008583069),
    F16(0.3681131899356842),
    F16(-1.3766348361968994),
    F16(-0.08783864974975586),
    F16(-0.17207688093185425),
    F16(-1.3211804628372192),
    F16(0.22020260989665985),
    F16(-1.6383118629455566),
    F16(-1.3292466402053833),
    F16(0.22846364974975586),
    F16(0.505412757396698),
    F16(-1.0659401416778564),
    F16(-1.0847187042236328),
    F16(0.7875137329101562),
    F16(-0.7271317839622498),
    F16(-0.7740548253059387),
    F16(-0.1730722188949585),
    F16(-1.131716012954712),
    F16(-0.030946390703320503),
    F16(-0.906695544719696),
    F16(0.4805893003940582),
    F16(-0.14686715602874756),
    F16(-0.27789390087127686),
    F16(-0.9652822017669678),
    F16(1.5914396047592163),
    F16(-0.3846829831600189),
    F16(-1.3424160480499268),
    F16(0.3724342882633209),
    F16(-0.4660190939903259),
    F16(-1.3875529766082764),
    F16(-0.3160361349582672),
    F16(1.152061939239502),
    F16(0.12779459357261658),
    F16(-0.05362337455153465),
    F16(-1.120939016342163),
    F16(-0.920940101146698),
    F16(0.18458333611488342),
    F16(0.07899868488311768),
    F16(-1.2114758491516113),
    F16(-0.7829357981681824),
    F16(0.43186280131340027),
    F16(0.17385777831077576),
    F16(-0.015137722715735435),
    F16(-0.22814777493476868),
    F16(0.008794517256319523),
    F16(-0.795969545841217),
    F16(0.4977802336215973),
    F16(0.6589435935020447),
    F16(0.04089203104376793),
    F16(0.3127533495426178),
    F16(0.690953254699707),
    F16(0.905120849609375),
    F16(1.7570958137512207),
    F16(-0.7428799867630005),
    F16(0.15138129889965057),
    F16(1.3913034200668335),
    F16(0.4956344962120056),
    F16(-1.4919257164001465),
    F16(-0.11316504329442978),
    F16(0.2074902057647705),
    F16(0.1968538612127304),
    F16(-1.0763722658157349),
    F16(-0.5635287761688232),
    F16(0.10019222646951675),
    F16(-0.9545671343803406),
    F16(-0.8459753394126892),
    F16(-1.5147318840026855),
    F16(-1.6130274534225464),
    F16(0.018788060173392296),
    F16(-0.16056634485721588),
    F16(-0.7872934937477112),
    F16(-1.0225130319595337),
    F16(-0.7626299262046814),
    F16(-0.12794554233551025),
    F16(0.10011196881532669),
    F16(0.42181333899497986),
    F16(-0.6866254210472107),
    F16(0.07689827680587769),
    F16(-1.7372725009918213),
    F16(0.19259768724441528),
    F16(-0.10317528247833252),
    F16(0.3458295166492462),
    F16(0.018276618793606758),
    F16(-0.30104926228523254),
    F16(-0.12753917276859283),
    F16(0.19284646213054657),
    F16(0.16456587612628937),
    F16(0.4103825092315674),
    F16(-1.4372214078903198),
    F16(0.4142986834049225),
    F16(-0.7967106699943542),
    F16(0.19315467774868011),
    F16(-0.1088380441069603),
    F16(-1.6808412075042725),
    F16(-0.09267619997262955),
    F16(-1.5322692394256592),
    F16(0.15503402054309845),
    F16(-0.23642966151237488),
    F16(-0.025317078456282616),
    F16(0.22171969711780548),
    F16(0.4754787087440491),
    F16(-0.40345776081085205),
    F16(0.975040853023529),
    F16(-1.468190312385559),
    F16(-2.114586353302002),
    F16(1.5037695169448853),
    F16(-0.21451535820960999),
    F16(0.2950083315372467),
    F16(0.024557849392294884),
    F16(0.4825502038002014),
    F16(-0.14552800357341766),
    F16(0.07130701839923859),
    F16(0.3155824840068817),
    F16(-0.4586532413959503),
    F16(-1.1913374662399292),
    F16(-1.8232446908950806),
    F16(-0.756942093372345),
    F16(0.05454031378030777),
    F16(0.07289836555719376),
    F16(-0.1674921065568924),
    F16(-0.8298943042755127),
    F16(0.07155345380306244),
    F16(0.41105809807777405),
    F16(0.015727253630757332),
    F16(-1.6504660844802856),
    F16(-1.3653953075408936),
    F16(0.34080684185028076),
    F16(-0.06496445089578629),
    F16(0.013755658641457558),
    F16(-0.5659770965576172),
    F16(-0.03647252544760704),
    F16(-2.13728928565979),
    F16(-0.3849913775920868),
    F16(-0.0689779743552208),
    F16(0.628129243850708),
    F16(-0.14597955346107483),
    F16(0.04982535541057587),
    F16(-2.796351432800293),
    F16(-0.2531679570674896),
    F16(-0.1451636701822281),
    F16(-0.5541167855262756),
    F16(0.167345330119133),
    F16(0.050084732472896576),
    F16(-0.9487085938453674),
    F16(0.6721285581588745),
    F16(-0.16152749955654144),
    F16(0.18878042697906494),
    F16(-0.6826110482215881),
    F16(0.4877128303050995),
    F16(0.03644814342260361),
    F16(0.5734800100326538),
    F16(0.4168340563774109),
    F16(-1.353922724723816),
    F16(-1.0398610830307007),
    F16(0.7362715005874634),
    F16(-0.7820658683776855),
    F16(-0.015294322744011879),
    F16(0.5732317566871643),
    F16(1.0519518852233887),
    F16(0.9104959964752197),
    F16(-0.22499698400497437),
    F16(0.15013854205608368),
    F16(0.46041426062583923),
    F16(0.07445473223924637),
    F16(-1.588101863861084),
    F16(-0.46507829427719116),
    F16(-0.27195581793785095),
    F16(0.021954750642180443),
    F16(0.38153451681137085),
    F16(0.34056180715560913),
    F16(-0.5178889036178589),
    F16(0.17454512417316437),
    F16(0.9084571003913879),
    F16(-0.24955902993679047),
    F16(0.1222311481833458),
    F16(0.14873532950878143),
    F16(0.9016193747520447),
    F16(-0.3222370147705078),
    F16(0.1022690162062645),
    F16(0.5909867286682129),
    F16(-0.9291257858276367),
    F16(0.45173898339271545),
    F16(0.2730867862701416),
    F16(0.015176363289356232),
    F16(0.39267951250076294),
    F16(0.35304853320121765),
    F16(0.6153659820556641),
    F16(0.6084975600242615),
    F16(-0.07281836867332458),
    F16(-0.8561385273933411),
    F16(-0.35196012258529663),
    F16(0.3021754324436188),
    F16(-0.04983878880739212),
    F16(-0.40950915217399597),
    F16(-0.21251019835472107),
    F16(-0.0177173912525177),
    F16(-0.2064514309167862),
    F16(-0.09179087728261948),
    F16(-0.1352740079164505),
    F16(0.2141181379556656),
    F16(-1.4163485765457153),
    F16(1.284489393234253),
    F16(1.0140552520751953),
    F16(0.1336704045534134),
    F16(-0.24190016090869904),
    F16(0.6848465800285339),
    F16(0.1566852480173111),
    F16(-1.3971401453018188),
    F16(-0.987802267074585),
    F16(-1.003334403038025),
    F16(0.252993643283844),
    F16(-1.4041728973388672),
    F16(-0.5348169207572937),
    F16(0.8456676602363586),
    F16(-0.3521000146865845),
    F16(-0.3094995617866516),
    F16(-0.2889169156551361),
    F16(-1.6500368118286133),
    F16(-0.8556849956512451),
    F16(-0.5121637582778931),
    F16(0.3517560362815857),
    F16(-0.0582609623670578),
    F16(0.018345123156905174),
    F16(-0.17616532742977142),
    F16(1.3822487592697144),
    F16(-0.2198047786951065),
    F16(-0.7340893745422363),
    F16(0.11926206946372986),
    F16(-0.5691577196121216),
    F16(-0.7573463916778564),
    F16(0.3899086117744446),
    F16(0.8312771320343018),
    F16(0.34331801533699036),
    F16(-0.19321201741695404),
    F16(-0.09361183643341064),
    F16(-0.33115920424461365),
    F16(-0.06803318858146667),
    F16(-0.05179214850068092),
    F16(-0.9216240644454956),
    F16(0.004375047981739044),
    F16(0.4912162721157074),
    F16(-1.1527254581451416),
    F16(-0.03960211202502251),
    F16(-0.3253418505191803),
    F16(0.20978589355945587),
    F16(-1.0107635259628296),
    F16(-0.2972535789012909),
    F16(0.687117874622345),
    F16(0.1915116310119629),
    F16(0.1794416904449463),
    F16(0.3853135406970978),
    F16(-1.8901398181915283),
    F16(-1.6042437553405762),
    F16(-1.696395754814148),
    F16(-0.04195744916796684),
    F16(-1.6286662817001343),
    F16(0.11470126360654831),
    F16(0.5334603190422058),
    F16(0.8761544823646545),
    F16(0.2920870780944824),
    F16(-0.9481667280197144),
    F16(0.3893706202507019),
    F16(0.06258583068847656),
    F16(-0.6070572733879089),
    F16(-1.8195970058441162),
    F16(-0.35657039284706116),
    F16(-0.0789862796664238),
    F16(-0.017277171835303307),
    F16(0.15240557491779327),
    F16(0.20266009867191315),
    F16(-2.236621618270874),
    F16(-0.08935202658176422),
    F16(0.7682165503501892),
    F16(0.1293065845966339),
    F16(-2.1652112007141113),
    F16(0.23588985204696655),
    F16(0.37531188130378723),
    F16(0.14401252567768097),
    F16(0.1174013614654541),
    F16(0.6565687656402588),
    F16(-1.64341402053833),
    F16(-1.7499704360961914),
    F16(-0.8238049745559692),
    F16(-0.10473000258207321),
    F16(-0.4256376326084137),
    F16(0.13063712418079376),
    F16(-0.0660582184791565),
    F16(-0.12597207725048065),
    F16(0.05712196230888367),
    F16(-0.40580636262893677),
    F16(-0.9502695202827454),
    F16(0.30667275190353394),
    F16(0.4141523241996765),
    F16(0.04162875562906265),
    F16(-0.031740956008434296),
    F16(-0.023762302473187447),
    F16(0.1150718480348587),
    F16(-1.6732481718063354),
    F16(0.004626892507076263),
    F16(0.19608396291732788),
    F16(-1.0715786218643188),
    F16(-1.1713883876800537),
    F16(-1.596869945526123),
    F16(0.04076724126935005),
    F16(-0.37700599431991577),
    F16(-1.5150988101959229),
    F16(0.24748612940311432),
    F16(-0.15231667459011078),
    F16(0.8513747453689575),
    F16(-1.7272231578826904),
    F16(0.028070969507098198),
    F16(-0.5441421866416931),
    F16(0.013433340936899185),
    F16(0.16273227334022522),
    F16(-0.3197019398212433),
    F16(-0.666711151599884),
    F16(-0.04796948283910751),
    F16(-1.6378846168518066),
    F16(-0.15354757010936737),
    F16(0.23987756669521332),
    F16(0.6510875225067139),
    F16(0.45233795046806335),
    F16(-1.056631326675415),
    F16(-0.6907998323440552),
    F16(-0.03202047199010849),
    F16(0.5935371518135071),
    F16(0.07389423251152039),
    F16(0.16576537489891052),
    F16(-0.24927359819412231),
    F16(0.9524660706520081),
    F16(0.15991058945655823),
    F16(-1.3462656736373901),
    F16(-0.9559661746025085),
    F16(0.09012891352176666),
    F16(-0.34697598218917847),
    F16(-0.18030983209609985),
    F16(-0.3476194739341736),
    F16(-0.1511564701795578),
    F16(-1.0310660600662231),
    F16(-1.1298470497131348),
    F16(0.6100066304206848),
    F16(-0.35438835620880127),
    F16(0.563235342502594),
    F16(-0.029681595042347908),
    F16(0.2113976925611496),
    F16(-0.8232543468475342),
    F16(-0.19918161630630493),
    F16(0.37223297357559204),
    F16(0.2575709819793701),
    F16(0.26219630241394043),
    F16(-1.318593978881836),
    F16(-0.2903147041797638),
    F16(1.251658320426941),
    F16(-0.26974549889564514),
    F16(-0.05222626402974129),
    F16(1.5555670261383057),
    F16(0.05285372585058212),
    F16(0.46528419852256775),
    F16(1.433648943901062),
    F16(-0.8167926073074341),
    F16(-0.46409326791763306),
    F16(-0.20973613858222961),
    F16(0.21536079049110413),
    F16(-0.5503837466239929),
    F16(0.007436965126544237),
    F16(0.09095396101474762),
    F16(-0.4523369073867798),
    F16(-0.5901354551315308),
    F16(-0.09372662007808685),
    F16(0.31593483686447144),
    F16(-0.13096700608730316),
    F16(0.2260262817144394),
    F16(-0.13602213561534882),
    F16(-0.061859309673309326),
    F16(-1.051577091217041),
    F16(0.1098233312368393),
    F16(0.6468992233276367),
    F16(-0.06442911177873611),
    F16(-0.1619352400302887),
    F16(0.8871237635612488),
    F16(0.03142346814274788),
    F16(-1.4749795198440552),
    F16(-0.6719514727592468),
    F16(-0.11337101459503174),
    F16(1.055985927581787),
    F16(0.15632304549217224),
    F16(-0.2551098167896271),
    F16(-0.05773211643099785),
    F16(-0.732836127281189),
    F16(-0.05690109729766846),
    F16(-0.13983559608459473),
    F16(-0.2205769419670105),
    F16(0.41370195150375366),
    F16(-0.5670503973960876),
    F16(0.810980498790741),
    F16(-0.5395193099975586),
    F16(-0.7404481172561646),
    F16(-0.2535054385662079),
    F16(0.5739856958389282),
    F16(0.009243467822670937),
    F16(-0.7714459300041199),
    F16(1.189536452293396),
    F16(0.912377655506134),
    F16(0.20477557182312012),
    F16(0.14095064997673035),
    F16(1.5222456455230713),
    F16(-0.9282296299934387),
    F16(0.629950761795044),
    F16(0.45894718170166016),
    F16(-0.029401294887065887),
    F16(0.02071930095553398),
    F16(0.04346300661563873),
    F16(0.7401934862136841),
    F16(0.2842329442501068),
    F16(-0.16932572424411774),
    F16(-0.1322982907295227),
    F16(-0.10639625042676926),
    F16(0.015602926723659039),
    F16(-0.09532249718904495),
    F16(0.2827409505844116),
    F16(0.42739763855934143),
    F16(0.7400165796279907),
    F16(0.8033774495124817),
    F16(0.010659100487828255),
